tree
version=v4
num_class=1
num_tree_per_iteration=1
label_index=0
max_feature_idx=37
objective=binary sigmoid:1
feature_names=Column_0 Column_1 Column_2 Column_3 Column_4 Column_5 Column_6 Column_7 Column_8 Column_9 Column_10 Column_11 Column_12 Column_13 Column_14 Column_15 Column_16 Column_17 Column_18 Column_19 Column_20 Column_21 Column_22 Column_23 Column_24 Column_25 Column_26 Column_27 Column_28 Column_29 Column_30 Column_31 Column_32 Column_33 Column_34 Column_35 Column_36 Column_37
feature_infos=[-0.43991649313097614:2.2731586917389581] [-1.318164947398796:1.6137012404433893] [-1.5458598200734601:1.7943521502604476] [-0.99985031465298879:2.8264694645392616] [0:1] [0:1] [0:1] [0:1] [0:1] [0:1] [0:1] [0:1] [0:1] [0:1] [0:1] [0:1] [0:1] [0:1] [0:1] [0:1] [0:1] [0:1] [0:1] [0:1] [0:1] [0:1] [0:1] [0:1] [0:1] [0:1] [0:1] [0:1] [0:1] [0:1] [0:1] [0:1] [0:1] [0:1]
tree_sizes=361 372 375 374 370 375 373 374 374 375 375 375 376 374 376 373 371 373 375 376 376 372 374 375 375 372 375 375 376 372 374 375 376 373 376 372 377 376 376 372 376 377 373 377 376 372 372 375 376 372 376 375 377 377 371 375 372 376 375 373 375 371 377 374 371 376 372 376 377 377 368 376 369 377 377 376 376 370 377 377 377 372 377 373 375 376 371 373 375 375 366 366 366 366 359 361 361 366 366 362 366 366 363 367 360 367 367 365 367 367 364 366 361 367 363 366 367 358 367 367 364 365 366 367 361 362 367 362 365 367 367 361 367 366 361 367 362 360 366 361 361 362 360 365 366 366 363 367 367 364 361 361 366 367 362 366 368 362 366 366 359 361 360 368 365 363 360 368 366 363 367 365 364 367 362 366 368 363 362 359 367 367 363 367 361 366 361 365 362 364 365 368 361 361 367 366 362 366 366 361 368 364 367 368 368 361 368 362 363 364 362 361 368 366 364 361 364 367 363 368 365 364 367 367 368 363 367 362 361 365 362 368 365 362 366 367 362 368 367 362 368 367 367 364 367 361 363 361 365 367 366 364 366 363 362 362 365 361 365 364 363 367 364 367 364 367 367 366 363 361 362 364 368 364 363 367 367 368 365 363 364 364 362 366 366 364 361 365 364 367 361 366 367 364 361 363 364 364 363 364 368 368 362 363 368 366 365 367 368 368 368 361 366 364 366 363 364 367 366 362 368 367 361 364 368 364 365 368 361 367 365 367 366 363 364 363 364 368 364 364 366 366 367 363 367 368 362 362 367 368 364 367 364 368 368 363 362 368 365 363 368 362 367 361 362 368 368 363 363 368 364 368 368 364 362 364 368 362 368 363 367 363 367 365 368 364 364 363 368 368 361 365 368 362 367 364 367 367 368 363 368 368 364 363 368 367 364 362 366 364 362 360 365 363 366 367 363 368 364 364 368 364 368 362 362 367 364 368 365 369 364 365 368 368 362 367 368 363 364 361 368 366 363 365 364 363 365 363 362 368 366 368 367 363 364 364 364 362 369 367 368 363 362 364 364 362 361 365 368 367 367 363 364 367 368 364 362 364 368 365 362 369 367 369 365 362 366 364 365 366 368 362 362 369 364 365 370 364 364 369 367 364 365 366 366 364 369 365 370 367 369 364 366 368 369 362 364 368 365 364 365 370 369 364 363 363 363 369 368 365 366 366 369 364 361 365 364 364 362 365 364 369 368 362 365 366 364 363 368 362 369 363 365 369 362 365 366 365 365 370 369 370 363 367 362 370 368 368 370 364 364 361 364 363 365 365 365 366 365 365 363 370 363 364 366 369 367 369 361 366 363 365 364 366 363 369 368 368 364 365 365 368 365 369 365 366 364 368 369 364 362 363 365 365 370 362 362 364 364 365 370 365 366 369 369 367 361 367 363 366 364 365 362 363 368 366 370 367 365 369 367 363 369 364 365 366 369 363 364 365 366 369 369 370 365 365 363 363 366 366 361 366 366 370 363 367 364 364 369 367 365 365 365 365 364 365 369 362 362 367 367 369 365 364 369 369 362 365 363 366 367 365 366 364 366 365 370 364 370 364 365 363 367 366 364 366 365 364 363 369 367 368 366 370 365 363 364 362 368 362 368 367 364 369 365 362 365 366 364 362 361 366 369 369 363 365 366 369 364 368 369 363 370 365 365 365 365 366 364 365 365 366 367 363 368 364 366 366 365 370 366 366 363 369 367 366 365 366 362 366 365 366 365 365 366 362 369 363 364 370 362 367 365 369 366 365 365 367 365 365 367 365 365 367 366 365 369 368 368 366 364 363 363 370 363 366 365 366 365 365 366 365 364 363 364 366 366 365 366 367 362 362 370 370 363 370 364 365 366 369 366 365 369 365 365 363 365 365 365 362 366 366 366 367 366 363 366 369 363 364 365 370 365 369 364 366 363 364 360 363 364 365 369 367 364 370 366 367 365 366 366 368 366 364 363 366 366 366 366 365 369 365 363 365 366 362 367 365 365 365 369 367 362 369 366 366 363 366 366 365

Tree=0
num_leaves=2
num_cat=0
split_feature=37
split_gain=1152.25
threshold=1.0000000180025095e-35
decision_type=2
left_child=-1
right_child=-2
leaf_value=-1.0867739075033362 -0.96220514651863887
leaf_weight=617.59749126434326 755.42622432112694
leaf_count=3168 3875
internal_value=-1.01824
internal_weight=1373.02
internal_count=7043
is_linear=0
shrinkage=1


Tree=1
num_leaves=2
num_cat=0
split_feature=1
split_gain=676.917
threshold=-0.64627894601829505
decision_type=2
left_child=-1
right_child=-2
leaf_value=0.062001424304136951 -0.036424707635992495
leaf_weight=506.94593060016632 865.64046186208725
leaf_count=2550 4493
internal_value=-2.71225e-05
internal_weight=1372.59
internal_count=7043
is_linear=0
shrinkage=0.0676762


Tree=2
num_leaves=2
num_cat=0
split_feature=37
split_gain=956.027
threshold=1.0000000180025095e-35
decision_type=2
left_child=-1
right_child=-2
leaf_value=-0.065164872956271186 0.048930038722917429
leaf_weight=589.16849660873413 782.27749285101891
leaf_count=3168 3875
internal_value=-5.73511e-05
internal_weight=1371.45
internal_count=7043
is_linear=0
shrinkage=0.0676762


Tree=3
num_leaves=2
num_cat=0
split_feature=14
split_gain=614.114
threshold=1.0000000180025095e-35
decision_type=2
left_child=-1
right_child=-2
leaf_value=-0.040816996493291235 0.050345130341355855
leaf_weight=757.86804661154747 610.5828001499176
leaf_count=3947 3096
internal_value=-0.000103258
internal_weight=1368.45
internal_count=7043
is_linear=0
shrinkage=0.0676762


Tree=4
num_leaves=2
num_cat=0
split_feature=1
split_gain=533.271
threshold=-0.60555858229826465
decision_type=2
left_child=-1
right_child=-2
leaf_value=0.051722717549163341 -0.034555808125178493
leaf_weight=545.03296060860157 822.43296702206135
leaf_count=2637 4406
internal_value=-0.0001258
internal_weight=1367.47
internal_count=7043
is_linear=0
shrinkage=0.0676762


Tree=5
num_leaves=2
num_cat=0
split_feature=37
split_gain=778.592
threshold=1.0000000180025095e-35
decision_type=2
left_child=-1
right_child=-2
leaf_value=-0.061632414675811938 0.042305076517743533
leaf_weight=557.67717613279819 807.04201836884022
leaf_count=3168 3875
internal_value=-0.000141578
internal_weight=1364.72
internal_count=7043
is_linear=0
shrinkage=0.0676762


Tree=6
num_leaves=2
num_cat=0
split_feature=37
split_gain=686.934
threshold=1.0000000180025095e-35
decision_type=2
left_child=-1
right_child=-2
leaf_value=-0.059530019115755603 0.038764684152879328
leaf_weight=538.973567456007 820.69095335900784
leaf_count=3168 3875
internal_value=-0.000173797
internal_weight=1359.66
internal_count=7043
is_linear=0
shrinkage=0.0676762


Tree=7
num_leaves=2
num_cat=0
split_feature=37
split_gain=607.034
threshold=1.0000000180025095e-35
decision_type=2
left_child=-1
right_child=-2
leaf_value=-0.057503243962925644 0.035596714171445283
leaf_weight=520.8640946149826 832.84719750285149
leaf_count=3168 3875
internal_value=-0.000199769
internal_weight=1353.71
internal_count=7043
is_linear=0
shrinkage=0.0676762


Tree=8
num_leaves=2
num_cat=0
split_feature=37
split_gain=537.13
threshold=1.0000000180025095e-35
decision_type=2
left_child=-1
right_child=-2
leaf_value=-0.055542331915552093 0.032747584524023356
leaf_weight=503.39165070652962 843.68981349468231
leaf_count=3168 3875
internal_value=-0.000220425
internal_weight=1347.08
internal_count=7043
is_linear=0
shrinkage=0.0676762


Tree=9
num_leaves=2
num_cat=0
split_feature=37
split_gain=475.781
threshold=1.0000000180025095e-35
decision_type=2
left_child=-1
right_child=-2
leaf_value=-0.053639221267043992 0.030173996898688306
leaf_weight=486.58579613268375 853.37447622418404
leaf_count=3168 3875
internal_value=-0.000236527
internal_weight=1339.96
internal_count=7043
is_linear=0
shrinkage=0.0676762


Tree=10
num_leaves=2
num_cat=0
split_feature=14
split_gain=458.245
threshold=1.0000000180025095e-35
decision_type=2
left_child=-1
right_child=-2
leaf_value=-0.037608444727869922 0.041877892292931693
leaf_weight=706.83211250603199 625.66976544260979
leaf_count=3947 3096
internal_value=-0.000248708
internal_weight=1332.5
internal_count=7043
is_linear=0
shrinkage=0.0676762


Tree=11
num_leaves=2
num_cat=0
split_feature=37
split_gain=410.51
threshold=1.0000000180025095e-35
decision_type=2
left_child=-1
right_child=-2
leaf_value=-0.051394807895450492 0.027353028332293049
leaf_weight=466.57989196479321 863.17699068784714
leaf_count=3168 3875
internal_value=-0.000252814
internal_weight=1329.76
internal_count=7043
is_linear=0
shrinkage=0.0676762


Tree=12
num_leaves=2
num_cat=0
split_feature=14
split_gain=388.713
threshold=1.0000000180025095e-35
decision_type=2
left_child=-1
right_child=-2
leaf_value=-0.035551945563657865 0.037865516196075519
leaf_weight=687.21800738573074 634.84102711081505
leaf_count=3947 3096
internal_value=-0.000260786
internal_weight=1322.06
internal_count=7043
is_linear=0
shrinkage=0.0676762


Tree=13
num_leaves=2
num_cat=0
split_feature=37
split_gain=355.072
threshold=1.0000000180025095e-35
decision_type=2
left_child=-1
right_child=-2
leaf_value=-0.049245014836351193 0.024875125254440827
leaf_weight=447.64367766678333 871.05659492313862
leaf_count=3168 3875
internal_value=-0.00026061
internal_weight=1318.7
internal_count=7043
is_linear=0
shrinkage=0.0676762


Tree=14
num_leaves=2
num_cat=0
split_feature=32
split_gain=331.637
threshold=1.0000000180025095e-35
decision_type=2
left_child=-1
right_child=-2
leaf_value=-0.026897521388570038 0.043223840025609403
leaf_weight=813.83988226950169 497.07988291978836
leaf_count=4678 2365
internal_value=-0.000265282
internal_weight=1310.92
internal_count=7043
is_linear=0
shrinkage=0.0676762


Tree=15
num_leaves=2
num_cat=0
split_feature=14
split_gain=316.664
threshold=1.0000000180025095e-35
decision_type=2
left_child=-1
right_child=-2
leaf_value=-0.033061959235812559 0.033524523472154365
leaf_weight=664.15553031861782 643.42677731812
leaf_count=3947 3096
internal_value=-0.000260186
internal_weight=1307.58
internal_count=7043
is_linear=0
shrinkage=0.0676762


Tree=16
num_leaves=2
num_cat=0
split_feature=1
split_gain=283.586
threshold=-1.0942029469386287
decision_type=2
left_child=-1
right_child=-2
leaf_value=0.056194257195997105 -0.017913428217873867
leaf_weight=309.6812631636858 994.02455785870552
leaf_count=1371 5672
internal_value=-0.000256485
internal_weight=1303.71
internal_count=7043
is_linear=0
shrinkage=0.0676762


Tree=17
num_leaves=2
num_cat=0
split_feature=37
split_gain=285.068
threshold=1.0000000180025095e-35
decision_type=2
left_child=-1
right_child=-2
leaf_value=-0.046064108041658981 0.02162994035760573
leaf_weight=420.6970209479332 879.57093788683414
leaf_count=3168 3875
internal_value=-0.00024695
internal_weight=1300.27
internal_count=7043
is_linear=0
shrinkage=0.0676762


Tree=18
num_leaves=2
num_cat=0
split_feature=14
split_gain=273.04
threshold=1.0000000180025095e-35
decision_type=2
left_child=-1
right_child=-2
leaf_value=-0.031401723574107962 0.030778091974542874
leaf_weight=645.73144967108965 646.84684516489506
leaf_count=3947 3096
internal_value=-0.000248744
internal_weight=1292.58
internal_count=7043
is_linear=0
shrinkage=0.0676762


Tree=19
num_leaves=2
num_cat=0
split_feature=32
split_gain=249.151
threshold=1.0000000180025095e-35
decision_type=2
left_child=-1
right_child=-2
leaf_value=-0.024200561999700641 0.036708500726986039
leaf_weight=782.60860992968082 505.90878670662642
leaf_count=4678 2365
internal_value=-0.000243582
internal_weight=1288.52
internal_count=7043
is_linear=0
shrinkage=0.0676762


Tree=20
num_leaves=2
num_cat=0
split_feature=37
split_gain=239.319
threshold=1.0000000180025095e-35
decision_type=2
left_child=-1
right_child=-2
leaf_value=-0.043623735110090468 0.019389718267856126
leaf_weight=400.65150351077318 884.07397298514843
leaf_count=3168 3875
internal_value=-0.000235843
internal_weight=1284.73
internal_count=7043
is_linear=0
shrinkage=0.0676762


Tree=21
num_leaves=2
num_cat=0
split_feature=1
split_gain=219.901
threshold=-1.0942029469386287
decision_type=2
left_child=-1
right_child=-2
leaf_value=0.048693780655691535 -0.016361009768421322
leaf_weight=315.57736873626709 961.67357775568962
leaf_count=1371 5672
internal_value=-0.000235743
internal_weight=1277.25
internal_count=7043
is_linear=0
shrinkage=0.0676762


Tree=22
num_leaves=2
num_cat=0
split_feature=32
split_gain=205.745
threshold=1.0000000180025095e-35
decision_type=2
left_child=-1
right_child=-2
leaf_value=-0.022491704736494565 0.03298956658202562
leaf_weight=763.4215691909194 510.20128860324621
leaf_count=4678 2365
internal_value=-0.000224532
internal_weight=1273.62
internal_count=7043
is_linear=0
shrinkage=0.0676762


Tree=23
num_leaves=2
num_cat=0
split_feature=29
split_gain=195.28
threshold=1.0000000180025095e-35
decision_type=2
left_child=-1
right_child=-2
leaf_value=0.011169971076245915 -0.061860517411969074
leaf_weight=1071.5229306668043 198.19629926979542
leaf_count=5348 1695
internal_value=-0.000215967
internal_weight=1269.72
internal_count=7043
is_linear=0
shrinkage=0.0676762


Tree=24
num_leaves=2
num_cat=0
split_feature=37
split_gain=182.988
threshold=1.0000000180025095e-35
decision_type=2
left_child=-1
right_child=-2
leaf_value=-0.039971757903433942 0.01641199978451378
leaf_weight=373.64754454046488 891.27728863060474
leaf_count=3168 3875
internal_value=-0.000216887
internal_weight=1264.92
internal_count=7043
is_linear=0
shrinkage=0.0676762


Tree=25
num_leaves=2
num_cat=0
split_feature=1
split_gain=173.272
threshold=-1.0942029469386287
decision_type=2
left_child=-1
right_child=-2
leaf_value=0.042698484857585386 -0.014926378530490324
leaf_weight=320.04811728745699 937.87092762440443
leaf_count=1371 5672
internal_value=-0.000214596
internal_weight=1257.92
internal_count=7043
is_linear=0
shrinkage=0.0676762


Tree=26
num_leaves=2
num_cat=0
split_feature=14
split_gain=212.852
threshold=1.0000000180025095e-35
decision_type=2
left_child=-1
right_child=-2
leaf_value=-0.028871122468460016 0.02688146185185843
leaf_weight=610.12945802509785 644.11596155166626
leaf_count=3947 3096
internal_value=-0.000202771
internal_weight=1254.25
internal_count=7043
is_linear=0
shrinkage=0.0676762


Tree=27
num_leaves=2
num_cat=0
split_feature=14
split_gain=185.868
threshold=1.0000000180025095e-35
decision_type=2
left_child=-1
right_child=-2
leaf_value=-0.027323800649075834 0.02487861226868221
leaf_weight=601.39632961899042 648.74685537815094
leaf_count=3947 3096
internal_value=-0.000197389
internal_weight=1250.14
internal_count=7043
is_linear=0
shrinkage=0.0676762


Tree=28
num_leaves=2
num_cat=0
split_feature=14
split_gain=162.341
threshold=1.0000000180025095e-35
decision_type=2
left_child=-1
right_child=-2
leaf_value=-0.025845018011617968 0.023043726630471856
leaf_weight=593.10764583945274 652.89779105782509
leaf_count=3947 3096
internal_value=-0.000191126
internal_weight=1246.01
internal_count=7043
is_linear=0
shrinkage=0.0676762


Tree=29
num_leaves=2
num_cat=0
split_feature=1
split_gain=164.372
threshold=-0.60555858229826465
decision_type=2
left_child=-1
right_child=-2
leaf_value=0.026062251781193237 -0.023263148418826533
leaf_weight=580.0736395791173 661.80140494555235
leaf_count=2637 4406
internal_value=-0.000184189
internal_weight=1241.88
internal_count=7043
is_linear=0
shrinkage=0.0676762


Tree=30
num_leaves=2
num_cat=0
split_feature=29
split_gain=149.55
threshold=1.0000000180025095e-35
decision_type=2
left_child=-1
right_child=-2
leaf_value=0.009323565324005554 -0.058182111310061853
leaf_weight=1063.1349719911814 174.4473994448781
leaf_count=5348 1695
internal_value=-0.000176981
internal_weight=1237.58
internal_count=7043
is_linear=0
shrinkage=0.0676762


Tree=31
num_leaves=2
num_cat=0
split_feature=16
split_gain=144.657
threshold=1.0000000180025095e-35
decision_type=2
left_child=-1
right_child=-2
leaf_value=0.010199843183049484 -0.05175292294373765
leaf_weight=1026.1606389284134 206.91172616928816
leaf_count=5517 1526
internal_value=-0.000177473
internal_weight=1233.07
internal_count=7043
is_linear=0
shrinkage=0.0676762


Tree=32
num_leaves=2
num_cat=0
split_feature=14
split_gain=133.158
threshold=1.0000000180025095e-35
decision_type=2
left_child=-1
right_child=-2
leaf_value=-0.023914042645571416 0.020676342318170976
leaf_weight=576.44515939056873 654.17131425440311
leaf_count=3947 3096
internal_value=-0.000173893
internal_weight=1230.62
internal_count=7043
is_linear=0
shrinkage=0.0676762


Tree=33
num_leaves=2
num_cat=0
split_feature=1
split_gain=144.437
threshold=-0.89060112833847704
decision_type=2
left_child=-1
right_child=-2
leaf_value=0.030549249092166535 -0.017723688711046109
leaf_weight=444.99860885739326 781.63456883281469
leaf_count=1970 5073
internal_value=-0.000166616
internal_weight=1226.63
internal_count=7043
is_linear=0
shrinkage=0.0676762


Tree=34
num_leaves=2
num_cat=0
split_feature=29
split_gain=127.937
threshold=1.0000000180025095e-35
decision_type=2
left_child=-1
right_child=-2
leaf_value=0.008371815893788619 -0.056068093424754849
leaf_weight=1060.6319414898753 162.15793006122112
leaf_count=5348 1695
internal_value=-0.000158096
internal_weight=1222.79
internal_count=7043
is_linear=0
shrinkage=0.0676762


Tree=35
num_leaves=2
num_cat=0
split_feature=1
split_gain=125.303
threshold=-1.0942029469386287
decision_type=2
left_child=-1
right_child=-2
leaf_value=0.036131285828469001 -0.013148397225208847
leaf_weight=319.97350579500198 898.55389933288097
leaf_count=1371 5672
internal_value=-0.000158251
internal_weight=1218.53
internal_count=7043
is_linear=0
shrinkage=0.0676762


Tree=36
num_leaves=2
num_cat=0
split_feature=16
split_gain=123.717
threshold=1.0000000180025095e-35
decision_type=2
left_child=-1
right_child=-2
leaf_value=0.0092897699129382248 -0.049348484622211509
leaf_weight=1019.0823873206973 195.96632853895426
leaf_count=5517 1526
internal_value=-0.000148116
internal_weight=1215.05
internal_count=7043
is_linear=0
shrinkage=0.0676762


Tree=37
num_leaves=2
num_cat=0
split_feature=32
split_gain=117.399
threshold=1.0000000180025095e-35
decision_type=2
left_child=-1
right_child=-2
leaf_value=-0.018139965579139147 0.024485538790450109
leaf_weight=701.90830148011446 510.73360568284988
leaf_count=4678 2365
internal_value=-0.000145241
internal_weight=1212.64
internal_count=7043
is_linear=0
shrinkage=0.0676762


Tree=38
num_leaves=2
num_cat=0
split_feature=14
split_gain=107.184
threshold=1.0000000180025095e-35
decision_type=2
left_child=-1
right_child=-2
leaf_value=-0.021957668916467638 0.018445970570283549
leaf_weight=557.22395954281092 651.84061602503061
leaf_count=3947 3096
internal_value=-0.000137643
internal_weight=1209.06
internal_count=7043
is_linear=0
shrinkage=0.0676762


Tree=39
num_leaves=2
num_cat=0
split_feature=1
split_gain=115.081
threshold=-1.2163640380987197
decision_type=2
left_child=-1
right_child=-2
leaf_value=0.046597349277387685 -0.0095112608021167763
leaf_weight=200.27115442603827 1005.0593387633562
leaf_count=862 6181
internal_value=-0.000131378
internal_weight=1205.33
internal_count=7043
is_linear=0
shrinkage=0.0676762


Tree=40
num_leaves=2
num_cat=0
split_feature=16
split_gain=102.848
threshold=1.0000000180025095e-35
decision_type=2
left_child=-1
right_child=-2
leaf_value=0.0083241605324623404 -0.04627228454017792
leaf_weight=1016.2612646222115 186.51528092473745
leaf_count=5517 1526
internal_value=-0.000121478
internal_weight=1202.78
internal_count=7043
is_linear=0
shrinkage=0.0676762


Tree=41
num_leaves=2
num_cat=0
split_feature=29
split_gain=104.777
threshold=1.0000000180025095e-35
decision_type=2
left_child=-1
right_child=-2
leaf_value=0.0073419762084910118 -0.053405511603773374
leaf_weight=1052.6413661763072 147.76722516864538
leaf_count=5348 1695
internal_value=-0.000119149
internal_weight=1200.41
internal_count=7043
is_linear=0
shrinkage=0.0676762


Tree=42
num_leaves=2
num_cat=0
split_feature=1
split_gain=104.917
threshold=-0.60555858229826465
decision_type=2
left_child=-1
right_child=-2
leaf_value=0.020610836021880661 -0.019475876803847495
leaf_weight=576.53184398263693 619.95851001143456
leaf_count=2637 4406
internal_value=-0.000120041
internal_weight=1196.49
internal_count=7043
is_linear=0
shrinkage=0.0676762


Tree=43
num_leaves=2
num_cat=0
split_feature=16
split_gain=91.7429
threshold=1.0000000180025095e-35
decision_type=2
left_child=-1
right_child=-2
leaf_value=0.0077676718755626661 -0.044585694795890092
leaf_weight=1012.6208101436496 180.04210761189461
leaf_count=5517 1526
internal_value=-0.000114099
internal_weight=1192.66
internal_count=7043
is_linear=0
shrinkage=0.0676762


Tree=44
num_leaves=2
num_cat=0
split_feature=29
split_gain=90.6273
threshold=1.0000000180025095e-35
decision_type=2
left_child=-1
right_child=-2
leaf_value=0.0066422452342141582 -0.051429134564943996
leaf_weight=1051.5687759891152 138.8000461012125
leaf_count=5348 1695
internal_value=-0.000111524
internal_weight=1190.37
internal_count=7043
is_linear=0
shrinkage=0.0676762


Tree=45
num_leaves=2
num_cat=0
split_feature=1
split_gain=92.6655
threshold=-1.2570844018187501
decision_type=2
left_child=-1
right_child=-2
leaf_value=0.050440392433836009 -0.0072133456335292737
leaf_weight=144.91516084223986 1041.7783259525895
leaf_count=624 6419
internal_value=-0.000111749
internal_weight=1186.69
internal_count=7043
is_linear=0
shrinkage=0.0676762


Tree=46
num_leaves=2
num_cat=0
split_feature=1
split_gain=85.4612
threshold=-0.40195676369811301
decision_type=2
left_child=-1
right_child=-2
leaf_value=0.01639156193207059 -0.020105095781536342
leaf_weight=648.07712295278907 536.61444659903646
leaf_count=3031 4012
internal_value=-0.000101918
internal_weight=1184.69
internal_count=7043
is_linear=0
shrinkage=0.0676762


Tree=47
num_leaves=2
num_cat=0
split_feature=15
split_gain=83.1712
threshold=1.0000000180025095e-35
decision_type=2
left_child=-1
right_child=-2
leaf_value=0.0073372876699529929 -0.043242909811148186
leaf_weight=1007.053034350276 174.12000989541411
leaf_count=5517 1526
internal_value=-9.6834e-05
internal_weight=1181.17
internal_count=7043
is_linear=0
shrinkage=0.0676762


Tree=48
num_leaves=2
num_cat=0
split_feature=14
split_gain=81.9116
threshold=1.0000000180025095e-35
decision_type=2
left_child=-1
right_child=-2
leaf_value=-0.019773032209809232 0.016052247302366724
leaf_weight=532.63598202541471 646.33498574793339
leaf_count=3947 3096
internal_value=-9.47951e-05
internal_weight=1178.97
internal_count=7043
is_linear=0
shrinkage=0.0676762


Tree=49
num_leaves=2
num_cat=0
split_feature=1
split_gain=80.6483
threshold=-1.2163640380987197
decision_type=2
left_child=-1
right_child=-2
leaf_value=0.038930237679367284 -0.0081654425922003011
leaf_weight=200.20166125148535 975.43280999734998
leaf_count=862 6181
internal_value=-8.99565e-05
internal_weight=1175.63
internal_count=7043
is_linear=0
shrinkage=0.0676762


Tree=50
num_leaves=2
num_cat=0
split_feature=32
split_gain=77.3021
threshold=1.0000000180025095e-35
decision_type=2
left_child=-1
right_child=-2
leaf_value=-0.015275908447713362 0.019771663853677967
leaf_weight=666.00599598139524 507.20285411924124
leaf_count=4678 2365
internal_value=-8.16959e-05
internal_weight=1173.21
internal_count=7043
is_linear=0
shrinkage=0.0676762


Tree=51
num_leaves=2
num_cat=0
split_feature=30
split_gain=73.823
threshold=1.0000000180025095e-35
decision_type=2
left_child=-1
right_child=-2
leaf_value=-0.023198335642220166 0.012389795947315201
leaf_weight=411.01495072245598 759.06420233100653
leaf_count=2872 4171
internal_value=-7.64447e-05
internal_weight=1170.08
internal_count=7043
is_linear=0
shrinkage=0.0676762


Tree=52
num_leaves=2
num_cat=0
split_feature=29
split_gain=73.0683
threshold=1.0000000180025095e-35
decision_type=2
left_child=-1
right_child=-2
leaf_value=0.0057934256398486728 -0.048547776432414681
leaf_weight=1042.0865343436599 126.55830063670874
leaf_count=5348 1695
internal_value=-7.26215e-05
internal_weight=1168.64
internal_count=7043
is_linear=0
shrinkage=0.0676762


Tree=53
num_leaves=2
num_cat=0
split_feature=29
split_gain=65.9963
threshold=1.0000000180025095e-35
decision_type=2
left_child=-1
right_child=-2
leaf_value=0.0053929684771037989 -0.047164760264532632
leaf_weight=1043.6910590901971 121.64254222810268
leaf_count=5348 1695
internal_value=-7.38554e-05
internal_weight=1165.33
internal_count=7043
is_linear=0
shrinkage=0.0676762


Tree=54
num_leaves=2
num_cat=0
split_feature=1
split_gain=68.972
threshold=-1.2570844018187501
decision_type=2
left_child=-1
right_child=-2
leaf_value=0.043528203648668544 -0.0063364083681753114
leaf_weight=144.56554647535086 1017.6187160052359
leaf_count=624 6419
internal_value=-7.43582e-05
internal_weight=1162.18
internal_count=7043
is_linear=0
shrinkage=0.0676762


Tree=55
num_leaves=2
num_cat=0
split_feature=14
split_gain=67.0786
threshold=1.0000000180025095e-35
decision_type=2
left_child=-1
right_child=-2
leaf_value=-0.018217215277977303 0.014498866437784804
leaf_weight=517.92081911489367 642.33857613801956
leaf_count=3947 3096
internal_value=-6.6339e-05
internal_weight=1160.26
internal_count=7043
is_linear=0
shrinkage=0.0676762


Tree=56
num_leaves=2
num_cat=0
split_feature=1
split_gain=66.4062
threshold=-0.60555858229826465
decision_type=2
left_child=-1
right_child=-2
leaf_value=0.016327441310910937 -0.016083023562521052
leaf_weight=570.53598155081272 586.6464317701757
leaf_count=2637 4406
internal_value=-6.25722e-05
internal_weight=1157.18
internal_count=7043
is_linear=0
shrinkage=0.0676762


Tree=57
num_leaves=2
num_cat=0
split_feature=18
split_gain=64.0216
threshold=1.0000000180025095e-35
decision_type=2
left_child=-1
right_child=-2
leaf_value=0.006340686216478382 -0.039515973136837607
leaf_weight=992.30747013539076 161.63259099796414
leaf_count=5517 1526
internal_value=-5.85278e-05
internal_weight=1153.94
internal_count=7043
is_linear=0
shrinkage=0.0676762


Tree=58
num_leaves=2
num_cat=0
split_feature=32
split_gain=57.1459
threshold=1.0000000180025095e-35
decision_type=2
left_child=-1
right_child=-2
leaf_value=-0.013424850164094584 0.016933490663995073
leaf_weight=646.33781491965055 505.5889189504087
leaf_count=4678 2365
internal_value=-5.76781e-05
internal_weight=1151.93
internal_count=7043
is_linear=0
shrinkage=0.0676762


Tree=59
num_leaves=2
num_cat=0
split_feature=1
split_gain=59.3479
threshold=-1.0942029469386287
decision_type=2
left_child=-1
right_child=-2
leaf_value=0.024933769110126729 -0.0095353400783000364
leaf_weight=314.48702462762594 834.63770034909248
leaf_count=1371 5672
internal_value=-5.31414e-05
internal_weight=1149.12
internal_count=7043
is_linear=0
shrinkage=0.0676762


Tree=60
num_leaves=2
num_cat=0
split_feature=30
split_gain=59.5152
threshold=1.0000000180025095e-35
decision_type=2
left_child=-1
right_child=-2
leaf_value=-0.02130116163363522 0.011109253211799777
leaf_weight=395.88432246819139 750.46458968147635
leaf_count=2872 4171
internal_value=-4.76153e-05
internal_weight=1146.35
internal_count=7043
is_linear=0
shrinkage=0.0676762


Tree=61
num_leaves=2
num_cat=0
split_feature=1
split_gain=55.9489
threshold=-0.2797956725380219
decision_type=2
left_child=-1
right_child=-2
leaf_value=0.012338567268699752 -0.018079815662788472
leaf_weight=677.42369521781802 467.5706896930933
leaf_count=3289 3754
internal_value=-4.49182e-05
internal_weight=1144.99
internal_count=7043
is_linear=0
shrinkage=0.0676762


Tree=62
num_leaves=2
num_cat=0
split_feature=15
split_gain=55.2159
threshold=1.0000000180025095e-35
decision_type=2
left_child=-1
right_child=-2
leaf_value=0.0058397707329869318 -0.037428015033824827
leaf_weight=986.16434040665627 155.91938955709338
leaf_count=5517 1526
internal_value=-4.22351e-05
internal_weight=1142.08
internal_count=7043
is_linear=0
shrinkage=0.0676762


Tree=63
num_leaves=2
num_cat=0
split_feature=14
split_gain=51.5978
threshold=1.0000000180025095e-35
decision_type=2
left_child=-1
right_child=-2
leaf_value=-0.016298228129530638 0.012685808576155731
leaf_weight=502.230931494385 637.94219525158405
leaf_count=3947 3096
internal_value=-4.18274e-05
internal_weight=1140.17
internal_count=7043
is_linear=0
shrinkage=0.0676762


Tree=64
num_leaves=2
num_cat=0
split_feature=1
split_gain=54.841
threshold=-1.2570844018187501
decision_type=2
left_child=-1
right_child=-2
leaf_value=0.039091717808429974 -0.0057117139176569836
leaf_weight=142.52662760019302 994.88708485662937
leaf_count=624 6419
internal_value=-3.88668e-05
internal_weight=1137.41
internal_count=7043
is_linear=0
shrinkage=0.0676762


Tree=65
num_leaves=2
num_cat=0
split_feature=29
split_gain=49.7677
threshold=1.0000000180025095e-35
decision_type=2
left_child=-1
right_child=-2
leaf_value=0.0045463248133782814 -0.04346905623936001
leaf_weight=1026.7991989254951 108.80624677240849
leaf_count=5348 1695
internal_value=-3.28556e-05
internal_weight=1135.61
internal_count=7043
is_linear=0
shrinkage=0.0676762


Tree=66
num_leaves=2
num_cat=0
split_feature=1
split_gain=46.9616
threshold=-1.2570844018187501
decision_type=2
left_child=-1
right_child=-2
leaf_value=0.036144255654822773 -0.0053121457921024963
leaf_weight=142.65166989713907 990.23845822364092
leaf_count=624 6419
internal_value=-3.44776e-05
internal_weight=1132.89
internal_count=7043
is_linear=0
shrinkage=0.0676762


Tree=67
num_leaves=2
num_cat=0
split_feature=30
split_gain=49.4146
threshold=1.0000000180025095e-35
decision_type=2
left_child=-1
right_child=-2
leaf_value=-0.019717285410829611 0.010102903457445562
leaf_weight=385.69923532009125 745.43742847815156
leaf_count=2872 4171
internal_value=-2.86619e-05
internal_weight=1131.14
internal_count=7043
is_linear=0
shrinkage=0.0676762


Tree=68
num_leaves=2
num_cat=0
split_feature=16
split_gain=46.2457
threshold=1.0000000180025095e-35
decision_type=2
left_child=-1
right_child=-2
leaf_value=0.0052826938408935152 -0.035065025420417319
leaf_weight=980.44264900311828 149.41148104891181
leaf_count=5517 1526
internal_value=-2.66797e-05
internal_weight=1129.85
internal_count=7043
is_linear=0
shrinkage=0.0676762


Tree=69
num_leaves=2
num_cat=0
split_feature=17
split_gain=47.4638
threshold=1.0000000180025095e-35
decision_type=2
left_child=-1
right_child=-2
leaf_value=0.0077955748169934256 -0.024547513257276665
leaf_weight=854.10250258818269 273.97854735329747
leaf_count=5024 2019
internal_value=-2.66164e-05
internal_weight=1128.08
internal_count=7043
is_linear=0
shrinkage=0.0676762


Tree=70
num_leaves=2
num_cat=0
split_feature=1
split_gain=45
threshold=0.45317087442252435
decision_type=2
left_child=-1
right_child=-2
leaf_value=0.0075721412768908272 -0.023988882874837057
leaf_weight=854.24195183441043 272.39159590005875
leaf_count=4486 2557
internal_value=-2.52848e-05
internal_weight=1126.63
internal_count=7043
is_linear=0
shrinkage=0.0676762


Tree=71
num_leaves=2
num_cat=0
split_feature=14
split_gain=42.7719
threshold=1.0000000180025095e-35
decision_type=2
left_child=-1
right_child=-2
leaf_value=-0.015051740776953128 0.011549258295787318
leaf_weight=490.82994152978063 633.40786796808243
leaf_count=3947 3096
internal_value=-2.43973e-05
internal_weight=1124.24
internal_count=7043
is_linear=0
shrinkage=0.0676762


Tree=72
num_leaves=2
num_cat=0
split_feature=1
split_gain=42.042
threshold=-0.68699930973832535
decision_type=2
left_child=-1
right_child=-2
leaf_value=0.013794533466644594 -0.012437582223691039
leaf_weight=529.0704551897943 592.635458227247
leaf_count=2470 4573
internal_value=-2.21042e-05
internal_weight=1121.71
internal_count=7043
is_linear=0
shrinkage=0.0676762


Tree=73
num_leaves=2
num_cat=0
split_feature=15
split_gain=41.2588
threshold=1.0000000180025095e-35
decision_type=2
left_child=-1
right_child=-2
leaf_value=0.0049749584974711544 -0.033554621784491985
leaf_weight=973.21281681582332 145.84210427477956
leaf_count=5517 1526
internal_value=-1.93792e-05
internal_weight=1119.05
internal_count=7043
is_linear=0
shrinkage=0.0676762


Tree=74
num_leaves=2
num_cat=0
split_feature=17
split_gain=40.1212
threshold=1.0000000180025095e-35
decision_type=2
left_child=-1
right_child=-2
leaf_value=0.0071494980492285082 -0.022843756823272207
leaf_weight=849.02022526413202 268.32799255475402
leaf_count=5024 2019
internal_value=-1.94098e-05
internal_weight=1117.35
internal_count=7043
is_linear=0
shrinkage=0.0676762


Tree=75
num_leaves=2
num_cat=0
split_feature=30
split_gain=39.3101
threshold=1.0000000180025095e-35
decision_type=2
left_child=-1
right_child=-2
leaf_value=-0.017875922868185883 0.0089858305332558546
leaf_weight=375.62229899689555 740.33487274870276
leaf_count=2872 4171
internal_value=-1.8113e-05
internal_weight=1115.96
internal_count=7043
is_linear=0
shrinkage=0.0676762


Tree=76
num_leaves=2
num_cat=0
split_feature=29
split_gain=37.7325
threshold=1.0000000180025095e-35
decision_type=2
left_child=-1
right_child=-2
leaf_value=0.0038300962303193173 -0.039883484087213421
leaf_weight=1016.068677354604 98.680040266364813
leaf_count=5348 1695
internal_value=-1.62877e-05
internal_weight=1114.75
internal_count=7043
is_linear=0
shrinkage=0.0676762


Tree=77
num_leaves=2
num_cat=0
split_feature=1
split_gain=38.937
threshold=-1.2570844018187501
decision_type=2
left_child=-1
right_child=-2
leaf_value=0.033133646958027528 -0.0048844723651386701
leaf_weight=140.72499284148216 971.67829639464617
leaf_count=624 6419
internal_value=-1.77425e-05
internal_weight=1112.4
internal_count=7043
is_linear=0
shrinkage=0.0676762


Tree=78
num_leaves=2
num_cat=0
split_feature=15
split_gain=36.7272
threshold=1.0000000180025095e-35
decision_type=2
left_child=-1
right_child=-2
leaf_value=0.0046654181585318475 -0.032100526398630619
leaf_weight=968.59511500969529 142.18424806371331
leaf_count=5517 1526
internal_value=-1.28944e-05
internal_weight=1110.78
internal_count=7043
is_linear=0
shrinkage=0.0676762


Tree=79
num_leaves=2
num_cat=0
split_feature=17
split_gain=34.5553
threshold=1.0000000180025095e-35
decision_type=2
left_child=-1
right_child=-2
leaf_value=0.0066205273276827804 -0.021406242649868287
leaf_weight=845.26477942243218 263.88993855565786
leaf_count=5024 2019
internal_value=-1.29832e-05
internal_weight=1109.15
internal_count=7043
is_linear=0
shrinkage=0.0676762


Tree=80
num_leaves=2
num_cat=0
split_feature=15
split_gain=33.3748
threshold=1.0000000180025095e-35
decision_type=2
left_child=-1
right_child=-2
leaf_value=0.0044193096144532588 -0.030865014800691048
leaf_weight=967.80432323366404 140.01628211513162
leaf_count=5517 1526
internal_value=-1.17638e-05
internal_weight=1107.82
internal_count=7043
is_linear=0
shrinkage=0.0676762


Tree=81
num_leaves=2
num_cat=0
split_feature=1
split_gain=35.1644
threshold=-1.2163640380987197
decision_type=2
left_child=-1
right_child=-2
leaf_value=0.026114047246249435 -0.0056116722201319663
leaf_weight=193.40380975604057 912.84210212901235
leaf_count=862 6181
internal_value=-1.16613e-05
internal_weight=1106.25
internal_count=7043
is_linear=0
shrinkage=0.0676762


Tree=82
num_leaves=2
num_cat=0
split_feature=30
split_gain=32.5213
threshold=1.0000000180025095e-35
decision_type=2
left_child=-1
right_child=-2
leaf_value=-0.016475059427107173 0.0081521875715285588
leaf_weight=367.63697708770633 736.77377821132541
leaf_count=2872 4171
internal_value=-7.54969e-06
internal_weight=1104.41
internal_count=7043
is_linear=0
shrinkage=0.0676762


Tree=83
num_leaves=2
num_cat=0
split_feature=1
split_gain=34.3729
threshold=0.90109487534285826
decision_type=2
left_child=-1
right_child=-2
leaf_value=0.0050489794504917042 -0.028010223026491834
leaf_weight=933.56822601519525 169.71768948622048
leaf_count=5224 1819
internal_value=-6.05036e-06
internal_weight=1103.29
internal_count=7043
is_linear=0
shrinkage=0.0676762


Tree=84
num_leaves=2
num_cat=0
split_feature=14
split_gain=31.1554
threshold=1.0000000180025095e-35
decision_type=2
left_child=-1
right_child=-2
leaf_value=-0.013125340251031119 0.0098479305090280675
leaf_weight=474.40576275624335 627.001604385674
leaf_count=3947 3096
internal_value=-6.28445e-06
internal_weight=1101.41
internal_count=7043
is_linear=0
shrinkage=0.0676762


Tree=85
num_leaves=2
num_cat=0
split_feature=29
split_gain=29.6854
threshold=1.0000000180025095e-35
decision_type=2
left_child=-1
right_child=-2
leaf_value=0.0033084897376690556 -0.036865130123507873
leaf_weight=1007.892035651952 91.332303727045655
leaf_count=5348 1695
internal_value=-4.55887e-06
internal_weight=1099.22
internal_count=7043
is_linear=0
shrinkage=0.0676762


Tree=86
num_leaves=2
num_cat=0
split_feature=1
split_gain=31.096
threshold=-1.2570844018187501
decision_type=2
left_child=-1
right_child=-2
leaf_value=0.029797369986518957 -0.0043932767711040155
leaf_weight=138.97690835595131 958.18923034332693
leaf_count=624 6419
internal_value=-5.88334e-06
internal_weight=1097.17
internal_count=7043
is_linear=0
shrinkage=0.0676762


Tree=87
num_leaves=2
num_cat=0
split_feature=1
split_gain=29.6018
threshold=-0.2797956725380219
decision_type=2
left_child=-1
right_child=-2
leaf_value=0.0089913698163836455 -0.013723829300368041
leaf_weight=659.93688902258873 435.73431185819209
leaf_count=3289 3754
internal_value=-1.74933e-06
internal_weight=1095.67
internal_count=7043
is_linear=0
shrinkage=0.0676762


Tree=88
num_leaves=2
num_cat=0
split_feature=15
split_gain=28.8425
threshold=1.0000000180025095e-35
decision_type=2
left_child=-1
right_child=-2
leaf_value=0.0040947839996192106 -0.02920479198467657
leaf_weight=958.04082173854113 135.4475915748626
leaf_count=5517 1526
internal_value=-3.88994e-07
internal_weight=1093.49
internal_count=7043
is_linear=0
shrinkage=0.0676762


Tree=89
num_leaves=2
num_cat=0
split_feature=17
split_gain=28.134
threshold=1.0000000180025095e-35
decision_type=2
left_child=-1
right_child=-2
leaf_value=0.0059844574613986583 -0.019596616086656131
leaf_weight=835.0020956415683 257.02404472231865
leaf_count=5024 2019
internal_value=-6.33666e-07
internal_weight=1092.03
internal_count=7043
is_linear=0
shrinkage=0.0676762


Tree=90
num_leaves=2
num_cat=0
split_feature=25
split_gain=27.3228
threshold=1.0000000180025095e-35
decision_type=2
left_child=-1
right_child=-2
leaf_value=-0.0087071659808882918 0.013183847732967918
leaf_weight=659.18176088482141 431.59808442741632
leaf_count=4336 2707
internal_value=0
internal_weight=1090.78
internal_count=7043
is_linear=0
shrinkage=0.0676762


Tree=91
num_leaves=2
num_cat=0
split_feature=27
split_gain=27.0055
threshold=1.0000000180025095e-35
decision_type=2
left_child=-1
right_child=-2
leaf_value=-0.0087172972814498068 0.013012862369381316
leaf_weight=655.43332907184958 435.44480757415295
leaf_count=4311 2732
internal_value=0
internal_weight=1090.88
internal_count=7043
is_linear=0
shrinkage=0.0676762


Tree=92
num_leaves=2
num_cat=0
split_feature=30
split_gain=25.6737
threshold=1.0000000180025095e-35
decision_type=2
left_child=-1
right_child=-2
leaf_value=-0.014844758178648967 0.0072326750154383633
leaf_weight=359.14326968416572 731.84204461611807
leaf_count=2872 4171
internal_value=0
internal_weight=1090.99
internal_count=7043
is_linear=0
shrinkage=0.0676762


Tree=93
num_leaves=2
num_cat=0
split_feature=32
split_gain=25.6898
threshold=1.0000000180025095e-35
decision_type=2
left_child=-1
right_child=-2
leaf_value=-0.0094629274785368294 0.011403243185382475
leaf_weight=597.69470218941569 492.25722507759929
leaf_count=4678 2365
internal_value=0
internal_weight=1089.95
internal_count=7043
is_linear=0
shrinkage=0.0676762


Tree=94
num_leaves=2
num_cat=0
split_feature=1
split_gain=28.8083
threshold=-1.0127622194985679
decision_type=2
left_child=-1
right_child=-2
leaf_value=0.015897832932004041 -0.0076388615483767791
leaf_weight=351.22450714185834 736.77550712786615
leaf_count=1612 5431
internal_value=0
internal_weight=1088
internal_count=7043
is_linear=0
shrinkage=0.0676762


Tree=95
num_leaves=2
num_cat=0
split_feature=1
split_gain=26.8563
threshold=0.90109487534285826
decision_type=2
left_child=-1
right_child=-2
leaf_value=0.004432560070286389 -0.025364300461308692
leaf_weight=923.57021248713136 162.38253054954112
leaf_count=5224 1819
internal_value=0
internal_weight=1085.95
internal_count=7043
is_linear=0
shrinkage=0.0676762


Tree=96
num_leaves=2
num_cat=0
split_feature=1
split_gain=25.3742
threshold=-1.2570844018187501
decision_type=2
left_child=-1
right_child=-2
leaf_value=0.027055625942753399 -0.0039869906090221532
leaf_weight=137.60488524287939 946.67901092767715
leaf_count=624 6419
internal_value=0
internal_weight=1084.28
internal_count=7043
is_linear=0
shrinkage=0.0676762


Tree=97
num_leaves=2
num_cat=0
split_feature=16
split_gain=24.0881
threshold=1.0000000180025095e-35
decision_type=2
left_child=-1
right_child=-2
leaf_value=0.0037202295397569135 -0.027155486102586699
leaf_weight=951.75674356892705 131.14842067845166
leaf_count=5517 1526
internal_value=0
internal_weight=1082.91
internal_count=7043
is_linear=0
shrinkage=0.0676762


Tree=98
num_leaves=2
num_cat=0
split_feature=27
split_gain=24.0651
threshold=1.0000000180025095e-35
decision_type=2
left_child=-1
right_child=-2
leaf_value=-0.0082913469825971683 0.012293246098292375
leaf_weight=647.73273249901831 433.82603973150253
leaf_count=4311 2732
internal_value=0
internal_weight=1081.56
internal_count=7043
is_linear=0
shrinkage=0.0676762


Tree=99
num_leaves=2
num_cat=0
split_feature=1
split_gain=24.2841
threshold=-0.2797956725380219
decision_type=2
left_child=-1
right_child=-2
leaf_value=0.0081751029610322833 -0.012547872814049361
leaf_weight=653.44354389607906 428.19997050054371
leaf_count=3289 3754
internal_value=0
internal_weight=1081.64
internal_count=7043
is_linear=0
shrinkage=0.0676762


Tree=100
num_leaves=2
num_cat=0
split_feature=17
split_gain=23.2221
threshold=1.0000000180025095e-35
decision_type=2
left_child=-1
right_child=-2
leaf_value=0.0054495689252867553 -0.017987659588226488
leaf_weight=827.52291430905461 252.1229973398149
leaf_count=5024 2019
internal_value=0
internal_weight=1079.65
internal_count=7043
is_linear=0
shrinkage=0.0676762


Tree=101
num_leaves=2
num_cat=0
split_feature=0
split_gain=22.8932
threshold=1.0000000180025095e-35
decision_type=2
left_child=-1
right_child=-2
leaf_value=-0.0049944574011674021 0.019532787768338424
leaf_weight=860.54217711091042 217.93253889121115
leaf_count=5901 1142
internal_value=0
internal_weight=1078.47
internal_count=7043
is_linear=0
shrinkage=0.0676762


Tree=102
num_leaves=2
num_cat=0
split_feature=1
split_gain=22.1738
threshold=0.90109487534285826
decision_type=2
left_child=-1
right_child=-2
leaf_value=0.0040004446139070083 -0.023390714436967268
leaf_weight=919.72631020657718 158.11316862888634
leaf_count=5224 1819
internal_value=0
internal_weight=1077.84
internal_count=7043
is_linear=0
shrinkage=0.0676762


Tree=103
num_leaves=2
num_cat=0
split_feature=14
split_gain=22.2984
threshold=1.0000000180025095e-35
decision_type=2
left_child=-1
right_child=-2
leaf_value=-0.011328346028210813 0.0083594362390096832
leaf_weight=458.49075801298022 617.81534304469824
leaf_count=3947 3096
internal_value=0
internal_weight=1076.31
internal_count=7043
is_linear=0
shrinkage=0.0676762


Tree=104
num_leaves=2
num_cat=0
split_feature=1
split_gain=22.2884
threshold=-1.2570844018187501
decision_type=2
left_child=-1
right_child=-2
leaf_value=0.025469196826856513 -0.0037502208181829583
leaf_weight=136.432049036026 938.02454010769725
leaf_count=624 6419
internal_value=0
internal_weight=1074.46
internal_count=7043
is_linear=0
shrinkage=0.0676762


Tree=105
num_leaves=2
num_cat=0
split_feature=25
split_gain=22.4474
threshold=1.0000000180025095e-35
decision_type=2
left_child=-1
right_child=-2
leaf_value=-0.0079906794056365891 0.011988816028444687
leaf_weight=645.43953653797507 427.71882859990001
leaf_count=4336 2707
internal_value=0
internal_weight=1073.16
internal_count=7043
is_linear=0
shrinkage=0.0676762


Tree=106
num_leaves=2
num_cat=0
split_feature=27
split_gain=20.8567
threshold=1.0000000180025095e-35
decision_type=2
left_child=-1
right_child=-2
leaf_value=-0.0077650111003978711 0.011461836945003519
leaf_weight=641.26175902225077 431.95367445796728
leaf_count=4311 2732
internal_value=0
internal_weight=1073.22
internal_count=7043
is_linear=0
shrinkage=0.0676762


Tree=107
num_leaves=2
num_cat=0
split_feature=23
split_gain=20.9367
threshold=1.0000000180025095e-35
decision_type=2
left_child=-1
right_child=-2
leaf_value=0.005249490943339148 -0.016949022360781687
leaf_weight=818.6321823541075 254.63060903176665
leaf_count=4999 2044
internal_value=0
internal_weight=1073.26
internal_count=7043
is_linear=0
shrinkage=0.0676762


Tree=108
num_leaves=2
num_cat=0
split_feature=30
split_gain=19.9871
threshold=1.0000000180025095e-35
decision_type=2
left_child=-1
right_child=-2
leaf_value=-0.013298223437908525 0.0064008911604177864
leaf_weight=349.47725654579699 722.74734248965979
leaf_count=2872 4171
internal_value=0
internal_weight=1072.22
internal_count=7043
is_linear=0
shrinkage=0.0676762


Tree=109
num_leaves=2
num_cat=0
split_feature=29
split_gain=19.8281
threshold=1.0000000180025095e-35
decision_type=2
left_child=-1
right_child=-2
leaf_value=0.0026224991191978447 -0.032028842975028726
leaf_weight=989.99734146147966 81.297445766627789
leaf_count=5348 1695
internal_value=0
internal_weight=1071.29
internal_count=7043
is_linear=0
shrinkage=0.0676762


Tree=110
num_leaves=2
num_cat=0
split_feature=1
split_gain=20.7542
threshold=-0.89060112833847704
decision_type=2
left_child=-1
right_child=-2
leaf_value=0.011722462237408237 -0.0075813784110398312
leaf_weight=418.57767490297556 651.06993187591434
leaf_count=1970 5073
internal_value=0
internal_weight=1069.65
internal_count=7043
is_linear=0
shrinkage=0.0676762


Tree=111
num_leaves=2
num_cat=0
split_feature=25
split_gain=19.3433
threshold=1.0000000180025095e-35
decision_type=2
left_child=-1
right_child=-2
leaf_value=-0.0074554914086060299 0.011127744611853882
leaf_weight=640.9044452495873 426.92043775320053
leaf_count=4336 2707
internal_value=0
internal_weight=1067.82
internal_count=7043
is_linear=0
shrinkage=0.0676762


Tree=112
num_leaves=2
num_cat=0
split_feature=1
split_gain=19.5277
threshold=-1.2163640380987197
decision_type=2
left_child=-1
right_child=-2
leaf_value=0.019722033508063539 -0.004260013548629372
leaf_weight=188.29057587683201 879.55779922567308
leaf_count=862 6181
internal_value=0
internal_weight=1067.85
internal_count=7043
is_linear=0
shrinkage=0.0676762


Tree=113
num_leaves=2
num_cat=0
split_feature=16
split_gain=18.9459
threshold=1.0000000180025095e-35
decision_type=2
left_child=-1
right_child=-2
leaf_value=0.0032820291074654073 -0.024629497547075514
leaf_weight=940.69234665669501 125.74471167288721
leaf_count=5517 1526
internal_value=0
internal_weight=1066.44
internal_count=7043
is_linear=0
shrinkage=0.0676762


Tree=114
num_leaves=2
num_cat=0
split_feature=1
split_gain=18.7032
threshold=0.90109487534285826
decision_type=2
left_child=-1
right_child=-2
leaf_value=0.0036664762338908352 -0.021801097514424297
leaf_weight=911.38811755739152 153.85047234781086
leaf_count=5224 1819
internal_value=0
internal_weight=1065.24
internal_count=7043
is_linear=0
shrinkage=0.0676762


Tree=115
num_leaves=2
num_cat=0
split_feature=0
split_gain=18.2406
threshold=1.0000000180025095e-35
decision_type=2
left_child=-1
right_child=-2
leaf_value=-0.0045088052458844624 0.017462546222945706
leaf_weight=846.95771955139935 216.87588300742209
leaf_count=5901 1142
internal_value=0
internal_weight=1063.83
internal_count=7043
is_linear=0
shrinkage=0.0676762


Tree=116
num_leaves=2
num_cat=0
split_feature=27
split_gain=18.2702
threshold=1.0000000180025095e-35
decision_type=2
left_child=-1
right_child=-2
leaf_value=-0.0073212070985848336 0.010747759343332828
leaf_weight=633.78082196600735 429.45861081033945
leaf_count=4311 2732
internal_value=0
internal_weight=1063.24
internal_count=7043
is_linear=0
shrinkage=0.0676762


Tree=117
num_leaves=2
num_cat=0
split_feature=1
split_gain=18.245
threshold=-1.2570844018187501
decision_type=2
left_child=-1
right_child=-2
leaf_value=0.02316553020409385 -0.00340602794742629
leaf_weight=135.04958039522171 928.21156917698681
leaf_count=624 6419
internal_value=0
internal_weight=1063.26
internal_count=7043
is_linear=0
shrinkage=0.0676762


Tree=118
num_leaves=2
num_cat=0
split_feature=17
split_gain=17.6532
threshold=1.0000000180025095e-35
decision_type=2
left_child=-1
right_child=-2
leaf_value=0.0047630604200464433 -0.015923055149029541
leaf_weight=816.91811191663146 245.15505618229508
leaf_count=5024 2019
internal_value=0
internal_weight=1062.07
internal_count=7043
is_linear=0
shrinkage=0.0676762


Tree=119
num_leaves=2
num_cat=0
split_feature=23
split_gain=16.7694
threshold=1.0000000180025095e-35
decision_type=2
left_child=-1
right_child=-2
leaf_value=0.0046975402373349876 -0.015351186404891522
leaf_weight=811.76320230588317 249.26012175343931
leaf_count=4999 2044
internal_value=0
internal_weight=1061.02
internal_count=7043
is_linear=0
shrinkage=0.0676762


Tree=120
num_leaves=2
num_cat=0
split_feature=15
split_gain=17.1714
threshold=1.0000000180025095e-35
decision_type=2
left_child=-1
right_child=-2
leaf_value=0.003119608719553379 -0.02363422509726432
leaf_weight=936.1856785826385 123.88917933963239
leaf_count=5517 1526
internal_value=0
internal_weight=1060.07
internal_count=7043
is_linear=0
shrinkage=0.0676762


Tree=121
num_leaves=2
num_cat=0
split_feature=1
split_gain=16.5139
threshold=-0.40195676369811301
decision_type=2
left_child=-1
right_child=-2
leaf_value=0.0072856799512797813 -0.0097860667932226624
leaf_weight=605.89408794417977 453.03252186067402
leaf_count=3031 4012
internal_value=0
internal_weight=1058.93
internal_count=7043
is_linear=0
shrinkage=0.0676762


Tree=122
num_leaves=2
num_cat=0
split_feature=25
split_gain=17.1214
threshold=1.0000000180025095e-35
decision_type=2
left_child=-1
right_child=-2
leaf_value=-0.0070712113572448743 0.010486693147918677
leaf_weight=632.70789916813374 424.5340964756906
leaf_count=4336 2707
internal_value=0
internal_weight=1057.24
internal_count=7043
is_linear=0
shrinkage=0.0676762


Tree=123
num_leaves=2
num_cat=0
split_feature=27
split_gain=15.9738
threshold=1.0000000180025095e-35
decision_type=2
left_child=-1
right_child=-2
leaf_value=-0.0068833288283462165 0.010050339363971155
leaf_weight=628.73971728049219 428.51412199810147
leaf_count=4311 2732
internal_value=0
internal_weight=1057.25
internal_count=7043
is_linear=0
shrinkage=0.0676762


Tree=124
num_leaves=2
num_cat=0
split_feature=1
split_gain=16.5598
threshold=1.5526206948633439
decision_type=2
left_child=-1
right_child=-2
leaf_value=0.0014799899816729791 -0.047870675524086248
leaf_weight=1025.7290643695742 31.528638580814004
leaf_count=6511 532
internal_value=0
internal_weight=1057.26
internal_count=7043
is_linear=0
shrinkage=0.0676762


Tree=125
num_leaves=2
num_cat=0
split_feature=1
split_gain=16.0641
threshold=-1.0942029469386287
decision_type=2
left_child=-1
right_child=-2
leaf_value=0.013314865165202574 -0.005236768034214058
leaf_weight=296.82521631196141 759.61829476989806
leaf_count=1371 5672
internal_value=0
internal_weight=1056.44
internal_count=7043
is_linear=0
shrinkage=0.0676762


Tree=126
num_leaves=2
num_cat=0
split_feature=30
split_gain=15.6611
threshold=1.0000000180025095e-35
decision_type=2
left_child=-1
right_child=-2
leaf_value=-0.011949360787766043 0.0056742835460787565
leaf_weight=340.54532277584076 714.36036536470056
leaf_count=2872 4171
internal_value=0
internal_weight=1054.91
internal_count=7043
is_linear=0
shrinkage=0.0676762


Tree=127
num_leaves=2
num_cat=0
split_feature=1
split_gain=15.1854
threshold=1.1046966939430101
decision_type=2
left_child=-1
right_child=-2
leaf_value=0.0027904120881404987 -0.023484407806397767
leaf_weight=941.86312844790518 112.21361544542015
leaf_count=5560 1483
internal_value=0
internal_weight=1054.08
internal_count=7043
is_linear=0
shrinkage=0.0676762


Tree=128
num_leaves=2
num_cat=0
split_feature=0
split_gain=14.9855
threshold=1.0000000180025095e-35
decision_type=2
left_child=-1
right_child=-2
leaf_value=-0.0041217188739576943 0.015852356086794285
leaf_weight=836.9788517113775 215.91157702542841
leaf_count=5901 1142
internal_value=0
internal_weight=1052.89
internal_count=7043
is_linear=0
shrinkage=0.0676762


Tree=129
num_leaves=2
num_cat=0
split_feature=23
split_gain=14.2679
threshold=1.0000000180025095e-35
decision_type=2
left_child=-1
right_child=-2
leaf_value=0.0043320229049769853 -0.014277884348248244
leaf_weight=806.67573685757816 245.65559983253479
leaf_count=4999 2044
internal_value=0
internal_weight=1052.33
internal_count=7043
is_linear=0
shrinkage=0.0676762


Tree=130
num_leaves=2
num_cat=0
split_feature=27
split_gain=15.0029
threshold=1.0000000180025095e-35
decision_type=2
left_child=-1
right_child=-2
leaf_value=-0.0066898730792990472 0.009766156392464722
leaf_weight=625.24840526841581 426.19492428377271
leaf_count=4311 2732
internal_value=0
internal_weight=1051.44
internal_count=7043
is_linear=0
shrinkage=0.0676762


Tree=131
num_leaves=2
num_cat=0
split_feature=1
split_gain=14.779
threshold=-1.2570844018187501
decision_type=2
left_child=-1
right_child=-2
leaf_value=0.020946237567464224 -0.0030845955418002577
leaf_weight=133.77805427461863 917.65165722556412
leaf_count=624 6419
internal_value=0
internal_weight=1051.43
internal_count=7043
is_linear=0
shrinkage=0.0676762


Tree=132
num_leaves=2
num_cat=0
split_feature=18
split_gain=14.2441
threshold=1.0000000180025095e-35
decision_type=2
left_child=-1
right_child=-2
leaf_value=0.0028265638334067206 -0.021847509937399642
leaf_weight=929.83273377642035 120.51854366436601
leaf_count=5517 1526
internal_value=0
internal_weight=1050.35
internal_count=7043
is_linear=0
shrinkage=0.0676762


Tree=133
num_leaves=2
num_cat=0
split_feature=17
split_gain=14.0188
threshold=1.0000000180025095e-35
decision_type=2
left_child=-1
right_child=-2
leaf_value=0.0042461986715652432 -0.014356159569281301
leaf_weight=809.19888412021101 240.10371038690209
leaf_count=5024 2019
internal_value=0
internal_weight=1049.3
internal_count=7043
is_linear=0
shrinkage=0.0676762


Tree=134
num_leaves=2
num_cat=0
split_feature=1
split_gain=13.8932
threshold=1.5526206948633439
decision_type=2
left_child=-1
right_child=-2
leaf_value=0.0013187599773411783 -0.045431713422760173
leaf_weight=1018.9655361603945 29.382435567677021
leaf_count=6511 532
internal_value=0
internal_weight=1048.35
internal_count=7043
is_linear=0
shrinkage=0.0676762


Tree=135
num_leaves=2
num_cat=0
split_feature=25
split_gain=14.3347
threshold=1.0000000180025095e-35
decision_type=2
left_child=-1
right_child=-2
leaf_value=-0.0065198300163308836 0.0096102071223419083
leaf_weight=625.4693896509707 422.14035066217184
leaf_count=4336 2707
internal_value=0
internal_weight=1047.61
internal_count=7043
is_linear=0
shrinkage=0.0676762


Tree=136
num_leaves=2
num_cat=0
split_feature=1
split_gain=13.5741
threshold=-0.60555858229826465
decision_type=2
left_child=-1
right_child=-2
leaf_value=0.0075181750085566799 -0.0078839533961818
leaf_weight=535.05362727493048 512.53917694091797
leaf_count=2637 4406
internal_value=0
internal_weight=1047.59
internal_count=7043
is_linear=0
shrinkage=0.0676762


Tree=137
num_leaves=2
num_cat=0
split_feature=2
split_gain=13.6408
threshold=1.0374036166847789
decision_type=2
left_child=-1
right_child=-2
leaf_value=-0.0037357812474665573 0.016025567945845098
leaf_weight=849.54433855880052 196.482701536268
leaf_count=5857 1186
internal_value=0
internal_weight=1046.03
internal_count=7043
is_linear=0
shrinkage=0.0676762


Tree=138
num_leaves=2
num_cat=0
split_feature=16
split_gain=12.422
threshold=1.0000000180025095e-35
decision_type=2
left_child=-1
right_child=-2
leaf_value=0.0026252757983563028 -0.020582003998582604
leaf_weight=927.60173456557095 118.61557185743004
leaf_count=5517 1526
internal_value=0
internal_weight=1046.22
internal_count=7043
is_linear=0
shrinkage=0.0676762


Tree=139
num_leaves=2
num_cat=0
split_feature=1
split_gain=13.3115
threshold=-1.2570844018187501
decision_type=2
left_child=-1
right_child=-2
leaf_value=0.019956739873663063 -0.002933664115570563
leaf_weight=132.76306816190481 912.46603311691433
leaf_count=624 6419
internal_value=0
internal_weight=1045.23
internal_count=7043
is_linear=0
shrinkage=0.0676762


Tree=140
num_leaves=2
num_cat=0
split_feature=1
split_gain=12.8312
threshold=0.45317087442252435
decision_type=2
left_child=-1
right_child=-2
leaf_value=0.0040093184537028205 -0.013984756774565982
leaf_weight=811.00804990716279 233.1948972037062
leaf_count=4486 2557
internal_value=0
internal_weight=1044.2
internal_count=7043
is_linear=0
shrinkage=0.0676762


Tree=141
num_leaves=2
num_cat=0
split_feature=2
split_gain=12.4944
threshold=1.0374036166847789
decision_type=2
left_child=-1
right_child=-2
leaf_value=-0.0035884242690766436 0.015323415324835235
leaf_weight=846.20369002409279 196.68627547100186
leaf_count=5857 1186
internal_value=0
internal_weight=1042.89
internal_count=7043
is_linear=0
shrinkage=0.0676762


Tree=142
num_leaves=2
num_cat=0
split_feature=1
split_gain=12.5446
threshold=1.5526206948633439
decision_type=2
left_child=-1
right_child=-2
leaf_value=0.0012356599422124078 -0.044037612279348853
leaf_weight=1014.824811950326 28.239881848916411
leaf_count=6511 532
internal_value=0
internal_weight=1043.06
internal_count=7043
is_linear=0
shrinkage=0.0676762


Tree=143
num_leaves=2
num_cat=0
split_feature=0
split_gain=12.1465
threshold=1.0000000180025095e-35
decision_type=2
left_child=-1
right_child=-2
leaf_value=-0.0037426487058830958 0.014289872427546684
leaf_weight=827.31014748476446 215.0587322730571
leaf_count=5901 1142
internal_value=0
internal_weight=1042.37
internal_count=7043
is_linear=0
shrinkage=0.0676762


Tree=144
num_leaves=2
num_cat=0
split_feature=23
split_gain=12.3771
threshold=1.0000000180025095e-35
decision_type=2
left_child=-1
right_child=-2
leaf_value=0.004044753710796694 -0.013402214664965408
leaf_weight=799.73078588210046 242.11820156686008
leaf_count=4999 2044
internal_value=0
internal_weight=1041.85
internal_count=7043
is_linear=0
shrinkage=0.0676762


Tree=145
num_leaves=2
num_cat=0
split_feature=30
split_gain=12.0399
threshold=1.0000000180025095e-35
decision_type=2
left_child=-1
right_child=-2
leaf_value=-0.01060824402847358 0.0049797075263355601
leaf_weight=333.36038203258067 707.65519032627344
leaf_count=2872 4171
internal_value=0
internal_weight=1041.02
internal_count=7043
is_linear=0
shrinkage=0.0676762


Tree=146
num_leaves=2
num_cat=0
split_feature=1
split_gain=11.8975
threshold=-1.0127622194985679
decision_type=2
left_child=-1
right_child=-2
leaf_value=0.010355210811105913 -0.0050603972405769242
leaf_weight=340.27681578695774 699.99891824554652
leaf_count=1612 5431
internal_value=0
internal_weight=1040.28
internal_count=7043
is_linear=0
shrinkage=0.0676762


Tree=147
num_leaves=2
num_cat=0
split_feature=27
split_gain=12.1159
threshold=1.0000000180025095e-35
decision_type=2
left_child=-1
right_child=-2
leaf_value=-0.0060717700700630289 0.008793056821678847
leaf_weight=615.64798727538437 423.28690676763654
leaf_count=4311 2732
internal_value=0
internal_weight=1038.93
internal_count=7043
is_linear=0
shrinkage=0.0676762


Tree=148
num_leaves=2
num_cat=0
split_feature=25
split_gain=11.2521
threshold=1.0000000180025095e-35
decision_type=2
left_child=-1
right_child=-2
leaf_value=-0.0058213285768263547 0.0085178888710298311
leaf_weight=618.21316189318895 420.68735733069479
leaf_count=4336 2707
internal_value=0
internal_weight=1038.9
internal_count=7043
is_linear=0
shrinkage=0.0676762


Tree=149
num_leaves=2
num_cat=0
split_feature=1
split_gain=11.6372
threshold=-0.2797956725380219
decision_type=2
left_child=-1
right_child=-2
leaf_value=0.0056938097705058546 -0.0089931148947369755
leaf_weight=635.34712581150234 403.51631790027022
leaf_count=3289 3754
internal_value=0
internal_weight=1038.86
internal_count=7043
is_linear=0
shrinkage=0.0676762


Tree=150
num_leaves=2
num_cat=0
split_feature=1
split_gain=11.1542
threshold=1.5526206948633439
decision_type=2
left_child=-1
right_child=-2
leaf_value=0.0011464567723061816 -0.042447745072360508
leaf_weight=1010.4543186705559 27.028302359394729
leaf_count=6511 532
internal_value=0
internal_weight=1037.48
internal_count=7043
is_linear=0
shrinkage=0.0676762


Tree=151
num_leaves=2
num_cat=0
split_feature=1
split_gain=10.8101
threshold=-1.2570844018187501
decision_type=2
left_child=-1
right_child=-2
leaf_value=0.018030672889772822 -0.0026578663732565325
leaf_weight=132.0313112065196 904.80099725630134
leaf_count=624 6419
internal_value=0
internal_weight=1036.83
internal_count=7043
is_linear=0
shrinkage=0.0676762


Tree=152
num_leaves=2
num_cat=0
split_feature=15
split_gain=10.8798
threshold=1.0000000180025095e-35
decision_type=2
left_child=-1
right_child=-2
leaf_value=0.0024558719677310182 -0.019474669493283109
leaf_weight=919.73543453589082 116.16402235534042
leaf_count=5517 1526
internal_value=0
internal_weight=1035.9
internal_count=7043
is_linear=0
shrinkage=0.0676762


Tree=153
num_leaves=2
num_cat=0
split_feature=17
split_gain=10.8483
threshold=1.0000000180025095e-35
decision_type=2
left_child=-1
right_child=-2
leaf_value=0.0037389516422784482 -0.012791807922527237
leaf_weight=800.34895360842347 234.63138174079359
leaf_count=5024 2019
internal_value=0
internal_weight=1034.98
internal_count=7043
is_linear=0
shrinkage=0.0676762


Tree=154
num_leaves=2
num_cat=0
split_feature=2
split_gain=10.9359
threshold=1.0374036166847789
decision_type=2
left_child=-1
right_child=-2
leaf_value=-0.0033804668280273628 0.014356160197165582
leaf_weight=838.20181494485587 195.92860153689981
leaf_count=5857 1186
internal_value=0
internal_weight=1034.13
internal_count=7043
is_linear=0
shrinkage=0.0676762


Tree=155
num_leaves=2
num_cat=0
split_feature=23
split_gain=10.707
threshold=1.0000000180025095e-35
decision_type=2
left_child=-1
right_child=-2
leaf_value=0.0037655499502485881 -0.012547066863085371
leaf_weight=795.02428355067968 239.25181108899415
leaf_count=4999 2044
internal_value=0
internal_weight=1034.28
internal_count=7043
is_linear=0
shrinkage=0.0676762


Tree=156
num_leaves=2
num_cat=0
split_feature=13
split_gain=10.4511
threshold=1.0000000180025095e-35
decision_type=2
left_child=-1
right_child=-2
leaf_value=-0.0059117204421438351 0.0078298176984165808
leaf_weight=589.93752438761294 443.55680862721056
leaf_count=4072 2971
internal_value=0
internal_weight=1033.49
internal_count=7043
is_linear=0
shrinkage=0.0676762


Tree=157
num_leaves=2
num_cat=0
split_feature=3
split_gain=10.0068
threshold=0.43737076257459201
decision_type=2
left_child=-1
right_child=-2
leaf_value=0.003679464680711805 -0.012011165279530115
leaf_weight=790.59092577919364 242.85092048719525
leaf_count=5015 2028
internal_value=0
internal_weight=1033.44
internal_count=7043
is_linear=0
shrinkage=0.0676762


Tree=158
num_leaves=2
num_cat=0
split_feature=27
split_gain=10.185
threshold=1.0000000180025095e-35
decision_type=2
left_child=-1
right_child=-2
leaf_value=-0.0055944708078865387 0.008071451168896477
leaf_weight=610.92873239703476 421.66140857338905
leaf_count=4311 2732
internal_value=0
internal_weight=1032.59
internal_count=7043
is_linear=0
shrinkage=0.0676762


Tree=159
num_leaves=2
num_cat=0
split_feature=10
split_gain=9.77634
threshold=1.0000000180025095e-35
decision_type=2
left_child=-1
right_child=-2
leaf_value=0.003557304311552822 -0.012147729412088979
leaf_weight=798.19628294184804 234.34377903863788
leaf_count=4933 2110
internal_value=0
internal_weight=1032.54
internal_count=7043
is_linear=0
shrinkage=0.0676762


Tree=160
num_leaves=2
num_cat=0
split_feature=1
split_gain=9.9249
threshold=1.1046966939430101
decision_type=2
left_child=-1
right_child=-2
leaf_value=0.0022252265617129104 -0.01967844315575492
leaf_weight=927.0267718732357 104.93742585927248
leaf_count=5560 1483
internal_value=0
internal_weight=1031.96
internal_count=7043
is_linear=0
shrinkage=0.0676762


Tree=161
num_leaves=2
num_cat=0
split_feature=1
split_gain=9.68477
threshold=-1.2570844018187501
decision_type=2
left_child=-1
right_child=-2
leaf_value=0.017112506091840982 -0.002522130462311208
leaf_weight=131.32906980067492 899.69099617097527
leaf_count=624 6419
internal_value=0
internal_weight=1031.02
internal_count=7043
is_linear=0
shrinkage=0.0676762


Tree=162
num_leaves=2
num_cat=0
split_feature=2
split_gain=9.9267
threshold=1.0374036166847789
decision_type=2
left_child=-1
right_child=-2
leaf_value=-0.0032285106626273215 0.013691433201450524
leaf_weight=834.62793134804815 195.5088276937604
leaf_count=5857 1186
internal_value=0
internal_weight=1030.14
internal_count=7043
is_linear=0
shrinkage=0.0676762


Tree=163
num_leaves=2
num_cat=0
split_feature=30
split_gain=9.54525
threshold=1.0000000180025095e-35
decision_type=2
left_child=-1
right_child=-2
leaf_value=-0.0095352257558646829 0.0044394877295576953
leaf_weight=327.85934412386268 702.40495694987476
leaf_count=2872 4171
internal_value=0
internal_weight=1030.26
internal_count=7043
is_linear=0
shrinkage=0.0676762


Tree=164
num_leaves=2
num_cat=0
split_feature=15
split_gain=9.18499
threshold=1.0000000180025095e-35
decision_type=2
left_child=-1
right_child=-2
leaf_value=0.0022493703070545698 -0.018069796255550479
leaf_weight=915.54467602074146 114.0544736078009
leaf_count=5517 1526
internal_value=0
internal_weight=1029.6
internal_count=7043
is_linear=0
shrinkage=0.0676762


Tree=165
num_leaves=2
num_cat=0
split_feature=1
split_gain=9.60716
threshold=-1.0942029469386287
decision_type=2
left_child=-1
right_child=-2
leaf_value=0.010402178291200876 -0.0041138940567148584
leaf_weight=290.50101828202605 738.24685356672853
leaf_count=1371 5672
internal_value=0
internal_weight=1028.75
internal_count=7043
is_linear=0
shrinkage=0.0676762


Tree=166
num_leaves=2
num_cat=0
split_feature=1
split_gain=9.47421
threshold=1.5526206948633439
decision_type=2
left_child=-1
right_child=-2
leaf_value=0.0010369771473810348 -0.04028560537363253
leaf_weight=1002.0768132116646 25.485562290064991
leaf_count=6511 532
internal_value=0
internal_weight=1027.56
internal_count=7043
is_linear=0
shrinkage=0.0676762


Tree=167
num_leaves=2
num_cat=0
split_feature=13
split_gain=9.43815
threshold=1.0000000180025095e-35
decision_type=2
left_child=-1
right_child=-2
leaf_value=-0.0056427801896720533 0.0074548766683064588
leaf_weight=585.57125612534583 441.39945193380117
leaf_count=4072 2971
internal_value=0
internal_weight=1026.97
internal_count=7043
is_linear=0
shrinkage=0.0676762


Tree=168
num_leaves=2
num_cat=0
split_feature=23
split_gain=9.1051
threshold=1.0000000180025095e-35
decision_type=2
left_child=-1
right_child=-2
leaf_value=0.0034739608308544424 -0.011648669584307167
leaf_weight=790.53083454445004 236.37983801402152
leaf_count=4999 2044
internal_value=0
internal_weight=1026.91
internal_count=7043
is_linear=0
shrinkage=0.0676762


Tree=169
num_leaves=2
num_cat=0
split_feature=3
split_gain=8.74498
threshold=0.43737076257459201
decision_type=2
left_child=-1
right_child=-2
leaf_value=0.0034427010346190687 -0.011297390742824856
leaf_weight=786.00049434881657 240.18343804217875
leaf_count=5015 2028
internal_value=0
internal_weight=1026.18
internal_count=7043
is_linear=0
shrinkage=0.0676762


Tree=170
num_leaves=2
num_cat=0
split_feature=25
split_gain=9.64761
threshold=1.0000000180025095e-35
decision_type=2
left_child=-1
right_child=-2
leaf_value=-0.0054336502523719809 0.007927056306572991
leaf_weight=609.39081069268286 415.99579647742212
leaf_count=4336 2707
internal_value=0
internal_weight=1025.39
internal_count=7043
is_linear=0
shrinkage=0.0676762


Tree=171
num_leaves=2
num_cat=0
split_feature=1
split_gain=8.48481
threshold=-0.89060112833847704
decision_type=2
left_child=-1
right_child=-2
leaf_value=0.0075928211694379303 -0.0049898163423142865
leaf_weight=405.56927123293281 619.76537332404405
leaf_count=1970 5073
internal_value=0
internal_weight=1025.33
internal_count=7043
is_linear=0
shrinkage=0.0676762


Tree=172
num_leaves=2
num_cat=0
split_feature=0
split_gain=9.06367
threshold=1.0000000180025095e-35
decision_type=2
left_child=-1
right_child=-2
leaf_value=-0.00327278516158021 0.012400304340788974
leaf_weight=811.33745086938143 212.82296193949878
leaf_count=5901 1142
internal_value=0
internal_weight=1024.16
internal_count=7043
is_linear=0
shrinkage=0.0676762


Tree=173
num_leaves=2
num_cat=0
split_feature=27
split_gain=8.68307
threshold=1.0000000180025095e-35
decision_type=2
left_child=-1
right_child=-2
leaf_value=-0.0051970563713654308 0.0074707728189984919
leaf_weight=604.61530158203095 419.08377245254815
leaf_count=4311 2732
internal_value=0
internal_weight=1023.7
internal_count=7043
is_linear=0
shrinkage=0.0676762


Tree=174
num_leaves=2
num_cat=0
split_feature=1
split_gain=8.44256
threshold=1.5526206948633439
decision_type=2
left_child=-1
right_child=-2
leaf_value=0.00096421709248234379 -0.038765641795799249
leaf_weight=999.11545924749225 24.525019094347954
leaf_count=6511 532
internal_value=0
internal_weight=1023.64
internal_count=7043
is_linear=0
shrinkage=0.0676762


Tree=175
num_leaves=2
num_cat=0
split_feature=13
split_gain=8.4876
threshold=1.0000000180025095e-35
decision_type=2
left_child=-1
right_child=-2
leaf_value=-0.0053630295462710215 0.0070803559847260637
leaf_weight=583.14292779844254 439.9438591748476
leaf_count=4072 2971
internal_value=0
internal_weight=1023.09
internal_count=7043
is_linear=0
shrinkage=0.0676762


Tree=176
num_leaves=2
num_cat=0
split_feature=25
split_gain=7.92329
threshold=1.0000000180025095e-35
decision_type=2
left_child=-1
right_child=-2
leaf_value=-0.0049406620912191401 0.0071763184959899229
leaf_weight=606.89582355227321 416.12359230220318
leaf_count=4336 2707
internal_value=0
internal_weight=1023.02
internal_count=7043
is_linear=0
shrinkage=0.0676762


Tree=177
num_leaves=2
num_cat=0
split_feature=3
split_gain=8.69916
threshold=0.43737076257459201
decision_type=2
left_child=-1
right_child=-2
leaf_value=0.0034416705572891874 -0.011280664159224902
leaf_weight=783.42685499507934 239.53195904567838
leaf_count=5015 2028
internal_value=0
internal_weight=1022.96
internal_count=7043
is_linear=0
shrinkage=0.0676762


Tree=178
num_leaves=2
num_cat=0
split_feature=1
split_gain=8.44623
threshold=-1.2570844018187501
decision_type=2
left_child=-1
right_child=-2
leaf_value=0.016046916303735378 -0.0023644902345144234
leaf_weight=130.26361724734306 891.90282862074673
leaf_count=624 6419
internal_value=0
internal_weight=1022.17
internal_count=7043
is_linear=0
shrinkage=0.0676762


Tree=179
num_leaves=2
num_cat=0
split_feature=2
split_gain=8.08763
threshold=1.0374036166847789
decision_type=2
left_child=-1
right_child=-2
leaf_value=-0.0029345191682197489 0.01237379244289135
leaf_weight=826.52340679708868 194.822290815413
leaf_count=5857 1186
internal_value=0
internal_weight=1021.35
internal_count=7043
is_linear=0
shrinkage=0.0676762


Tree=180
num_leaves=2
num_cat=0
split_feature=15
split_gain=7.65287
threshold=1.0000000180025095e-35
decision_type=2
left_child=-1
right_child=-2
leaf_value=0.0020489525780612739 -0.016668606142757406
leaf_weight=909.62986810877919 111.81238149479032
leaf_count=5517 1526
internal_value=0
internal_weight=1021.44
internal_count=7043
is_linear=0
shrinkage=0.0676762


Tree=181
num_leaves=2
num_cat=0
split_feature=17
split_gain=8.29969
threshold=1.0000000180025095e-35
decision_type=2
left_child=-1
right_child=-2
leaf_value=0.0032788075027043624 -0.011323655580061509
leaf_weight=791.17701263446361 229.48603821359575
leaf_count=5024 2019
internal_value=0
internal_weight=1020.66
internal_count=7043
is_linear=0
shrinkage=0.0676762


Tree=182
num_leaves=2
num_cat=0
split_feature=3
split_gain=7.89213
threshold=0.43737076257459201
decision_type=2
left_child=-1
right_child=-2
leaf_value=0.0032790183687215471 -0.010774761906104977
leaf_weight=781.59010915085673 238.32402112614363
leaf_count=5015 2028
internal_value=0
internal_weight=1019.91
internal_count=7043
is_linear=0
shrinkage=0.0676762


Tree=183
num_leaves=2
num_cat=0
split_feature=13
split_gain=7.68025
threshold=1.0000000180025095e-35
decision_type=2
left_child=-1
right_child=-2
leaf_value=-0.0051155957003008578 0.0067422215984268329
leaf_weight=580.36849793046713 438.7857012860477
leaf_count=4072 2971
internal_value=0
internal_weight=1019.15
internal_count=7043
is_linear=0
shrinkage=0.0676762


Tree=184
num_leaves=2
num_cat=0
split_feature=1
split_gain=7.74431
threshold=-1.2163640380987197
decision_type=2
left_child=-1
right_child=-2
leaf_value=0.012674173302557597 -0.0027500201059698216
leaf_weight=180.72377488017082 838.3603335916996
leaf_count=862 6181
internal_value=0
internal_weight=1019.08
internal_count=7043
is_linear=0
shrinkage=0.0676762


Tree=185
num_leaves=2
num_cat=0
split_feature=23
split_gain=7.42543
threshold=1.0000000180025095e-35
decision_type=2
left_child=-1
right_child=-2
leaf_value=0.0031416170118763647 -0.010600764322191992
leaf_weight=785.1474384162575 233.03825927246362
leaf_count=4999 2044
internal_value=0
internal_weight=1018.19
internal_count=7043
is_linear=0
shrinkage=0.0676762


Tree=186
num_leaves=2
num_cat=0
split_feature=2
split_gain=7.60766
threshold=1.0374036166847789
decision_type=2
left_child=-1
right_child=-2
leaf_value=-0.0028542274723419025 0.012009819029817551
leaf_weight=823.05958194099367 194.4660271294415
leaf_count=5857 1186
internal_value=0
internal_weight=1017.53
internal_count=7043
is_linear=0
shrinkage=0.0676762


Tree=187
num_leaves=2
num_cat=0
split_feature=11
split_gain=7.5918
threshold=1.0000000180025095e-35
decision_type=2
left_child=-1
right_child=-2
leaf_value=0.018355464504838277 -0.0018661691227085261
leaf_weight=93.051469704136252 924.56428809743375
leaf_count=682 6361
internal_value=0
internal_weight=1017.62
internal_count=7043
is_linear=0
shrinkage=0.0676762


Tree=188
num_leaves=2
num_cat=0
split_feature=1
split_gain=7.44876
threshold=1.5526206948633439
decision_type=2
left_child=-1
right_child=-2
leaf_value=0.00089444402109976103 -0.037152155443293818
leaf_weight=994.32026753202081 23.552662260830402
leaf_count=6511 532
internal_value=0
internal_weight=1017.87
internal_count=7043
is_linear=0
shrinkage=0.0676762


Tree=189
num_leaves=2
num_cat=0
split_feature=0
split_gain=7.26229
threshold=1.0000000180025095e-35
decision_type=2
left_child=-1
right_child=-2
leaf_value=-0.0029453594912099805 0.011111523841450718
leaf_weight=805.159827276133 212.19854945782572
leaf_count=5901 1142
internal_value=0
internal_weight=1017.36
internal_count=7043
is_linear=0
shrinkage=0.0676762


Tree=190
num_leaves=2
num_cat=0
split_feature=1
split_gain=7.17053
threshold=-0.68699930973832535
decision_type=2
left_child=-1
right_child=-2
leaf_value=0.0058413390892532195 -0.0055226932268780757
leaf_weight=493.48257864080369 523.45084869861603
leaf_count=2470 4573
internal_value=0
internal_weight=1016.93
internal_count=7043
is_linear=0
shrinkage=0.0676762


Tree=191
num_leaves=2
num_cat=0
split_feature=30
split_gain=7.25054
threshold=1.0000000180025095e-35
decision_type=2
left_child=-1
right_child=-2
leaf_value=-0.0084038166476107009 0.0038813840029832342
leaf_weight=321.35462352819741 694.46689076721668
leaf_count=2872 4171
internal_value=0
internal_weight=1015.82
internal_count=7043
is_linear=0
shrinkage=0.0676762


Tree=192
num_leaves=2
num_cat=0
split_feature=2
split_gain=7.0366
threshold=1.1071990906917557
decision_type=2
left_child=-1
right_child=-2
leaf_value=-0.0025817630944123485 0.012310271681677719
leaf_weight=840.13648248836398 175.10088996589184
leaf_count=5960 1083
internal_value=0
internal_weight=1015.24
internal_count=7043
is_linear=0
shrinkage=0.0676762


Tree=193
num_leaves=2
num_cat=0
split_feature=3
split_gain=7.15784
threshold=0.43737076257459201
decision_type=2
left_child=-1
right_child=-2
leaf_value=0.0031253933694299703 -0.010302667442803585
leaf_weight=778.8051641760394 236.5430686911568
leaf_count=5015 2028
internal_value=0
internal_weight=1015.35
internal_count=7043
is_linear=0
shrinkage=0.0676762


Tree=194
num_leaves=2
num_cat=0
split_feature=13
split_gain=7.07126
threshold=1.0000000180025095e-35
decision_type=2
left_child=-1
right_child=-2
leaf_value=-0.004918938696486015 0.0064840180747697297
leaf_weight=577.67298093810678 436.95299048442394
leaf_count=4072 2971
internal_value=0
internal_weight=1014.63
internal_count=7043
is_linear=0
shrinkage=0.0676762


Tree=195
num_leaves=2
num_cat=0
split_feature=11
split_gain=6.82177
threshold=1.0000000180025095e-35
decision_type=2
left_child=-1
right_child=-2
leaf_value=0.017368912453123411 -0.0017772797115632474
leaf_weight=93.328472855500877 921.22407749854028
leaf_count=682 6361
internal_value=0
internal_weight=1014.55
internal_count=7043
is_linear=0
shrinkage=0.0676762


Tree=196
num_leaves=2
num_cat=0
split_feature=1
split_gain=6.77721
threshold=-1.2570844018187501
decision_type=2
left_child=-1
right_child=-2
leaf_value=0.014430202318160853 -0.0021226048459639145
leaf_weight=129.30667293071747 885.48329015914351
leaf_count=624 6419
internal_value=0
internal_weight=1014.79
internal_count=7043
is_linear=0
shrinkage=0.0676762


Tree=197
num_leaves=2
num_cat=0
split_feature=27
split_gain=6.8706
threshold=1.0000000180025095e-35
decision_type=2
left_child=-1
right_child=-2
leaf_value=-0.0046518574683548858 0.0066654313548024091
leaf_weight=597.8172219004482 416.23293142579496
leaf_count=4311 2732
internal_value=0
internal_weight=1014.05
internal_count=7043
is_linear=0
shrinkage=0.0676762


Tree=198
num_leaves=2
num_cat=0
split_feature=10
split_gain=6.6094
threshold=1.0000000180025095e-35
decision_type=2
left_child=-1
right_child=-2
leaf_value=0.0029333011490148882 -0.010153223652835563
leaf_weight=786.62683331500739 227.35483233816922
leaf_count=4933 2110
internal_value=0
internal_weight=1013.98
internal_count=7043
is_linear=0
shrinkage=0.0676762


Tree=199
num_leaves=2
num_cat=0
split_feature=1
split_gain=6.65849
threshold=1.1046966939430101
decision_type=2
left_child=-1
right_child=-2
leaf_value=0.0018091543092583549 -0.016568605131011008
leaf_weight=913.90110784955323 99.599710267037153
leaf_count=5560 1483
internal_value=0
internal_weight=1013.5
internal_count=7043
is_linear=0
shrinkage=0.0676762


Tree=200
num_leaves=2
num_cat=0
split_feature=25
split_gain=6.62394
threshold=1.0000000180025095e-35
decision_type=2
left_child=-1
right_child=-2
leaf_value=-0.0045439170434551342 0.0065878298213152883
leaf_weight=600.02304026577622 412.71666134241968
leaf_count=4336 2707
internal_value=0
internal_weight=1012.74
internal_count=7043
is_linear=0
shrinkage=0.0676762


Tree=201
num_leaves=2
num_cat=0
split_feature=1
split_gain=6.44142
threshold=-1.0127622194985679
decision_type=2
left_child=-1
right_child=-2
leaf_value=0.0076922550404474373 -0.0037859625884001527
leaf_weight=333.28970159962773 679.38349871523678
leaf_count=1612 5431
internal_value=0
internal_weight=1012.67
internal_count=7043
is_linear=0
shrinkage=0.0676762


Tree=202
num_leaves=2
num_cat=0
split_feature=15
split_gain=6.41221
threshold=1.0000000180025095e-35
decision_type=2
left_child=-1
right_child=-2
leaf_value=0.0018761472340621055 -0.015414676705971828
leaf_weight=902.05226264614612 109.63914581853896
leaf_count=5517 1526
internal_value=0
internal_weight=1011.69
internal_count=7043
is_linear=0
shrinkage=0.0676762


Tree=203
num_leaves=2
num_cat=0
split_feature=13
split_gain=6.45495
threshold=1.0000000180025095e-35
decision_type=2
left_child=-1
right_child=-2
leaf_value=-0.0047137208131216891 0.0061985821053921978
leaf_weight=574.93354372680187 436.04562163166702
leaf_count=4072 2971
internal_value=0
internal_weight=1010.98
internal_count=7043
is_linear=0
shrinkage=0.0676762


Tree=204
num_leaves=2
num_cat=0
split_feature=23
split_gain=6.49242
threshold=1.0000000180025095e-35
decision_type=2
left_child=-1
right_child=-2
leaf_value=0.0029442245490190568 -0.0099647770688216664
leaf_weight=780.19121181219816 230.71479715034366
leaf_count=4999 2044
internal_value=0
internal_weight=1010.91
internal_count=7043
is_linear=0
shrinkage=0.0676762


Tree=205
num_leaves=2
num_cat=0
split_feature=1
split_gain=6.37261
threshold=1.5526206948633439
decision_type=2
left_child=-1
right_child=-2
leaf_value=0.0008138966829369824 -0.035189727536016638
leaf_weight=987.83243337273598 22.453895882703364
leaf_count=6511 532
internal_value=0
internal_weight=1010.29
internal_count=7043
is_linear=0
shrinkage=0.0676762


Tree=206
num_leaves=2
num_cat=0
split_feature=17
split_gain=6.17616
threshold=1.0000000180025095e-35
decision_type=2
left_child=-1
right_child=-2
leaf_value=0.0028270667024956095 -0.0098772058691158002
leaf_weight=784.79402327351272 225.02157753054053
leaf_count=5024 2019
internal_value=0
internal_weight=1009.82
internal_count=7043
is_linear=0
shrinkage=0.0676762


Tree=207
num_leaves=2
num_cat=0
split_feature=2
split_gain=6.14997
threshold=1.1071990906917557
decision_type=2
left_child=-1
right_child=-2
leaf_value=-0.0024249790042905313 0.011526959092733657
leaf_weight=834.73199762776494 174.43346021696925
leaf_count=5960 1083
internal_value=0
internal_weight=1009.17
internal_count=7043
is_linear=0
shrinkage=0.0676762


Tree=208
num_leaves=2
num_cat=0
split_feature=3
split_gain=6.48909
threshold=0.43737076257459201
decision_type=2
left_child=-1
right_child=-2
leaf_value=0.002978674986319583 -0.0098575422977161577
leaf_weight=774.78699530661106 234.47172027640045
leaf_count=5015 2028
internal_value=0
internal_weight=1009.26
internal_count=7043
is_linear=0
shrinkage=0.0676762


Tree=209
num_leaves=2
num_cat=0
split_feature=12
split_gain=6.0401
threshold=1.0000000180025095e-35
decision_type=2
left_child=-1
right_child=-2
leaf_value=-0.0016843831674955561 0.01633142413230676
leaf_weight=915.18049982842058 93.392732562497258
leaf_count=6361 682
internal_value=0
internal_weight=1008.57
internal_count=7043
is_linear=0
shrinkage=0.0676762


Tree=210
num_leaves=2
num_cat=0
split_feature=2
split_gain=5.93575
threshold=1.0374036166847789
decision_type=2
left_child=-1
right_child=-2
leaf_value=-0.0025364737164062711 0.010634163202139751
leaf_weight=815.39652316644788 193.39287167042494
leaf_count=5857 1186
internal_value=0
internal_weight=1008.79
internal_count=7043
is_linear=0
shrinkage=0.0676762


Tree=211
num_leaves=2
num_cat=0
split_feature=1
split_gain=5.90886
threshold=-1.2570844018187501
decision_type=2
left_child=-1
right_child=-2
leaf_value=0.01350943199206679 -0.0019887415178454835
leaf_weight=128.61053442955017 880.24101779516786
leaf_count=624 6419
internal_value=0
internal_weight=1008.85
internal_count=7043
is_linear=0
shrinkage=0.0676762


Tree=212
num_leaves=2
num_cat=0
split_feature=13
split_gain=5.95496
threshold=1.0000000180025095e-35
decision_type=2
left_child=-1
right_child=-2
leaf_value=-0.0045331142771109631 0.0059626790871995542
leaf_weight=573.33361373189837 434.82723710220307
leaf_count=4072 2971
internal_value=0
internal_weight=1008.16
internal_count=7043
is_linear=0
shrinkage=0.0676762


Tree=213
num_leaves=2
num_cat=0
split_feature=15
split_gain=5.58804
threshold=1.0000000180025095e-35
decision_type=2
left_child=-1
right_child=-2
leaf_value=0.0017470383812342532 -0.014477730402740084
leaf_weight=899.6763758379966 108.40766207780689
leaf_count=5517 1526
internal_value=0
internal_weight=1008.08
internal_count=7043
is_linear=0
shrinkage=0.0676762


Tree=214
num_leaves=2
num_cat=0
split_feature=3
split_gain=6.25959
threshold=0.43737076257459201
decision_type=2
left_child=-1
right_child=-2
leaf_value=0.0029298648804064885 -0.0096884953809533367
leaf_weight=773.35385378263891 234.06141801923513
leaf_count=5015 2028
internal_value=0
internal_weight=1007.42
internal_count=7043
is_linear=0
shrinkage=0.0676762


Tree=215
num_leaves=2
num_cat=0
split_feature=1
split_gain=5.58217
threshold=1.5526206948633439
decision_type=2
left_child=-1
right_child=-2
leaf_value=0.00075008312359430419 -0.033552651483958709
leaf_weight=985.10930911079049 21.63038222771138
leaf_count=6511 532
internal_value=0
internal_weight=1006.74
internal_count=7043
is_linear=0
shrinkage=0.0676762


Tree=216
num_leaves=2
num_cat=0
split_feature=0
split_gain=5.56795
threshold=1.0000000180025095e-35
decision_type=2
left_child=-1
right_child=-2
leaf_value=-0.0026002396259770912 0.009755592307554772
leaf_weight=795.49233747459948 210.8108055787161
leaf_count=5901 1142
internal_value=0
internal_weight=1006.3
internal_count=7043
is_linear=0
shrinkage=0.0676762


Tree=217
num_leaves=2
num_cat=0
split_feature=30
split_gain=5.45948
threshold=1.0000000180025095e-35
decision_type=2
left_child=-1
right_child=-2
leaf_value=-0.0073582913026516575 0.0033704602228411037
leaf_weight=316.4465304389596 689.47718948870897
leaf_count=2872 4171
internal_value=0
internal_weight=1005.92
internal_count=7043
is_linear=0
shrinkage=0.0676762


Tree=218
num_leaves=2
num_cat=0
split_feature=1
split_gain=5.55585
threshold=-1.0534825832185983
decision_type=2
left_child=-1
right_child=-2
leaf_value=0.0075960925286685712 -0.0033318536847195719
leaf_weight=305.67822367884219 699.7332767713815
leaf_count=1481 5562
internal_value=0
internal_weight=1005.41
internal_count=7043
is_linear=0
shrinkage=0.0676762


Tree=219
num_leaves=2
num_cat=0
split_feature=25
split_gain=5.53859
threshold=1.0000000180025095e-35
decision_type=2
left_child=-1
right_child=-2
leaf_value=-0.0041804609739544253 0.0060365072065518997
leaf_weight=594.22949554957449 410.28445591684431
leaf_count=4336 2707
internal_value=0
internal_weight=1004.51
internal_count=7043
is_linear=0
shrinkage=0.0676762


Tree=220
num_leaves=2
num_cat=0
split_feature=11
split_gain=5.3673
threshold=1.0000000180025095e-35
decision_type=2
left_child=-1
right_child=-2
leaf_value=0.015376654478635739 -0.0015951718169776167
leaf_weight=93.572670900262892 910.87194076552987
leaf_count=682 6361
internal_value=0
internal_weight=1004.44
internal_count=7043
is_linear=0
shrinkage=0.0676762


Tree=221
num_leaves=2
num_cat=0
split_feature=3
split_gain=5.37355
threshold=0.43737076257459201
decision_type=2
left_child=-1
right_child=-2
leaf_value=0.0027108688523416577 -0.0090137204479635927
leaf_weight=772.21277635823935 232.43085195217282
leaf_count=5015 2028
internal_value=0
internal_weight=1004.64
internal_count=7043
is_linear=0
shrinkage=0.0676762


Tree=222
num_leaves=2
num_cat=0
split_feature=13
split_gain=5.73998
threshold=1.0000000180025095e-35
decision_type=2
left_child=-1
right_child=-2
leaf_value=-0.0044587580433850197 0.005867473776616062
leaf_weight=571.11540759261698 432.89902367349714
leaf_count=4072 2971
internal_value=0
internal_weight=1004.01
internal_count=7043
is_linear=0
shrinkage=0.0676762


Tree=223
num_leaves=2
num_cat=0
split_feature=27
split_gain=5.28939
threshold=1.0000000180025095e-35
decision_type=2
left_child=-1
right_child=-2
leaf_value=-0.004111600901018914 0.0058643719843552971
leaf_weight=590.80627688392997 413.12982544116676
leaf_count=4311 2732
internal_value=0
internal_weight=1003.94
internal_count=7043
is_linear=0
shrinkage=0.0676762


Tree=224
num_leaves=2
num_cat=0
split_feature=23
split_gain=5.45548
threshold=1.0000000180025095e-35
decision_type=2
left_child=-1
right_child=-2
leaf_value=0.0027004038288443834 -0.0091941886993052134
leaf_weight=775.84645014628768 228.01605610642582
leaf_count=4999 2044
internal_value=0
internal_weight=1003.86
internal_count=7043
is_linear=0
shrinkage=0.0676762


Tree=225
num_leaves=2
num_cat=0
split_feature=3
split_gain=5.11357
threshold=-0.95714309325414615
decision_type=2
left_child=-1
right_child=-2
leaf_value=0.010568997199013341 -0.0022103305101644757
leaf_weight=172.72687068581581 830.56728650350124
leaf_count=869 6174
internal_value=0
internal_weight=1003.29
internal_count=7043
is_linear=0
shrinkage=0.0676762


Tree=226
num_leaves=2
num_cat=0
split_feature=14
split_gain=5.14609
threshold=1.0000000180025095e-35
decision_type=2
left_child=-1
right_child=-2
leaf_value=-0.0057953379138079393 0.0040494661071188397
leaf_weight=412.85556487552822 589.94030205532908
leaf_count=3947 3096
internal_value=0
internal_weight=1002.8
internal_count=7043
is_linear=0
shrinkage=0.0676762


Tree=227
num_leaves=2
num_cat=0
split_feature=2
split_gain=4.92831
threshold=1.1071990906917557
decision_type=2
left_child=-1
right_child=-2
leaf_value=-0.0021823739181885166 0.010328452619194364
leaf_weight=827.90618473198265 174.01541393622756
leaf_count=5960 1083
internal_value=0
internal_weight=1001.92
internal_count=7043
is_linear=0
shrinkage=0.0676762


Tree=228
num_leaves=2
num_cat=0
split_feature=3
split_gain=5.49255
threshold=0.43737076257459201
decision_type=2
left_child=-1
right_child=-2
leaf_value=0.0027482028655277527 -0.0091149313282243901
leaf_weight=769.83014043420553 232.16578798741102
leaf_count=5015 2028
internal_value=0
internal_weight=1002
internal_count=7043
is_linear=0
shrinkage=0.0676762


Tree=229
num_leaves=2
num_cat=0
split_feature=11
split_gain=4.98236
threshold=1.0000000180025095e-35
decision_type=2
left_child=-1
right_child=-2
leaf_value=0.014808011442057177 -0.0015412050171826348
leaf_weight=93.640643866732717 907.7221055328846
leaf_count=682 6361
internal_value=0
internal_weight=1001.36
internal_count=7043
is_linear=0
shrinkage=0.0676762


Tree=230
num_leaves=2
num_cat=0
split_feature=1
split_gain=4.90129
threshold=1.5526206948633439
decision_type=2
left_child=-1
right_child=-2
leaf_value=0.00069573824617076042 -0.031998486541182827
leaf_weight=980.67835331615061 20.873080908320844
leaf_count=6511 532
internal_value=0
internal_weight=1001.55
internal_count=7043
is_linear=0
shrinkage=0.0676762


Tree=231
num_leaves=2
num_cat=0
split_feature=13
split_gain=5.08712
threshold=1.0000000180025095e-35
decision_type=2
left_child=-1
right_child=-2
leaf_value=-0.0042063171451132064 0.0055280509489666384
leaf_weight=569.19358817115426 431.95307469461113
leaf_count=4072 2971
internal_value=0
internal_weight=1001.15
internal_count=7043
is_linear=0
shrinkage=0.0676762


Tree=232
num_leaves=2
num_cat=0
split_feature=1
split_gain=4.97188
threshold=-0.60555858229826465
decision_type=2
left_child=-1
right_child=-2
leaf_value=0.0046109922423271908 -0.0049271245091612624
leaf_weight=516.58394938893616 484.48202583286911
leaf_count=2637 4406
internal_value=0
internal_weight=1001.07
internal_count=7043
is_linear=0
shrinkage=0.0676762


Tree=233
num_leaves=2
num_cat=0
split_feature=2
split_gain=4.84357
threshold=1.0374036166847789
decision_type=2
left_child=-1
right_child=-2
leaf_value=-0.0023050314170449163 0.009627928933463193
leaf_weight=807.73502357210964 192.39742376282811
leaf_count=5857 1186
internal_value=0
internal_weight=1000.13
internal_count=7043
is_linear=0
shrinkage=0.0676762


Tree=234
num_leaves=2
num_cat=0
split_feature=11
split_gain=4.56867
threshold=1.0000000180025095e-35
decision_type=2
left_child=-1
right_child=-2
leaf_value=0.014163322611733892 -0.0014796114508506051
leaf_weight=93.826166984625161 906.35286568384618
leaf_count=682 6361
internal_value=0
internal_weight=1000.18
internal_count=7043
is_linear=0
shrinkage=0.0676762


Tree=235
num_leaves=2
num_cat=0
split_feature=17
split_gain=4.8055
threshold=1.0000000180025095e-35
decision_type=2
left_child=-1
right_child=-2
leaf_value=0.0024987257770811644 -0.0087844645349106961
leaf_weight=778.78272991161793 221.57335935439914
leaf_count=5024 2019
internal_value=0
internal_weight=1000.36
internal_count=7043
is_linear=0
shrinkage=0.0676762


Tree=236
num_leaves=2
num_cat=0
split_feature=1
split_gain=4.72243
threshold=-1.2570844018187501
decision_type=2
left_child=-1
right_child=-2
leaf_value=0.012135228158200359 -0.0017843802266779153
leaf_weight=127.41128895431757 872.36936084926128
leaf_count=624 6419
internal_value=0
internal_weight=999.781
internal_count=7043
is_linear=0
shrinkage=0.0676762


Tree=237
num_leaves=2
num_cat=0
split_feature=13
split_gain=4.77267
threshold=1.0000000180025095e-35
decision_type=2
left_child=-1
right_child=-2
leaf_value=-0.0040789812120144526 0.0053582972507202013
leaf_weight=567.77109034731984 431.39355826191604
leaf_count=4072 2971
internal_value=0
internal_weight=999.165
internal_count=7043
is_linear=0
shrinkage=0.0676762


Tree=238
num_leaves=2
num_cat=0
split_feature=10
split_gain=4.59841
threshold=1.0000000180025095e-35
decision_type=2
left_child=-1
right_child=-2
leaf_value=0.0024508239120368549 -0.008582426859549807
leaf_weight=777.16587473917753 221.91960604116321
leaf_count=4933 2110
internal_value=0
internal_weight=999.085
internal_count=7043
is_linear=0
shrinkage=0.0676762


Tree=239
num_leaves=2
num_cat=0
split_feature=3
split_gain=4.6522
threshold=0.43737076257459201
decision_type=2
left_child=-1
right_child=-2
leaf_value=0.0025262903439035806 -0.0084266829157447001
leaf_weight=768.30834307800978 230.37212328333408
leaf_count=5015 2028
internal_value=0
internal_weight=998.68
internal_count=7043
is_linear=0
shrinkage=0.0676762


Tree=240
num_leaves=2
num_cat=0
split_feature=25
split_gain=4.72899
threshold=1.0000000180025095e-35
decision_type=2
left_child=-1
right_child=-2
leaf_value=-0.0038760754600780079 0.0055937627374403106
leaf_weight=590.09981300216168 407.99584722239524
leaf_count=4336 2707
internal_value=0
internal_weight=998.096
internal_count=7043
is_linear=0
shrinkage=0.0676762


Tree=241
num_leaves=2
num_cat=0
split_feature=23
split_gain=4.42367
threshold=1.0000000180025095e-35
decision_type=2
left_child=-1
right_child=-2
leaf_value=0.002431130325260242 -0.0083311750609010495
leaf_weight=772.54137114435434 225.48316172230989
leaf_count=4999 2044
internal_value=0
internal_weight=998.025
internal_count=7043
is_linear=0
shrinkage=0.0676762


Tree=242
num_leaves=2
num_cat=0
split_feature=27
split_gain=4.51507
threshold=1.0000000180025095e-35
decision_type=2
left_child=-1
right_child=-2
leaf_value=-0.0038122358961609022 0.0054333391508120639
leaf_weight=586.75204577576369 410.7594567425549
leaf_count=4311 2732
internal_value=0
internal_weight=997.512
internal_count=7043
is_linear=0
shrinkage=0.0676762


Tree=243
num_leaves=2
num_cat=0
split_feature=3
split_gain=4.37977
threshold=0.43737076257459201
decision_type=2
left_child=-1
right_child=-2
leaf_value=0.0024502635046279929 -0.0081889517629191565
leaf_weight=767.67065283283591 229.76472430489957
leaf_count=5015 2028
internal_value=0
internal_weight=997.435
internal_count=7043
is_linear=0
shrinkage=0.0676762


Tree=244
num_leaves=2
num_cat=0
split_feature=14
split_gain=4.43323
threshold=1.0000000180025095e-35
decision_type=2
left_child=-1
right_child=-2
leaf_value=-0.005400300653839861 0.0037660013905670532
leaf_weight=409.91225978918374 586.95453890971839
leaf_count=3947 3096
internal_value=0
internal_weight=996.867
internal_count=7043
is_linear=0
shrinkage=0.0676762


Tree=245
num_leaves=2
num_cat=0
split_feature=1
split_gain=4.33599
threshold=-1.2163640380987197
decision_type=2
left_child=-1
right_child=-2
leaf_value=0.009573885295812665 -0.0020833005699438687
leaf_weight=177.2776758223772 818.77802872192115
leaf_count=862 6181
internal_value=0
internal_weight=996.056
internal_count=7043
is_linear=0
shrinkage=0.0676762


Tree=246
num_leaves=2
num_cat=0
split_feature=2
split_gain=4.31441
threshold=1.1071990906917557
decision_type=2
left_child=-1
right_child=-2
leaf_value=-0.0020495396661435916 0.0096878140765905875
leaf_weight=822.25827097333968 173.12789265997708
leaf_count=5960 1083
internal_value=0
internal_weight=995.386
internal_count=7043
is_linear=0
shrinkage=0.0676762


Tree=247
num_leaves=2
num_cat=0
split_feature=1
split_gain=4.30242
threshold=1.5526206948633439
decision_type=2
left_child=-1
right_child=-2
leaf_value=0.00064538003913786534 -0.030489641241508061
leaf_weight=975.27695648465306 20.172834265045822
leaf_count=6511 532
internal_value=0
internal_weight=995.45
internal_count=7043
is_linear=0
shrinkage=0.0676762


Tree=248
num_leaves=2
num_cat=0
split_feature=12
split_gain=4.30637
threshold=1.0000000180025095e-35
decision_type=2
left_child=-1
right_child=-2
leaf_value=-0.0014429345472983803 0.013760456281595059
leaf_weight=901.4159702337347 93.658395908772945
leaf_count=6361 682
internal_value=0
internal_weight=995.074
internal_count=7043
is_linear=0
shrinkage=0.0676762


Tree=249
num_leaves=2
num_cat=0
split_feature=30
split_gain=4.2336
threshold=1.0000000180025095e-35
decision_type=2
left_child=-1
right_child=-2
leaf_value=-0.0065311458866368606 0.0029773144852825837
leaf_weight=311.84388491371647 683.39985731057823
leaf_count=2872 4171
internal_value=0
internal_weight=995.244
internal_count=7043
is_linear=0
shrinkage=0.0676762


Tree=250
num_leaves=2
num_cat=0
split_feature=0
split_gain=4.06784
threshold=1.0000000180025095e-35
decision_type=2
left_child=-1
right_child=-2
leaf_value=-0.002238809503286678 0.0083669626052769574
leaf_weight=785.52892549755052 209.26263196766376
leaf_count=5901 1142
internal_value=0
internal_weight=994.792
internal_count=7043
is_linear=0
shrinkage=0.0676762


Tree=251
num_leaves=2
num_cat=0
split_feature=1
split_gain=4.1246
threshold=-0.89060112833847704
decision_type=2
left_child=-1
right_child=-2
leaf_value=0.0053524350879318172 -0.0035461363778401833
leaf_weight=395.76290922239423 598.69845817657188
leaf_count=1970 5073
internal_value=0
internal_weight=994.461
internal_count=7043
is_linear=0
shrinkage=0.0676762


Tree=252
num_leaves=2
num_cat=0
split_feature=13
split_gain=4.29554
threshold=1.0000000180025095e-35
decision_type=2
left_child=-1
right_child=-2
leaf_value=-0.00388162437180061 0.0050958985043785135
leaf_weight=564.49469855660573 429.16044894699007
leaf_count=4072 2971
internal_value=0
internal_weight=993.655
internal_count=7043
is_linear=0
shrinkage=0.0676762


Tree=253
num_leaves=2
num_cat=0
split_feature=3
split_gain=4.06681
threshold=0.43737076257459201
decision_type=2
left_child=-1
right_child=-2
leaf_value=0.002364907903463899 -0.0079097806567000987
leaf_weight=764.87653370480984 228.69880842976272
leaf_count=5015 2028
internal_value=0
internal_weight=993.575
internal_count=7043
is_linear=0
shrinkage=0.0676762


Tree=254
num_leaves=2
num_cat=0
split_feature=2
split_gain=4.0362
threshold=1.1071990906917557
decision_type=2
left_child=-1
right_child=-2
leaf_value=-0.0019852299892742131 0.0093795603799064139
leaf_weight=820.26162391202524 172.76654681190848
leaf_count=5960 1083
internal_value=0
internal_weight=993.028
internal_count=7043
is_linear=0
shrinkage=0.0676762


Tree=255
num_leaves=2
num_cat=0
split_feature=1
split_gain=3.93783
threshold=1.5933410585833743
decision_type=2
left_child=-1
right_child=-2
leaf_value=0.00049731351926662665 -0.036242923310578781
leaf_weight=980.12785038212314 12.958488438278435
leaf_count=6681 362
internal_value=0
internal_weight=993.086
internal_count=7043
is_linear=0
shrinkage=0.0676762


Tree=256
num_leaves=2
num_cat=0
split_feature=16
split_gain=3.94219
threshold=1.0000000180025095e-35
decision_type=2
left_child=-1
right_child=-2
leaf_value=0.0014663587780963103 -0.012351179333647419
leaf_weight=887.54224842600524 105.251141237095
leaf_count=5517 1526
internal_value=0
internal_weight=992.793
internal_count=7043
is_linear=0
shrinkage=0.0676762


Tree=257
num_leaves=2
num_cat=0
split_feature=1
split_gain=3.99125
threshold=-1.2570844018187501
decision_type=2
left_child=-1
right_child=-2
leaf_value=0.011197915703441332 -0.001647905211906265
leaf_weight=126.43266785889864 865.79609941784292
leaf_count=624 6419
internal_value=0
internal_weight=992.229
internal_count=7043
is_linear=0
shrinkage=0.0676762


Tree=258
num_leaves=2
num_cat=0
split_feature=11
split_gain=3.81947
threshold=1.0000000180025095e-35
decision_type=2
left_child=-1
right_child=-2
leaf_value=0.012946954829644404 -0.0013650320012580631
leaf_weight=93.78682716935873 897.87822016282007
leaf_count=682 6361
internal_value=0
internal_weight=991.665
internal_count=7043
is_linear=0
shrinkage=0.0676762


Tree=259
num_leaves=2
num_cat=0
split_feature=2
split_gain=3.96286
threshold=0.29291856061035515
decision_type=2
left_child=-1
right_child=-2
leaf_value=-0.0048454710962260502 0.0037713244328002045
