tree
version=v4
num_class=1
num_tree_per_iteration=1
label_index=0
max_feature_idx=37
objective=binary sigmoid:1
feature_names=Column_0 Column_1 Column_2 Column_3 Column_4 Column_5 Column_6 Column_7 Column_8 Column_9 Column_10 Column_11 Column_12 Column_13 Column_14 Column_15 Column_16 Column_17 Column_18 Column_19 Column_20 Column_21 Column_22 Column_23 Column_24 Column_25 Column_26 Column_27 Column_28 Column_29 Column_30 Column_31 Column_32 Column_33 Column_34 Column_35 Column_36 Column_37
feature_infos=[-0.43991649313097614:2.2731586917389581] [-1.318164947398796:1.6137012404433893] [-1.5458598200734601:1.7943521502604476] [-0.99985031465298879:2.8264694645392616] [0:1] [0:1] [0:1] [0:1] [0:1] [0:1] [0:1] [0:1] [0:1] [0:1] [0:1] [0:1] [0:1] [0:1] [0:1] [0:1] [0:1] [0:1] [0:1] [0:1] [0:1] [0:1] [0:1] [0:1] [0:1] [0:1] [0:1] [0:1] [0:1] [0:1] [0:1] [0:1] [0:1] [0:1]
tree_sizes=3413 3487 3450 3481 3464 3493 3468 3476 3452 3463 3523 3499 3450 3441 3489 3489 3474 3514 3454 3483 3482 3472 3471 3452 3492 3468 3489 3465 3454 3491 3498 3453 3461 3463 3473 3479 3480 3494 3479 3476 3458 3472 3477 3451 3468 3457 3485 3471 3463 3456 3482 3470 3466 3477 3432 3420 3484 3462 3463 3465 3424 3455 3468 3434 3428 3481 3475 3462 3455 3478 3471 3443 3475 3532 3467 3471 3475 3435 3465 3430 3454 3454 3456 3415 3441 3473 3465 3457 3449 3409 3472 3456 3489 3467 3420 3494 3461 3477 3422 3469 3437 3447 3428 3448 3455 3446 3458 3456 3473 3477 3472 3466 3440 3461 3425 3459 3440 3456 3466 3482 3458 3457 3411 3429 3435 3454 3443 3425 3444 3473 3468 3450 3468 3455 3421 3448 3488 3458 3439 3433 3473 3451 3458 3455 3454 3446 3442 3487 3428 3454 3441 3462 3462 3461 3441 3433 3446 3468 3427 3445 3457 3420 3444 3506 3418 3436 3433 3456 3465 3465 3482 3444 3440 3466 3487 3443 3458 3442 3437 3437 3497 3459 3430 3444 3455 3444 3463 3447 3469 3455 3457 3454 3455 3436 3436 3431 3459 3444 3470 3455 3435 3439 3494 3455 3464 3430 3459 3468 3456 3438 3421 3456 3413 3460 3452 3470 3417 3470 3429 3455 3502 3431 3472 3435 3450 3459 3465 3451 3458 3471 3475 3450 3471 3452 3459 3453 3432 3456 3509 3459 3462 3457 3457 3431 3455 3456 3457 3445 3456 3450 3452 3477 3477 3435 3436 3444 3467 3429 3472 3451 3473 3478 3444 3462 3475 3503 3441 3461 3477 3444 3454 3463 3439 3452 3451 3451 3481 3471 3463 3494 3447 3476 3471 3454 3500 3462 3439 3465 3475 3480 3482 3452 3468 3460 3449 3456 3458 3467 3469 3454 3450 3459 3475 3468 3457 3454 3468 3448 3472 3503 3434 3467 3487 3534 3471 3444 3501 3493 3500 3468 3449 3448 3470 3458 3500 3472 3429 3433 3452 3484 3482 3489 3449 3464 3502 3440 3476 3466 3480 3451 3482 3470 3427 3439 3467 3468 3464 3438 3476 3463 3454 3460 3441 3445 3485 3457 3432 3435 3462 3449 3438 3461 3467 3452 3486 3468 3488 3471 3474 3457 3469 3464 3438 3504 3472 3461 3483 3461 3518 3466 3478 3442 3461 3471 3476 3441 3458 3459 3461 3434 3462 3470 3452 3448 3463 3462 3490 3467 3494 3470

Tree=0
num_leaves=31
num_cat=0
split_feature=37 14 3 3 15 3 2 32 2 3 29 3 11 3 0 27 3 30 2 25 29 13 27 13 3 2 27 2 2 3
split_gain=1155.82 342.611 207.052 89.2464 83.7918 48.2648 37.9194 35.4527 30.2857 25.7229 20.0686 19.9221 18.6524 12.4176 12.3853 11.2439 15.0049 10.6001 10.7113 10.5868 10.2952 9.80218 9.19413 9.12851 8.991 8.73296 8.64135 8.26683 10.1565 8.23452
threshold=1.0000000180025095e-35 1.0000000180025095e-35 -0.42848531231468601 -0.90871802727411954 1.0000000180025095e-35 -0.95714309325414615 0.95265196967630639 1.0000000180025095e-35 0.52557014063361251 -0.99707969884241499 1.0000000180025095e-35 0.35671383138789181 1.0000000180025095e-35 -0.84625223097118585 1.0000000180025095e-35 1.0000000180025095e-35 -0.17299258900178552 1.0000000180025095e-35 -0.27375421644629278 1.0000000180025095e-35 1.0000000180025095e-35 1.0000000180025095e-35 1.0000000180025095e-35 1.0000000180025095e-35 -0.85159477301229203 1.027432834683782 1.0000000180025095e-35 0.34111067361517283 0.50230498263128687 1.1569913065535917
decision_type=2 2 2 2 2 2 2 2 2 2 2 2 2 2 2 2 2 2 2 2 2 2 2 2 2 2 2 2 2 2
left_child=6 3 5 4 14 -3 20 15 13 -6 -8 21 24 27 17 -4 -17 -2 26 -18 22 -9 -1 -10 -5 29 -19 -7 -29 -13
right_child=1 2 7 12 9 8 10 11 23 -11 -12 25 -14 -15 -16 16 19 18 -20 -21 -22 -23 -24 -25 -26 -27 -28 28 -30 -31
leaf_value=-1.0743439132201085 -0.98007063969394914 -0.86475092138698018 -1.0205948466117662 -0.94890523649826519 -0.99094691373673272 -0.94470694051704951 -1.0298027345773519 -0.96912022905985551 -0.92101837349576587 -1.0517781673946272 -1.0660557731607048 -0.99047717432624705 -1.0460860500126827 -0.96400213921859634 -0.90107010653047448 -0.91256104372246261 -1.0350084704402887 -0.94254580263210408 -1.0163555454857303 -0.98029322390691775 -1.0827932924484012 -0.92789130581153856 -1.0508979991052827 -0.88706595835435009 -1.0173995524794557 -0.96722507350720632 -0.87086273084017596 -0.86573317647767234 -0.95806515500273581 -1.0597718363282367
leaf_weight=150.50039875507355 32.946330815553665 45.81294521689415 47.177586138248444 5.4585636854171744 30.411997675895691 18.715075492858887 78.759276032447815 22.614049553871155 35.090766549110413 40.549330234527588 74.080507159233093 17.740331977605823 141.72770711779594 42.108919858932495 10.527229964733122 6.0434097945690146 12.671665698289869 30.606946378946304 4.288871467113494 29.24230545759201 256.35754451155663 39.769535422325134 57.899764806032181 45.423047810792923 39.184689313173294 32.751382112503052 4.8737175762653342 9.7474351525306684 4.288871467113494 5.6535123884677878
leaf_count=772 169 235 242 28 156 96 404 116 180 208 380 91 727 216 54 31 65 157 22 150 1315 204 297 233 201 168 25 50 22 29
internal_value=-1.01824 -0.976763 -0.946254 -1.01393 -0.985788 -0.909851 -1.06898 -0.98053 -0.923149 -1.02571 -1.04737 -0.962284 -1.03721 -0.946043 -0.951758 -1.00326 -0.986215 -0.959097 -0.941721 -0.996835 -1.07608 -0.942837 -1.06783 -0.901864 -1.00902 -0.983891 -0.932699 -0.922952 -0.893946 -1.00722
internal_weight=1373.02 755.426 414.851 340.575 154.204 201.187 617.597 213.664 155.374 70.9613 152.84 118.529 186.371 74.8603 83.2431 95.135 47.9574 72.7159 39.7695 41.914 464.758 62.3836 208.4 80.5138 44.6433 56.1452 35.4807 32.7514 14.0363 23.3938
internal_count=7043 3875 2128 1747 791 1032 3168 1096 797 364 784 608 956 384 427 488 246 373 204 215 2384 320 1069 413 229 288 182 168 72 120
is_linear=0
shrinkage=1


Tree=1
num_leaves=31
num_cat=0
split_feature=1 14 14 1 1 15 1 32 29 29 3 13 15 2 28 2 28 11 32 0 13 19 32 30 30 23 28 3 10 27
split_gain=672.758 405.792 254.358 116.48 86.0366 57.2128 39.8132 39.6153 26.0682 22.027 21.4776 20.037 19.1032 17.8595 15.595 15.4247 14.1495 13.317 13.1785 12.4887 11.1373 11.096 15.3408 10.7133 10.1694 9.80119 8.95052 8.09188 7.57358 7.53041
threshold=-0.64627894601829505 1.0000000180025095e-35 1.0000000180025095e-35 0.73821342046273686 -1.0942029469386287 1.0000000180025095e-35 -1.2570844018187501 1.0000000180025095e-35 1.0000000180025095e-35 1.0000000180025095e-35 -0.9913397776412266 1.0000000180025095e-35 1.0000000180025095e-35 -0.32028453245094418 1.0000000180025095e-35 0.46740724562779806 1.0000000180025095e-35 1.0000000180025095e-35 1.0000000180025095e-35 1.0000000180025095e-35 1.0000000180025095e-35 1.0000000180025095e-35 1.0000000180025095e-35 1.0000000180025095e-35 1.0000000180025095e-35 1.0000000180025095e-35 1.0000000180025095e-35 0.12844158054062724 1.0000000180025095e-35 1.0000000180025095e-35
decision_type=2 2 2 2 2 2 2 2 2 2 2 2 2 2 2 2 2 2 2 2 2 2 2 2 2 2 2 2 2 2
left_child=1 4 9 7 5 13 -3 14 18 17 -7 15 21 24 19 -8 20 26 29 25 27 22 -6 -22 -1 -4 -2 28 -9 -5
right_child=2 6 3 8 12 10 11 16 -10 -11 -12 -13 -14 -15 -16 -17 -18 -19 -20 -21 23 -23 -24 -25 -26 -27 -28 -29 -30 -31
leaf_value=0.046482197741106991 -0.0019670752207761703 0.13607003294964501 0.019256534638147922 -0.051954182790516848 -0.015212039369235961 0.018775784957992425 0.043131479891363851 0.03199904639621378 -0.049400328445619604 -0.063081805953864617 -0.040669452978731958 0.10283412104168839 -0.047340025291006366 0.01240259317308059 -0.02967291499922696 0.085362647000051209 0.001783007789565334 -0.047537008425950933 0.0093666672818667699 0.052329379299525136 0.018886282323861768 -0.036269286678242661 0.04182802290488203 0.075948924680288202 0.083302315687463963 -0.024766238594090197 -0.042523318994093985 -0.0052720030006308503 0.10585426571279853 -0.014324213767849266
leaf_weight=34.654289647936821 31.009104833006859 49.003550559282303 39.980565369129181 19.092894747853279 33.359819814562798 36.144996821880341 35.571122586727142 14.359561979770666 73.096848338842392 220.7302317917347 26.215016677975655 82.664375856518745 52.668494790792465 19.201546490192413 23.706195488572121 55.135498702526093 13.684392765164374 197.04342517256737 46.451471850275993 18.645170390605927 9.6388800889253599 23.898639112710953 18.228742599487305 56.094251677393913 40.868094965815544 18.49095906317234 24.237646788358688 10.26652932167053 4.577800825238227 43.782262891530991
leaf_count=174 159 235 204 99 173 184 177 72 384 1168 137 404 276 98 123 272 71 1031 238 95 48 124 94 279 202 95 127 52 23 225
internal_value=-4.85115e-05 0.0456452 -0.0268667 0.00292411 0.00617288 0.0309762 0.0962762 0.028365 -0.0262851 -0.0515466 -0.00621391 0.0850284 -0.0242292 0.0554597 0.00579426 0.0688015 0.0493152 -0.0414543 -0.01083 0.0166971 0.0561666 -0.00810449 0.00494298 0.0675815 0.066407 0.00533483 -0.0197598 0.0304736 0.0498523 -0.0257511
internal_weight=1372.5 507.614 864.888 391.868 285.24 157.084 222.375 209.444 182.423 473.02 62.36 173.371 128.156 94.7239 100.823 90.7066 108.621 252.29 109.327 77.1167 94.937 75.4872 51.5886 65.7331 75.5224 58.4715 55.2468 29.2039 18.9374 62.8752
internal_count=7043 2550 4493 2008 1462 795 1088 1062 946 2485 321 853 667 474 517 449 545 1317 562 394 474 391 267 327 376 299 286 147 95 324
is_linear=0
shrinkage=0.05


Tree=2
num_leaves=31
num_cat=0
split_feature=37 14 1 1 15 2 1 32 1 11 29 3 2 17 2 1 2 29 1 30 2 30 23 2 3 1 23 11 2 2
split_gain=960.425 250.668 150.471 97.0102 38.4966 35.6172 27.94 27.8775 18.2447 18.163 17.8401 16.1763 14.5565 15.9479 15.9933 12.8207 11.7777 9.82019 8.6956 8.43843 8.10873 7.97444 10.2485 10.2993 7.40246 10.5483 7.39579 6.83128 6.60289 6.25441
threshold=1.0000000180025095e-35 1.0000000180025095e-35 -0.68699930973832535 -1.0942029469386287 1.0000000180025095e-35 0.95265196967630639 -1.2570844018187501 1.0000000180025095e-35 0.94181523906288855 1.0000000180025095e-35 1.0000000180025095e-35 -0.99707969884241499 0.31286012461234891 1.0000000180025095e-35 0.98090251867913025 0.77893378418276715 -0.32028453245094418 1.0000000180025095e-35 -0.60555858229826465 1.0000000180025095e-35 1.2301720687040489 1.0000000180025095e-35 1.0000000180025095e-35 1.0207856466831176 0.43737076257459201 0.53461160186258516 1.0000000180025095e-35 1.0000000180025095e-35 -0.80386745949928595 1.1420968276952446
decision_type=2 2 2 2 2 2 2 2 2 2 2 2 2 2 2 2 2 2 2 2 2 2 2 2 2 2 2 2 2 2
left_child=5 3 6 4 16 17 -3 15 21 -5 29 -6 -8 -14 -15 20 19 28 -11 -2 26 -9 23 24 -23 -26 -4 -21 -1 -7
right_child=1 2 7 9 11 10 12 8 -10 18 -12 -13 13 14 -16 -17 -18 -19 -20 27 -22 22 -24 -25 25 -27 -28 -29 -30 -31
leaf_value=-0.058610639999075925 0.04385097217365868 0.12260523396567458 0.022690895438712572 0.0076032872668217472 0.024443512981717857 -0.034075958046052783 0.045705843211712949 0.025376471818599419 -0.0022656601212895774 -0.016401840669830248 -0.045289945920539879 -0.030596182536204219 0.093337402221628479 0.014299877516114204 0.11278836986862309 -0.023390562982453574 0.016599981794223298 -0.062208338075125075 -0.040938368408100959 0.10354163614948782 0.063811629591369295 0.06695193430512951 0.026175792679247023 0.096530108759311534 -0.021926297541662969 0.079109013218323254 -0.021053522891580148 0.061735356648384469 -0.039950748367788773 -0.0020729363300524438
leaf_weight=77.597679853439331 35.178342938423157 51.5929014980793 55.681904286146164 46.797601461410522 31.063698649406433 20.832471832633018 25.439231440424919 18.415120258927345 15.815925747156141 74.882568165659904 70.816334590315819 23.409888088703156 123.99925376474857 13.419378995895388 5.9494839310646048 20.288663327693939 17.591705247759819 241.04061333835125 69.735923737287521 15.405576720833777 9.7840608060359937 36.667788222432137 16.595807135105133 23.938473775982857 6.2806420773267728 4.3882587254047394 11.690963655710219 26.718421131372452 121.85749736428261 57.142171159386635
leaf_count=418 173 235 280 239 156 108 124 91 80 394 380 124 585 64 28 105 89 1315 371 73 49 177 81 116 31 22 60 128 651 296
internal_value=-8.65076e-05 0.0362841 0.061219 0.0040935 0.034293 -0.0482731 0.0904036 0.0319211 0.0478378 -0.0194721 -0.0271227 0.000790341 0.0805618 0.0867466 0.0445523 0.011977 0.0535251 -0.0554173 -0.0282335 0.0619282 0.0212771 0.0552934 0.0615631 0.0698028 0.0562866 0.0196308 0.0151001 0.0770247 -0.0472103 -0.0106232
internal_weight=1370.02 780.732 439.948 340.784 149.368 589.287 220.4 219.548 122.102 191.416 148.791 54.4736 168.807 143.368 19.3689 97.4456 94.894 440.496 144.618 77.3023 77.1569 106.286 87.871 71.2752 47.3367 10.6689 67.3729 42.124 199.455 77.9746
internal_count=7043 3875 2128 1747 743 3168 1036 1092 598 1004 784 280 801 677 92 494 463 2384 765 374 389 518 427 346 230 53 340 201 1069 404
is_linear=0
shrinkage=0.05


Tree=3
num_leaves=31
num_cat=0
split_feature=1 14 14 1 1 15 28 1 32 29 3 29 15 11 2 3 0 3 30 23 32 2 29 32 8 30 23 17 1 2
split_gain=544.521 308.122 211.46 90.324 74.6563 43.5509 34.1894 27.7183 23.6825 20.4339 18.1942 17.9813 17.9617 13.4105 13.3052 13.2781 11.0193 9.51131 9.40257 9.27692 9.20261 10.1996 8.93611 8.86005 7.78214 7.44793 8.72292 7.82834 7.43607 7.16804
threshold=-0.60555858229826465 1.0000000180025095e-35 1.0000000180025095e-35 0.90109487534285826 -1.0942029469386287 1.0000000180025095e-35 1.0000000180025095e-35 -1.2570844018187501 1.0000000180025095e-35 1.0000000180025095e-35 -0.9913397776412266 1.0000000180025095e-35 1.0000000180025095e-35 1.0000000180025095e-35 0.52557014063361251 -0.9204407124965468 1.0000000180025095e-35 -0.84625223097118585 1.0000000180025095e-35 1.0000000180025095e-35 1.0000000180025095e-35 -0.16407561443532862 1.0000000180025095e-35 1.0000000180025095e-35 1.0000000180025095e-35 1.0000000180025095e-35 1.0000000180025095e-35 1.0000000180025095e-35 -0.72771967345835564 1.0207856466831176
decision_type=2 2 2 2 2 2 2 2 2 2 2 2 2 2 2 2 2 2 2 2 2 2 2 2 2 2 2 2 2 2
left_child=1 4 9 6 5 15 8 -3 22 13 -7 23 20 19 17 16 18 -9 -1 -2 -6 24 -4 -5 -22 -10 29 -28 -16 -27
right_child=2 7 3 11 12 10 -8 14 25 -11 -12 -13 -14 -15 28 -17 -18 -19 -20 -21 21 -23 -24 -25 -26 26 27 -29 -30 -31
leaf_value=0.028397607091768681 -0.0015974441317115505 0.1118486532306024 0.016497074172877046 -0.027242907544737238 -0.020619215175201835 0.016839881553541027 -0.016549126442894534 0.075197957319187297 0.016890621292697677 -0.060816160487852947 -0.038326908792980632 -0.047712970518699688 -0.04553126140227072 -0.045693998225838361 0.088287487242307172 0.0067644917531283003 0.10311871542598786 0.040931312876231099 0.064872948276333234 -0.045373144010606062 0.0089542352710517362 -0.034270437109719477 -0.040042450061591184 0.0050639165082361996 0.072778437143051655 0.049647331314097112 0.041442227875614773 -0.035379620666009567 0.053397907178626927 0.084159401342281878
leaf_weight=31.407589197158813 34.194766402244568 53.668769970536232 74.87037318944931 48.84496146440506 51.850210592150688 36.686832219362259 47.538176089525223 36.118390470743179 16.695867836475372 206.17297311127186 25.220019221305847 67.070088773965836 54.088406756520271 181.52257642149925 92.562538012862206 16.419270738959312 10.785564988851545 46.094422087073326 40.387683689594269 18.732614904642105 12.309139907360082 7.6009092181920996 7.7079786360263816 37.526477187871933 7.8040862828493109 42.46985986828804 13.390181392431261 4.4078344106674185 18.289415016770363 23.299041256308556
leaf_count=153 179 235 376 257 275 184 251 168 82 1164 137 370 296 995 421 82 50 218 189 100 63 40 42 192 40 202 65 22 86 109
internal_value=-0.000118494 0.038845 -0.0257002 0.00143125 0.00431934 0.0272606 0.0212263 0.0800631 0.0310478 -0.0493341 -0.00563433 -0.0282893 -0.0233001 -0.0392368 0.0712272 0.0478306 0.0559956 0.0559856 0.0489164 -0.017091 -0.0081872 0.0150718 0.0112196 -0.0132063 0.0337185 0.0473787 0.05347 0.0224166 0.0825311 0.0618734
internal_weight=1365.74 541.293 824.444 383.821 294.56 160.907 230.379 246.734 182.841 440.623 61.9069 153.442 133.653 234.45 193.065 99.0001 82.5808 82.2128 71.7953 52.9274 79.5643 27.7141 82.5784 86.3714 20.1132 100.263 83.5669 17.798 110.852 65.7689
internal_count=7043 2637 4406 1968 1509 795 1149 1128 898 2438 321 819 714 1274 893 474 392 386 342 279 418 143 418 449 103 480 398 87 507 311
is_linear=0
shrinkage=0.05


Tree=4
num_leaves=31
num_cat=0
split_feature=1 14 14 1 1 15 28 1 29 29 29 15 3 13 11 2 19 2 0 2 3 23 2 3 1 0 2 2 1 1
split_gain=490.763 266.762 198.552 81.8861 67.274 38.2461 30.4081 23.7271 20.14 17.7691 17.0496 16.8936 16.6691 16.0103 12.7974 12.1146 11.9294 11.2812 9.43581 10.2252 10.0254 8.65931 8.45018 8.07915 7.51418 7.11384 7.03633 6.97769 6.68197 8.76769
threshold=-0.60555858229826465 1.0000000180025095e-35 1.0000000180025095e-35 0.90109487534285826 -1.0942029469386287 1.0000000180025095e-35 1.0000000180025095e-35 -1.2570844018187501 1.0000000180025095e-35 1.0000000180025095e-35 1.0000000180025095e-35 1.0000000180025095e-35 -0.9913397776412266 1.0000000180025095e-35 1.0000000180025095e-35 -0.32028453245094418 1.0000000180025095e-35 0.52557014063361251 1.0000000180025095e-35 1.0639923686874366 0.35671383138789181 1.0000000180025095e-35 1.0506979926861078 -0.84625223097118585 0.37173014698246371 1.0000000180025095e-35 -0.60694451497960034 1.1420968276952446 -0.40195676369811301 -0.4426771274181433
decision_type=2 2 2 2 2 2 2 2 2 2 2 2 2 2 2 2 2 2 2 2 2 2 2 2 2 2 2 2 2 2
left_child=1 4 8 6 5 15 9 -3 14 13 22 16 -7 -4 21 25 -6 23 19 20 -15 -2 -5 -9 -22 -1 -16 -8 29 -28
right_child=2 7 3 10 11 12 27 17 -10 -11 -12 -13 -14 18 26 -17 -18 -19 -20 -21 24 -23 -24 -25 -26 -27 28 -29 -30 -31
leaf_value=0.047226413801401218 -0.001518777401478359 0.10303030643018352 0.010031293664921774 -0.033831544765184275 0.0053320366135735167 0.015875115868203761 -0.034088087061749171 0.06950232175312139 -0.05979432702205132 -0.03326546302336679 -0.046525211130913874 -0.044331827243189854 -0.037163225033122776 0.035837625858997517 -0.057809918146630938 0.0094004869305105848 -0.036441228915958489 0.076231538875889834 0.061701992942131856 0.056220305327479084 -0.05416474910270818 -0.044135047965666425 -0.001019482867994158 0.038264134436288677 0.013233567512888691 0.090204533411787469 -0.029321682168089502 0.0044361005032279828 -0.041814732904534552 0.056059083113963563
leaf_weight=69.95152972638607 34.16831374168396 55.303579643368721 52.951291397213936 30.372748389840126 54.271890312433243 36.963220357894897 24.83383996784687 37.097564622759819 199.38395337760448 10.749527543783186 65.386348247528076 52.807082146406174 24.722065329551697 31.250880762934685 63.61942832171917 19.667235344648361 24.946760922670364 113.92573772370815 43.296472579240799 28.868909507989883 6.4656319618225124 18.30614760518074 55.433988556265831 46.822470128536224 11.4748428016901 11.165071770548819 11.119911313056944 22.316487520933151 98.33483549952507 4.1211564391851416
leaf_count=326 179 235 259 162 284 184 134 168 1164 59 370 296 137 150 360 98 134 507 204 137 32 100 287 218 57 50 62 117 550 23
internal_value=-0.000143422 0.0364389 -0.0248021 0.00134573 0.00408455 0.0256272 0.0199913 0.0740775 -0.0481678 0.0291243 -0.0272908 -0.0224255 -0.00538145 0.0329719 -0.0380744 0.0446062 -0.00782279 0.0659843 0.0429815 0.0325981 0.018735 -0.0163858 -0.0126339 0.0520732 -0.0110564 0.053142 -0.0444973 -0.0158544 -0.0370402 -0.00623488
internal_weight=1360.1 547.644 812.455 383.401 294.495 162.469 232.208 253.149 429.054 185.058 151.193 132.026 61.6853 174.308 229.67 100.784 79.2187 197.846 121.357 78.0603 49.1914 52.4745 85.8067 83.92 17.9405 81.1166 177.195 47.1503 113.576 15.2411
internal_count=7043 2637 4406 1968 1509 795 1149 1128 2438 898 819 714 321 839 1274 474 418 893 580 376 239 279 449 386 89 376 995 251 635 85
is_linear=0
shrinkage=0.05


Tree=5
num_leaves=31
num_cat=0
split_feature=37 14 1 1 14 16 32 1 11 1 1 3 30 1 27 27 3 28 32 8 27 17 1 28 27 32 30 6 1 30
split_gain=740.988 162.851 94.7951 68.5508 32.0962 25.2809 20.5495 17.1696 15.1404 14.7767 12.3515 12.3055 10.395 9.39911 9.22969 8.68026 8.62413 8.4039 8.11768 8.09665 7.92894 7.8222 7.65673 7.01033 7.74786 6.58529 6.29496 6.06576 5.98073 5.92322
threshold=1.0000000180025095e-35 1.0000000180025095e-35 -0.68699930973832535 -1.0942029469386287 1.0000000180025095e-35 1.0000000180025095e-35 1.0000000180025095e-35 -1.2570844018187501 1.0000000180025095e-35 1.5526206948633439 0.94181523906288855 -0.99707969884241499 1.0000000180025095e-35 0.77893378418276715 1.0000000180025095e-35 1.0000000180025095e-35 -0.9204407124965468 1.0000000180025095e-35 1.0000000180025095e-35 1.0000000180025095e-35 1.0000000180025095e-35 1.0000000180025095e-35 -0.40195676369811301 1.0000000180025095e-35 1.0000000180025095e-35 1.0000000180025095e-35 1.0000000180025095e-35 1.0000000180025095e-35 1.3082985125431619 1.0000000180025095e-35
decision_type=2 2 2 2 2 2 2 2 2 2 2 2 2 2 2 2 2 2 2 2 2 2 2 2 2 2 2 2 2 2
left_child=4 3 7 5 23 16 13 -3 -5 15 -8 29 19 14 -4 18 26 -17 -6 27 21 -14 25 -1 -25 -10 -2 -9 -15 -7
right_child=1 2 6 8 9 11 10 12 22 -11 -12 -13 20 28 -16 17 -18 -19 -20 -21 -22 -23 -24 24 -26 -27 -28 -29 -30 -31
leaf_value=-0.059297382126471003 0.034282224060104408 0.095648126282140006 0.0015637218648040592 0.0080792000218245161 -0.058378241127939282 0.0062062631494520177 0.045535125504924542 0.091721524110603983 -0.024689035283432512 -0.054425023057621306 -0.0017663952845332093 -0.027395891290348195 0.065662671113995305 -0.038751805766681628 0.035768771680722442 -0.033336953703866301 0.0087042963611733172 -0.003046294875116721 -0.00094443904693057275 0.018357583310115208 0.08392727035108187 0.016904880444593238 -0.041273874274076312 -0.052326791418912312 -0.028097655317982945 0.0054895279766250769 0.061674324672553051 0.035489599332212483 0.022189331807835319 0.052407378109003248
leaf_weight=210.35354222357273 37.416672095656395 56.558411940932274 43.497538477182388 46.581414043903351 22.658348739147186 21.644498646259308 112.14611811935902 9.7753111720085144 65.941658899188042 39.143608048558235 15.737749367952345 22.328360736370087 72.829590618610382 14.166029468178751 36.080910488963127 33.645463734865189 15.159158959984778 71.686296984553337 8.4454267024993914 19.450409084558487 61.244918823242188 9.2732375711202604 47.00870418548584 116.6853758841753 46.00300832092762 24.903424680233002 47.728264570236206 9.4146039187908173 5.6244769096374503 10.209669172763826
leaf_count=1266 175 235 215 239 128 106 518 43 364 224 80 124 323 75 174 193 74 377 46 86 265 42 268 675 259 133 214 42 30 50
internal_value=-0.000164306 0.0303839 0.0495702 0.00401495 -0.0449726 0.0285848 0.0264605 0.0715859 -0.0165653 -0.0273446 0.0397141 0.0010647 0.0641078 0.00940366 0.0170723 -0.0195751 0.0434507 -0.0127219 -0.0427836 0.0410915 0.070312 0.0601556 -0.0248927 -0.0532695 -0.0454756 -0.0164162 0.049637 0.064134 -0.0214323 0.0210143
internal_weight=1353.34 804.721 465.799 338.922 548.621 154.487 227.253 238.546 184.435 175.579 127.884 54.1825 181.988 99.369 79.5784 136.436 100.304 105.332 31.1038 38.6403 143.348 82.1028 137.854 373.042 162.688 90.8451 85.1449 19.1899 19.7905 31.8542
internal_count=7043 3875 2128 1747 3168 743 1092 1036 1004 968 598 280 801 494 389 744 463 570 174 171 630 365 765 2200 934 497 389 85 105 156
is_linear=0
shrinkage=0.05


Tree=6
num_leaves=31
num_cat=0
split_feature=37 14 1 1 2 15 32 1 12 1 13 3 3 2 0 29 27 3 1 23 2 2 1 13 10 0 32 1 2 29
split_gain=677.463 143.368 83.3627 61.6006 32.2443 22.2414 18.2457 15.3349 13.9218 13.4971 13.7461 11.4357 11.1501 9.55678 9.5274 9.24445 8.9171 7.92806 7.2469 6.98227 6.90202 6.87404 6.8123 6.61983 7.31001 6.06527 6.05903 5.42434 6.46378 5.41752
threshold=1.0000000180025095e-35 1.0000000180025095e-35 -0.76844003717838605 -1.0942029469386287 0.95265196967630639 1.0000000180025095e-35 1.0000000180025095e-35 1.5526206948633439 1.0000000180025095e-35 -1.2570844018187501 1.0000000180025095e-35 0.35671383138789181 -0.99707969884241499 0.37767020761882758 1.0000000180025095e-35 1.0000000180025095e-35 1.0000000180025095e-35 -0.96396476883555859 -0.40195676369811301 1.0000000180025095e-35 -0.30366656244928292 0.64854311864590564 0.77893378418276715 1.0000000180025095e-35 1.0000000180025095e-35 1.0000000180025095e-35 1.0000000180025095e-35 -1.0127622194985679 0.48734880962979182 1.0000000180025095e-35
decision_type=2 2 2 2 2 2 2 2 2 2 2 2 2 2 2 2 2 2 2 2 2 2 2 2 2 2 2 2 2 2
left_child=4 3 9 5 15 17 14 29 18 -3 13 23 -7 -11 19 16 -1 25 26 -4 -19 27 -16 24 -8 -2 -5 28 -12 -6
right_child=1 2 6 8 7 12 11 -9 -10 10 21 -13 -14 -15 22 -17 -18 20 -20 -21 -22 -23 -24 -25 -26 -27 -28 -29 -30 -31
leaf_value=-0.049966378634640048 0.045427091593567059 0.089360065386290904 0.010086603066476163 -0.023770608642899718 -0.0060070600590062346 0.019778195183447908 0.019858334812453072 -0.052316584002259907 0.0076455999982211927 0.02618595302405697 0.091842059387144792 0.021858466625684005 -0.026418822417356515 0.060270410054797698 0.047929443083931988 -0.058335787068954564 -0.025514241726742683 0.037095301572499247 -0.040139928372200512 -0.024809565784991942 -0.00818995383608365 0.088613960810117284 -0.0069346608798361593 0.061677467040192217 0.082711841117748278 0.090121170748626148 0.0052004681641849328 0.030416567230214617 0.031257314831957032 -0.029982900539911081
leaf_weight=130.39431400597095 53.469181299209595 57.485509812831879 56.505888387560844 65.087157011032104 71.148482039570808 32.137297540903091 24.078605815768245 34.480622336268425 46.757341340184212 32.51706625521183 14.620039165019991 60.956794708967209 22.004825532436371 55.953216880559921 22.89130607247353 211.24246734380722 52.214827597141266 27.278870984911919 45.947131454944611 19.206870779395103 12.166763350367544 46.985269144177437 7.5154865682125083 50.237226232886314 5.7259901612997046 8.8467992991209012 24.971469655632973 11.148171633481978 6.2994501888751975 35.226132735610008
leaf_count=772 241 235 277 364 375 156 111 203 239 146 63 288 124 241 108 1315 297 124 268 97 60 198 40 222 26 38 133 49 27 206
internal_value=-0.00018223 0.0286298 0.0464371 0.00380509 -0.0438708 0.0268934 0.0263889 -0.0233394 -0.0158901 0.0684551 0.0612816 0.0381755 0.00100248 0.0477427 0.0107284 -0.0512136 -0.0429746 0.0406686 -0.0239814 0.00123412 0.0231273 0.0764333 0.034369 0.050602 0.0319336 0.0517722 -0.0157375 0.0585864 0.0735983 -0.0139467
internal_weight=1345.5 810.794 472.127 338.667 534.707 155.904 247.118 140.855 182.763 225.009 167.523 140.999 54.1421 88.4703 106.12 393.852 182.609 101.762 136.006 75.7128 39.4456 79.0529 30.4068 80.0418 29.8046 62.316 90.0586 32.0677 20.9195 106.375
internal_count=7043 3875 2128 1747 3168 743 1169 784 1004 959 724 647 280 387 522 2384 1069 463 765 374 184 337 148 359 137 279 497 139 90 581
is_linear=0
shrinkage=0.05


Tree=7
num_leaves=31
num_cat=0
split_feature=37 14 3 3 15 2 3 3 2 28 32 28 27 32 17 2 3 19 0 3 17 23 2 3 12 34 30 2 30 30
split_gain=620.011 126.721 70.6135 42.6954 39.5208 31.3271 15.9111 15.8608 13.3097 13.17 12.5653 9.25511 8.64963 8.64425 7.93905 7.72069 8.70586 10.1228 7.75804 7.41413 7.3892 7.34074 7.9485 7.48607 6.20619 6.02032 5.7631 6.44302 5.62459 5.61332
threshold=1.0000000180025095e-35 1.0000000180025095e-35 -0.3281360360839084 -0.86928918394595567 1.0000000180025095e-35 0.95265196967630639 -0.95714309325414615 -0.99707969884241499 0.52557014063361251 1.0000000180025095e-35 1.0000000180025095e-35 1.0000000180025095e-35 1.0000000180025095e-35 1.0000000180025095e-35 1.0000000180025095e-35 -1.1611538145350024 -0.4500320934391473 1.0000000180025095e-35 1.0000000180025095e-35 -0.84625223097118585 1.0000000180025095e-35 1.0000000180025095e-35 1.1570530006967392 1.0638500467543064 1.0000000180025095e-35 1.0000000180025095e-35 1.0000000180025095e-35 1.0374036166847789 1.0000000180025095e-35 1.0000000180025095e-35
decision_type=2 2 2 2 2 2 2 2 2 2 2 2 2 2 2 2 2 2 2 2 2 2 2 2 2 2 2 2 2 2
left_child=5 3 6 4 13 11 -3 -6 19 -7 21 -1 -13 14 -2 -5 17 18 -17 -8 29 -4 -23 -24 -15 -22 -10 -28 -21 -12
right_child=1 2 10 15 7 9 8 -9 26 -11 20 12 -14 24 -16 16 -18 -19 -20 28 25 22 23 -25 -26 -27 27 -29 -30 -31
leaf_value=-0.05746869416636944 0.035936064069943215 0.08392471222705522 0.016152873210842921 -0.041306052994119082 0.018631556104905276 -0.039410513270165974 0.057014330691504647 -0.027372931827346965 0.042516874384858322 -0.008491851552734353 0.010374667954298727 -0.048892547500597981 -0.024589094902105663 0.040470640133704938 -0.0071887928293205136 0.0051603239523184616 -0.02645871727772002 -0.028735209685532666 0.065731178279558516 -0.0012573133938737536 -0.0057410024331606864 -0.043391493039469368 0.055486691637989721 -0.032827386727519774 0.077801169331712827 0.050821694341369753 0.063786954586563152 0.09463094326815856 0.037143989674678038 0.044167511225706113
leaf_weight=203.89485594630241 50.017620161175728 58.129979595541954 69.43043726682663 25.400471180677414 32.402307689189911 62.883447766304016 39.125402182340622 44.419501036405563 21.439634039998055 76.149433195590973 14.483932197093962 126.68991197645664 51.489223062992096 28.502877563238144 13.566932737827299 45.20226962864399 53.135743573307991 21.357602387666702 5.9865973740816107 12.301516473293303 18.684491395950321 12.433126956224443 5.492518484592436 4.2612119019031525 18.27026005089283 6.2873676568269721 69.437951117753983 22.390830218791962 42.405849725008011 81.085335925221443
leaf_count=1315 228 235 341 145 156 380 168 255 91 404 68 772 297 129 63 242 302 116 31 56 88 65 26 22 80 28 292 93 189 366
internal_value=-0.000196592 0.0270213 0.0436107 0.00360859 0.0195678 -0.0427988 0.0608094 -0.00796892 0.0543213 -0.0224761 0.0221097 -0.050194 -0.0418695 0.0387366 0.0267346 -0.0161636 -0.0110824 0.000179875 0.0122442 0.0403949 0.032718 0.00815224 -0.0168845 0.016904 0.0550525 0.00850025 0.0658581 0.0713077 0.0285091 0.0390461
internal_weight=1336.76 815.652 477.39 338.262 187.179 521.107 265.231 76.8218 207.101 139.033 212.158 382.074 178.179 110.358 63.5846 151.083 125.682 72.5465 51.1889 93.8328 120.541 91.6173 22.1869 9.75373 46.7731 24.9719 113.268 91.8288 54.7074 95.5693
internal_count=7043 3875 2128 1747 911 3168 1124 411 889 784 1004 2384 1069 500 291 836 691 389 273 413 550 454 113 48 209 116 476 385 245 434
is_linear=0
shrinkage=0.05


Tree=8
num_leaves=31
num_cat=0
split_feature=37 14 1 1 2 15 1 32 1 13 32 1 28 3 1 0 2 1 19 13 0 2 2 2 2 3 2 2 30 1
split_gain=567.861 112.39 65.6746 49.9807 30.4553 17.3251 14.4248 14.4243 11.1579 11.5551 10.3021 10.2564 9.27551 9.13037 8.52565 9.42534 7.91693 7.5385 9.82573 6.7507 6.57406 6.33563 5.93001 5.71973 5.66851 5.48792 5.44519 5.35112 5.76847 5.35063
threshold=1.0000000180025095e-35 1.0000000180025095e-35 -0.76844003717838605 -1.0942029469386287 0.95265196967630639 1.0000000180025095e-35 1.5526206948633439 1.0000000180025095e-35 -1.2570844018187501 1.0000000180025095e-35 1.0000000180025095e-35 0.94181523906288855 1.0000000180025095e-35 -0.99707969884241499 0.77893378418276715 1.0000000180025095e-35 0.37767020761882758 -0.40195676369811301 1.0000000180025095e-35 1.0000000180025095e-35 1.0000000180025095e-35 -0.80386745949928595 -1.1810953785369958 1.2152158957025538 -0.52634736047154329 1.5084952502663718 0.64854311864590564 1.394689971720495 1.0000000180025095e-35 1.3082985125431619
decision_type=2 2 2 2 2 2 2 2 2 2 2 2 2 2 2 2 2 2 2 2 2 2 2 2 2 2 2 2 2 2
left_child=4 3 8 5 12 20 -6 14 -3 16 -5 19 -1 -7 15 23 -10 18 22 -9 -2 -14 -12 -4 -24 -13 -11 28 -21 -16
right_child=1 2 7 10 6 13 -8 11 9 26 17 25 21 -15 29 -17 -18 -19 -20 27 -22 -23 24 -25 -26 -27 -28 -29 -30 -31
leaf_value=-0.056643888821550317 0.031119847190309816 0.079166663490708444 0.00071914277901888584 -0.022930365440976277 -0.012558899939968018 0.017562656529939599 -0.050575393123066303 0.020615274800802837 0.022192248640282838 0.051887930179728363 -0.012814882061325351 -0.048046839802229728 -0.05303733207625249 -0.024478093692608834 -0.037248057111878098 0.043202904667666853 0.052852377544440915 -0.019629223867127094 -0.027724888534550598 0.015059123355564497 0.069341159441907343 -0.033352363971300571 0.077587614369868343 0.047180878553407711 0.023925548690966567 0.015395888964925228 0.078255673746774279 -0.0077135208203895633 0.053560066687474199 0.020279708014919219
leaf_weight=196.70326606929302 91.361510723829269 58.530992120504379 56.472704485058784 121.31054501235485 104.49474920332432 32.649101257324219 32.779168009757996 37.706058710813522 33.216852128505707 32.889209643006325 5.6291272491216651 4.9087711721658733 65.711862355470657 21.366659283638 13.819494545459749 23.488086611032486 57.50373649597168 22.998038902878761 9.0622463822364789 11.181450530886648 12.830167338252066 108.14611302316189 8.1266762316226977 7.5042960792779914 12.476686015725138 11.154111593961714 48.383856281638145 4.4429042041301718 74.882992133498192 5.7128296196460715
leaf_count=1315 409 235 274 690 581 156 203 171 146 139 31 25 418 124 75 108 241 130 49 51 54 651 40 35 64 55 198 20 325 30
internal_value=-0.000208721 0.0255332 0.0410369 0.00342124 -0.0417543 0.0239129 -0.0216367 0.0233553 0.06031 0.0538929 -0.0146293 0.0336718 -0.0492068 0.000932873 0.00944443 0.0161141 0.0416263 0.00264563 0.0171599 0.0383905 0.0358264 -0.0407926 0.0326658 0.00616895 0.0450917 -0.00399203 0.0675853 0.0457957 0.048558 -0.0204223
internal_weight=1327.44 819.609 481.798 337.811 507.835 158.207 137.274 251.274 230.525 171.994 179.603 144.276 370.561 54.0158 106.997 87.4651 90.7206 58.2928 35.2947 128.213 104.192 173.858 26.2325 63.977 20.6034 16.0629 81.2731 90.5073 86.0644 19.5323
internal_count=7043 3875 2128 1747 3168 743 784 1169 959 724 1004 647 2384 280 522 417 387 314 184 567 463 1069 135 309 104 80 337 396 376 105
is_linear=0
shrinkage=0.05


Tree=9
num_leaves=31
num_cat=0
split_feature=37 14 1 1 2 1 30 17 11 1 13 1 11 32 28 27 3 2 2 2 25 10 0 2 3 9 1 13 3 3
split_gain=520.477 100.017 58.6223 45.0762 29.6253 13.7339 13.519 13.2817 11.8453 10.3342 10.256 9.95757 9.93373 9.76945 9.30648 8.43369 7.9868 7.28325 7.00883 6.67751 6.4754 5.88518 5.84597 5.72348 6.36457 5.09764 7.84162 5.02543 5.60939 7.09986
threshold=1.0000000180025095e-35 1.0000000180025095e-35 -0.76844003717838605 -1.1756436743786896 0.95265196967630639 1.5526206948633439 1.0000000180025095e-35 1.0000000180025095e-35 1.0000000180025095e-35 -1.2570844018187501 1.0000000180025095e-35 -0.60555858229826465 1.0000000180025095e-35 1.0000000180025095e-35 1.0000000180025095e-35 1.0000000180025095e-35 1.0638500467543064 -1.4719098535660673 0.37767020761882758 1.3016293397111924 1.0000000180025095e-35 1.0000000180025095e-35 1.0000000180025095e-35 -0.6925270604881556 -0.88751343375972913 1.0000000180025095e-35 -0.72771967345835564 1.0000000180025095e-35 0.12844158054062724 -0.031404186602469165
decision_type=2 2 2 2 2 2 2 2 2 2 2 2 2 2 2 2 2 2 2 2 2 2 2 2 2 2 2 2 2 2
left_child=4 3 9 6 14 -6 17 13 21 -3 18 23 -8 19 -1 -16 20 -2 -11 -4 22 -5 -9 -10 -25 26 -26 28 29 -15
right_child=1 2 7 8 5 -7 12 16 11 10 -12 -13 -14 27 15 -17 -18 -19 -20 -21 -22 -23 -24 24 25 -27 -28 -29 -30 -31
leaf_value=-0.055856813972231037 -0.010133136162843776 0.074955269741397032 0.010895794950671424 0.017850221519346076 -0.012012182251914059 -0.049569680394781233 0.081798038879149715 -0.026685548095013452 -0.024198570832054719 0.02094286983195209 0.063519504819544201 -0.033795739436102874 0.032936228766116321 0.018814604066751239 -0.046927537349713597 -0.022451737062875409 -0.029149343226553288 0.023902798936954746 0.049677223989719931 0.071414790221515867 0.033242760842481879 -0.022128389337679005 0.030916608643629336 0.032889995629186604 -0.0069307980402903346 -0.029561332357347054 0.05858899544418248 0.043467497205540336 -0.011264425496537701 0.087167925651450706
leaf_weight=189.67962975800037 25.38369008898735 58.722728192806244 74.886317476630211 42.100976645946503 103.80615308880806 31.797075182199478 13.240333080291746 13.201256453990938 34.134319201111794 33.432786464691162 82.128047168254852 61.198120072484016 48.52155789732933 16.735355198383335 119.82830439507961 49.831426844000816 16.198651567101479 41.27613577246666 58.103892549872398 4.8533662855625144 19.27011938393116 11.781458735466002 6.610321342945098 12.691210672259329 25.041011363267899 16.346803665161133 5.5852548480033901 86.424129799008369 9.7982686161994916 4.9146611988544491
leaf_count=1315 129 235 364 211 581 203 55 63 202 146 337 371 220 74 772 297 82 187 241 23 87 60 30 59 134 89 30 378 46 22
internal_value=-0.000218262 0.0241587 0.0386942 0.0032463 -0.0407321 -0.0208189 0.0265574 0.0220354 -0.0110857 0.0568229 0.0506916 -0.018106 0.0434111 0.0280959 -0.0482467 -0.0397387 0.000370798 0.0109421 0.0391823 0.0145793 0.0126064 0.00910885 -0.00746604 -0.00786942 0.00147259 -0.00701579 0.00501792 0.0372397 0.020125 0.0343311
internal_weight=1317.52 822.581 485.28 337.301 494.943 135.603 128.422 252.892 208.879 232.387 173.665 154.997 61.7619 197.612 359.339 169.66 55.2803 66.6598 91.5367 79.7397 39.0817 53.8824 19.8116 93.7986 59.6643 46.9731 30.6263 117.872 31.4483 21.65
internal_count=7043 3875 2128 1747 3168 784 591 1169 1156 959 724 885 275 907 2384 1069 262 316 387 387 180 271 93 514 312 253 164 520 142 96
is_linear=0
shrinkage=0.05


Tree=10
num_leaves=31
num_cat=0
split_feature=37 14 35 14 32 35 17 28 11 30 8 27 13 35 11 28 27 32 0 32 19 30 23 15 17 19 19 21 25 8
split_gain=477.298 89.1734 39.5519 28.7321 19.9597 14.9763 11.8753 11.2848 11.1666 9.8534 9.7246 9.7003 9.6351 7.68252 7.8606 7.06607 6.93707 6.37127 5.95926 5.93501 5.68778 5.50422 7.02347 5.21346 6.73888 4.72566 4.55129 4.39401 4.27568 6.64083
threshold=1.0000000180025095e-35 1.0000000180025095e-35 1.0000000180025095e-35 1.0000000180025095e-35 1.0000000180025095e-35 1.0000000180025095e-35 1.0000000180025095e-35 1.0000000180025095e-35 1.0000000180025095e-35 1.0000000180025095e-35 1.0000000180025095e-35 1.0000000180025095e-35 1.0000000180025095e-35 1.0000000180025095e-35 1.0000000180025095e-35 1.0000000180025095e-35 1.0000000180025095e-35 1.0000000180025095e-35 1.0000000180025095e-35 1.0000000180025095e-35 1.0000000180025095e-35 1.0000000180025095e-35 1.0000000180025095e-35 1.0000000180025095e-35 1.0000000180025095e-35 1.0000000180025095e-35 1.0000000180025095e-35 1.0000000180025095e-35 1.0000000180025095e-35 1.0000000180025095e-35
decision_type=2 2 2 2 2 2 2 2 2 2 2 2 2 2 2 2 2 2 2 2 2 2 2 2 2 2 2 2 2 2
left_child=3 4 9 15 13 8 12 -5 25 10 26 17 27 23 -15 -1 -17 -9 -8 -11 -10 -14 28 24 -2 -6 -3 -4 29 -23
right_child=1 2 6 7 5 -7 18 11 20 19 -12 -13 21 14 -16 16 -18 -19 -20 -21 -22 22 -24 -25 -26 -27 -28 -29 -30 -31
leaf_value=-0.05517172887533011 0.013506827052717166 0.058622681547995319 0.015970579813879598 -0.038533385822947137 0.067191897334370254 -0.016611921294093994 -0.02055269382020174 -0.05940747991662812 0.024734659961649915 0.040515910146722643 0.010442266119540477 -0.0030852929304450859 0.0048319578973363385 0.0073957603728488312 -0.038783473941076937 -0.047366725595595238 -0.023319661344474784 -0.002452376617788223 0.019364410862459269 0.057148787534372483 -0.015938588193263388 0.057230988134980676 0.0077321128882768576 -0.011126235619370387 -0.014604060706529441 0.016521365571271911 0.015542595805523732 -0.021735693014562549 0.053217545730879869 0.0057891573768191068
leaf_weight=175.80709806084633 80.066104844212532 26.446031406521797 19.13786469399929 66.322852909564972 21.424561768770221 21.733182311058044 25.977220818400383 14.953230917453768 50.553256079554558 78.994527608156204 32.305100649595261 74.384892463684082 15.653958573937414 13.375333845615385 29.627453163266182 100.94518725574017 42.6677565574646 7.3109066486358634 14.607938617467878 167.04628056287766 10.356200829148291 10.90541684627533 16.563332378864288 74.645164772868156 29.056637808680534 5.8599870204925528 7.9810722768306723 12.957558915019034 44.898254886269569 14.77195543050766
leaf_count=1266 388 111 90 429 94 125 128 93 243 336 138 403 75 70 186 675 259 43 69 688 54 50 78 411 149 27 34 62 201 68
internal_value=-0.000226292 0.0228762 0.0365276 -0.0397341 0.00308032 0.0205654 0.017528 -0.0226506 0.0297268 0.0471868 0.0301462 -0.0117514 0.0246628 -0.00539558 -0.0244202 -0.0484504 -0.0402223 -0.0407051 -0.00618521 0.0518086 0.0178191 0.0321299 0.0370338 -0.000943721 0.00602161 0.0563092 0.0486356 0.00074781 0.0439106 0.027637
internal_weight=1307.34 824.944 488.247 482.392 336.698 109.927 175.474 162.972 88.194 312.773 66.7322 96.649 134.888 226.771 43.0028 319.42 143.613 22.2641 40.5852 246.041 60.9095 102.793 87.139 183.768 109.123 27.2845 34.4271 32.0954 70.5756 25.6774
internal_count=7043 3875 2128 3168 1747 543 821 968 418 1307 283 539 624 1204 256 2200 934 136 197 1024 297 472 397 948 537 121 145 152 319 118
is_linear=0
shrinkage=0.05


Tree=11
num_leaves=31
num_cat=0
split_feature=37 14 3 3 14 15 3 3 29 3 13 25 27 27 13 33 29 27 11 25 3 17 8 3 17 3 0 17 23 33
split_gain=437.771 79.5671 47.7909 30.6688 28.0112 26.6295 12.6842 10.9704 10.674 10.1896 11.1361 10.0471 9.06896 8.15986 7.89231 7.19325 7.11322 6.75575 6.06409 5.98919 6.61184 5.96834 6.90874 7.40859 5.63017 5.40503 5.39999 5.35987 6.42935 5.26727
threshold=1.0000000180025095e-35 1.0000000180025095e-35 -0.49542162416854535 -0.86928918394595567 1.0000000180025095e-35 1.0000000180025095e-35 -0.99707969884241499 0.35671383138789181 1.0000000180025095e-35 -0.95714309325414615 1.0000000180025095e-35 1.0000000180025095e-35 1.0000000180025095e-35 1.0000000180025095e-35 1.0000000180025095e-35 1.0000000180025095e-35 1.0000000180025095e-35 1.0000000180025095e-35 1.0000000180025095e-35 1.0000000180025095e-35 -0.5803614196361323 1.0000000180025095e-35 1.0000000180025095e-35 0.86045814665219356 1.0000000180025095e-35 1.4055078179450478 1.0000000180025095e-35 1.0000000180025095e-35 1.0000000180025095e-35 1.0000000180025095e-35
decision_type=2 2 2 2 2 2 2 2 2 2 2 2 2 2 2 2 2 2 2 2 2 2 2 2 2 2 2 2 2 2
left_child=4 3 9 5 16 27 -7 13 12 -3 29 25 -6 15 -13 -4 17 -1 19 -5 -21 22 -16 -24 -12 26 -9 28 -2 -11
right_child=1 2 7 18 8 6 -8 11 -10 10 24 14 -14 -15 21 -17 -18 -19 -20 20 -22 -23 23 -25 -26 -27 -28 -29 -30 -31
leaf_value=-0.046420364711149735 0.042433370871657966 0.068803462167937049 0.021327080369190829 -0.014842465286663359 -0.039661551124355904 0.016509228129992098 -0.024819510090612135 -0.020406046339231723 -0.037517729217600868 0.037893314363786706 0.062178630838119101 -0.024149177775577978 -0.0029357671406458844 0.040392685631048975 0.013399150772792096 -0.036828365783312098 -0.054451547627268275 -0.022467164212158684 -0.020497014591864413 0.067989719798293616 0.0028871502755126281 -0.0013918434641593121 0.019894665773542104 0.073428251410967357 0.012036752991693102 -0.058063054793623371 0.024019988533339698 0.008153952484019648 0.0076391587656859487 0.0037882644373314076
leaf_weight=97.930002525448799 77.781155198812485 58.649117156863213 63.438377752900124 22.609166711568832 21.727174639701843 32.884258329868317 42.635761439800262 20.20135809481144 64.752741649746895 82.789803370833397 74.768006399273872 9.6492954194545728 74.267912834882736 73.24542535841465 23.923770740628242 5.8036586195230475 169.38871520757675 42.087471976876259 106.38822102546692 5.7598380744457272 12.078254625201224 17.021210059523582 11.305150598287584 15.088511511683462 6.0514645725488654 5.7874423116445533 10.341636866331102 20.293268099427223 16.009535029530525 13.114415079355238
leaf_count=675 336 235 284 117 136 156 255 101 429 345 303 47 403 316 108 28 1266 259 628 28 63 82 50 69 25 31 49 92 72 55
internal_value=-0.000232981 0.0216547 0.0344855 0.00292251 -0.0387621 0.0162074 -0.00682342 0.019525 -0.0218301 0.0507448 0.0447516 0.00791416 -0.0112481 0.028759 0.0181415 0.0164527 -0.0475589 -0.0392203 -0.0142318 0.00224751 0.0239085 0.0242016 0.0328593 0.0504983 0.0584242 -0.0137587 -0.00536371 0.031453 0.0364942 0.0332296
internal_weight=1297.77 827.618 491.179 336.439 470.154 189.604 75.52 255.806 160.748 235.373 176.724 113.318 95.9951 142.487 76.9879 69.242 309.406 140.017 146.835 40.4473 17.8381 67.3386 50.3174 26.3937 80.8195 36.3304 30.543 114.084 93.7907 95.9042
internal_count=7043 3875 2128 1747 3168 911 411 1165 968 963 728 537 539 628 356 312 2200 934 836 208 91 309 227 119 328 181 150 500 408 400
is_linear=0
shrinkage=0.05


Tree=12
num_leaves=31
num_cat=0
split_feature=37 14 1 1 2 1 30 1 32 28 1 2 17 32 12 27 27 2 1 19 2 3 2 3 0 2 2 1 2 30
split_gain=401.832 71.2111 44.6356 35.5851 27.3575 12.7223 11.2899 10.7976 9.85418 9.42663 9.26672 9.15502 9.2702 8.12825 7.79422 7.64362 7.46826 6.99562 6.78161 7.65396 6.70529 6.43464 6.19805 7.56828 6.14765 6.05262 6.859 5.81024 4.96229 4.9114
threshold=1.0000000180025095e-35 1.0000000180025095e-35 -0.76844003717838605 -1.1756436743786896 0.95265196967630639 1.5526206948633439 1.0000000180025095e-35 0.86037451162282796 1.0000000180025095e-35 1.0000000180025095e-35 -1.2570844018187501 0.87787110466883089 1.0000000180025095e-35 1.0000000180025095e-35 1.0000000180025095e-35 1.0000000180025095e-35 1.0000000180025095e-35 0.29291856061035515 -0.40195676369811301 1.0000000180025095e-35 0.89116548067015955 -0.15789218091865898 1.3730866107183355 1.9464512379170518 1.0000000180025095e-35 -1.1810953785369958 -0.33524070545243928 -1.0127622194985679 -0.98334153551722725 1.0000000180025095e-35
decision_type=2 2 2 2 2 2 2 2 2 2 2 2 2 2 2 2 2 2 2 2 2 2 2 2 2 2 2 2 2 2
left_child=4 3 10 6 9 -6 24 13 -5 -1 -3 12 17 16 -8 -11 -4 -12 19 25 -9 -18 23 -22 -2 -10 -27 -19 -16 -13
right_child=1 2 7 8 5 -7 14 20 18 15 11 29 -14 -15 28 -17 21 27 -20 -21 22 -23 -24 -25 -26 26 -28 -29 -30 -31
leaf_value=-0.053699379425417353 0.0044819789752393998 0.0656306364927981 -0.0019736465970274942 -0.017882330146925505 -0.010037886521031729 -0.047330168249343885 0.029239492771768245 -0.037973529941157894 -0.013248117772006518 -0.044006541056156867 0.016507298702392842 0.027927622204809811 -0.0027394218815871172 0.03056649948766791 0.049168471899728818 -0.020089293455953488 0.065213662358355365 0.056044618631598153 -0.017289537599596547 -0.020835342793860383 0.0042128992667600125 0.016730395097735811 -0.040823900045936529 0.078871159632089835 0.0595954261420273 0.053849016207401623 -0.00075704690078485571 0.030339091614375809 0.11206691076592586 0.070397163955770614
leaf_weight=169.83723318576813 61.77403162419796 58.415727898478508 49.983022898435593 137.47627082467079 101.15851582586765 29.551167294383049 49.336840018630028 11.751385375857351 7.2181700617074922 109.71097944676876 24.055494174361229 8.3999560326337797 13.770590275526045 128.36229304969311 8.6171865016221982 48.029771998524666 8.587173253297804 60.424541562795639 22.226067647337914 10.624964043498037 15.596031486988073 33.703520730137825 5.2018851190805426 4.338928058743476 5.5112238824367514 19.936067149043083 8.0819727629423195 34.553348898887634 4.9296316355466834 35.909468799829483
leaf_count=1315 293 235 239 796 581 203 220 62 39 772 102 34 58 549 35 297 37 245 130 57 79 156 26 21 23 93 41 141 20 144
internal_value=-0.000238272 0.0205366 0.0326307 0.00277537 -0.0378084 -0.018469 0.0232317 0.0182434 -0.0101782 -0.0455252 0.0483615 0.0426657 0.0360995 0.0224298 0.0384635 -0.0367241 0.0111107 0.0405926 0.0053775 0.0163628 -0.00679572 0.026575 0.0077798 0.0204626 0.00899623 0.0275794 0.0380976 0.0466928 0.072057 0.062346
internal_weight=1287.07 828.786 493.053 335.732 458.288 130.71 130.169 257.524 205.564 327.578 235.529 177.113 132.804 220.636 62.8837 157.741 92.2737 119.033 68.0872 45.8612 36.8882 42.2907 25.1368 19.935 67.2853 35.2362 28.018 94.9779 13.5468 44.3094
internal_count=7043 3875 2128 1747 3168 784 591 1169 1156 2384 959 724 546 981 275 1069 432 488 360 230 188 193 126 100 316 173 134 386 55 178
is_linear=0
shrinkage=0.05


Tree=13
num_leaves=31
num_cat=0
split_feature=37 32 2 1 1 2 27 1 1 2 3 28 30 2 27 30 2 33 2 1 3 3 23 2 1 2 3 2 2 15
split_gain=368.961 53.1921 26.5876 22.6324 20.6678 25.4799 14.2033 12.5653 12.0925 12.0337 12.0468 9.4636 9.44397 8.39258 7.41031 7.20764 8.36075 7.20635 6.44593 5.8901 7.06056 9.93702 5.8606 6.0481 6.83911 5.33672 5.22107 4.90204 4.89621 4.88131
threshold=1.0000000180025095e-35 1.0000000180025095e-35 0.95265196967630639 -1.2163640380987197 -0.64627894601829505 0.20151972560121836 1.0000000180025095e-35 -1.2570844018187501 1.5526206948633439 0.17326917659839444 0.35671383138789181 1.0000000180025095e-35 1.0000000180025095e-35 -1.3157009355504516 1.0000000180025095e-35 1.0000000180025095e-35 0.35939044061700004 1.0000000180025095e-35 1.0124766616822869 -0.40195676369811301 -0.082897902763131179 0.16505565481820836 1.0000000180025095e-35 1.123817060693417 0.4938912381425547 -0.16407561443532862 -0.94561909761176011 1.2152158957025538 -1.279141401546797 1.0000000180025095e-35
decision_type=2 2 2 2 2 2 2 2 2 2 2 2 2 2 2 2 2 2 2 2 2 2 2 2 2 2 2 2 2 2
left_child=2 4 11 15 5 7 17 -2 -4 19 12 -1 -11 -9 -13 16 -3 28 -14 25 -21 -22 -8 -24 -25 29 -15 -20 -6 -5
right_child=1 3 8 9 6 -7 22 13 -10 10 -12 14 18 26 -16 -17 -18 -19 27 20 21 -23 23 24 -26 -27 -28 -29 -30 -31
leaf_value=-0.053025522446418664 0.023144295742785995 0.013960800833044027 -0.0095896349790740576 0.030972525070074232 -0.049365486796946495 0.040257053234480235 0.020750708361117622 -0.023418260206542949 -0.046406493944100069 0.014173290215531945 0.012331365489620655 -0.043074187753259198 0.037505456179630005 0.030161034350910988 -0.019320980877664186 0.061512923694314658 0.074885270665426135 -0.041082382554835463 0.076332553516619883 -0.035490739126246638 0.082552290466117756 -0.035470439244927092 -0.045867454935883893 0.049522915090308893 -0.033878149960077479 -0.01344809904243692 -0.0020086083272477981 0.034406739395342376 -0.006246102149742294 -0.019034579627846188
leaf_weight=163.55530559271574 62.383175358176231 19.723186314105991 100.60707370936871 38.56461700797081 7.3714463561773291 73.701807722449303 44.718374982476234 39.446990460157394 28.655268669128418 35.250660046935081 64.568848118185997 106.56199035048485 116.50936357676983 16.303047388792038 47.457597583532333 70.190887778997421 7.8814650774002066 27.61392742395401 21.68554657697678 13.680598899722101 3.711193159222602 3.433465987443924 7.8822199553251293 5.573255851864813 4.3976740092039108 11.612908959388731 55.719361454248428 10.275556355714796 61.588137850165367 5.5868807882070533
leaf_count=1315 278 85 581 180 46 305 217 238 203 150 292 772 484 71 297 287 32 163 88 80 21 20 46 25 23 56 284 42 329 33
internal_value=-0.00024159 0.0194916 -0.0368684 0.0319125 0.00658286 0.0156202 -0.00747499 0.00517584 -0.0177513 0.0255646 0.0309092 -0.0446496 0.0374384 -0.0048801 -0.0357552 0.0530004 0.0313555 -0.0194984 0.0429621 0.00823838 -0.0144514 0.0258348 0.011082 -0.013136 0.0127389 0.0167119 0.00527334 0.0628533 -0.0108554 0.0246447
internal_weight=1276.21 829.375 446.837 422.675 406.699 247.554 159.145 173.853 129.262 324.88 248.29 317.575 183.721 111.469 154.02 97.7955 27.6047 96.5735 148.47 76.5897 20.8253 7.14466 62.5715 17.8531 9.97093 55.7644 72.0224 31.9611 68.9596 44.1515
internal_count=7043 3875 3168 1850 2025 1176 849 871 784 1446 1056 2384 764 593 1069 404 117 538 614 390 121 41 311 94 48 269 355 130 375 213
is_linear=0
shrinkage=0.05


Tree=14
num_leaves=31
num_cat=0
split_feature=37 14 1 1 14 1 3 13 15 11 25 27 28 13 1 3 27 32 27 17 1 23 3 0 3 1 3 1 32 21
split_gain=338.787 58.4392 38.0702 29.2926 26.201 11.3515 11.268 9.9059 9.7762 9.37799 8.234 7.49556 7.19789 6.97608 6.41265 6.30023 6.21252 5.90865 9.46611 5.74914 5.40086 5.35953 5.30796 4.95364 4.83808 4.21978 6.74843 4.08085 5.16379 5.04902
threshold=1.0000000180025095e-35 1.0000000180025095e-35 -0.97204185577853786 -1.0942029469386287 1.0000000180025095e-35 1.5526206948633439 0.35671383138789181 1.0000000180025095e-35 1.0000000180025095e-35 1.0000000180025095e-35 1.0000000180025095e-35 1.0000000180025095e-35 1.0000000180025095e-35 1.0000000180025095e-35 1.0639763302229797 -0.99707969884241499 1.0000000180025095e-35 1.0000000180025095e-35 1.0000000180025095e-35 1.0000000180025095e-35 -0.40195676369811301 1.0000000180025095e-35 -0.841196684990139 1.0000000180025095e-35 -0.97339148557751032 0.45317087442252435 1.3860362391010161 1.0000000180025095e-35 1.0000000180025095e-35 1.0000000180025095e-35
decision_type=2 2 2 2 2 2 2 2 2 2 2 2 2 2 2 2 2 2 2 2 2 2 2 2 2 2 2 2 2 2
left_child=4 3 19 8 12 17 7 -4 24 -5 14 27 -1 -12 23 -10 -14 18 -6 -3 -11 -15 -21 -8 -2 -19 -27 28 29 -9
right_child=1 2 6 9 5 -7 10 11 15 20 13 -13 16 21 -16 -17 -18 25 -20 22 -22 -23 -24 -25 -26 26 -28 -29 -30 -31
leaf_value=-0.05244196052028436 0.036624642009504819 0.050393456458469724 0.012946579469489706 0.0071542649897721111 -0.052323813179014023 -0.046711034035644007 -0.016909539158256558 0.016722985190173307 0.013563907011394186 -0.011959627423538904 -0.024259636143501375 0.047957354366285086 -0.043752897534009176 0.029192934973014818 -0.053047205690009862 -0.021655266406104101 -0.020165892882606173 0.029891372011684209 -0.011398606851526813 -0.0073373237485021411 -0.034146631185840347 -0.0032521279517955057 0.058321222063342726 0.027674707719705562 0.01547543451269185 -0.046191855297254267 0.006833609410834488 0.068821515948941994 0.032364814819006618 -0.033636051555812709
leaf_weight=151.26680289953947 55.306456968188286 165.47694167494774 84.062486678361893 46.687299087643623 18.183311030268669 30.503567785024643 18.811995878815651 16.238114163279537 33.549659639596939 85.401464089751244 9.6437298655509931 59.258754685521126 89.599026322364807 51.452684178948402 7.9318685978651038 20.430878952145576 40.551196321845055 10.55755504965782 63.379707872867584 8.5515526086091977 40.406158655881882 16.911916106939316 4.8091704845428458 9.3152429163455981 52.911086335778236 8.0368867218494433 23.678854644298553 4.4502485841512671 31.144322410225868 7.1772329658269873
leaf_count=1266 232 672 365 239 128 224 94 73 156 497 47 245 675 230 44 124 259 61 373 35 268 79 20 43 231 46 136 20 128 33
internal_value=-0.000244922 0.0184995 0.0294068 0.00236019 -0.0359449 -0.0193894 0.0189844 0.0260692 0.0176144 -0.0119835 0.00641754 0.0353964 -0.0450246 0.0155509 -0.0133411 0.000233942 -0.0364038 -0.0126595 -0.0205223 0.0478461 -0.0190855 0.0211667 0.0162964 -0.00214403 0.0262841 0.00251112 -0.00660324 0.0227824 0.0190272 0.00128702
internal_weight=1265.69 829.929 495.236 334.693 435.757 154.34 316.399 202.331 162.198 172.495 114.067 118.269 281.417 78.0083 36.0591 53.9805 130.15 123.836 81.563 178.838 125.808 68.3646 13.3607 28.1272 108.218 42.2733 31.7157 59.0099 54.5597 23.4153
internal_count=7043 3875 2128 1747 3168 968 1401 864 743 1004 537 499 2200 356 181 280 934 744 501 727 765 309 55 137 463 243 182 254 234 106
is_linear=0
shrinkage=0.05


Tree=15
num_leaves=31
num_cat=0
split_feature=37 14 1 1 14 1 1 30 23 15 11 28 1 27 1 3 25 13 25 28 1 1 23 17 1 33 32 3 8 3
split_gain=311.211 52.5031 34.5519 26.4496 25.4901 10.8289 10.1885 9.46618 8.75465 8.73359 8.58873 7.24499 6.44288 6.04168 5.72356 5.72068 5.68771 5.66416 5.58412 5.44455 5.15138 5.22733 4.69878 4.70817 4.45415 4.41852 4.20545 4.19384 4.18458 4.11423
threshold=1.0000000180025095e-35 1.0000000180025095e-35 -0.97204185577853786 -1.0942029469386287 1.0000000180025095e-35 1.5526206948633439 0.86037451162282796 1.0000000180025095e-35 1.0000000180025095e-35 1.0000000180025095e-35 1.0000000180025095e-35 1.0000000180025095e-35 0.45317087442252435 1.0000000180025095e-35 -1.2570844018187501 -0.99707969884241499 1.0000000180025095e-35 1.0000000180025095e-35 1.0000000180025095e-35 1.0000000180025095e-35 -0.60555858229826465 -0.72771967345835564 1.0000000180025095e-35 1.0000000180025095e-35 1.3490188762631921 1.0000000180025095e-35 1.0000000180025095e-35 -0.95714309325414615 1.0000000180025095e-35 0.76581567669259754
decision_type=2 2 2 2 2 2 2 2 2 2 2 2 2 2 2 2 2 2 2 2 2 2 2 2 2 2 2 2 2 2
left_child=4 3 14 9 11 18 7 29 26 22 -5 -1 -10 -13 -3 -11 -8 25 -6 -20 21 -12 23 -2 -18 -16 -9 -25 -24 -4
right_child=1 2 6 10 5 -7 16 8 12 15 20 13 -14 -15 17 -17 24 -19 19 -21 -22 -23 28 27 -26 -27 -28 -29 -30 -31
leaf_value=-0.051811361058188059 0.034798254840603872 0.058495976502627625 -0.0020508098440310137 0.0067738911149860933 -0.032281903675568234 -0.045842007681503844 -0.032847209139752094 0.020634723188877189 0.013438507866054925 0.012819557627026424 -0.015582782011817059 -0.042872820687007762 -0.0411091202832949 -0.019402523705975894 0.035181999279987386 -0.020841703381103499 -0.0031076191227095854 0.051697057759989687 -0.024306726680517463 0.0014655244900034781 -0.029552266881866979 0.020495109762083474 0.033814538079437927 0.025362819547178967 0.050616428273491387 -0.00043891484882331068 0.036275049318836738 -0.030655541817728095 -0.013676491964820181 0.041368284295891129
leaf_weight=145.59647349268198 74.546929582953453 57.285180434584618 49.421037331223488 46.839461788535118 26.864259302616119 29.552024751901627 13.32903480529785 68.483033135533333 34.629008278250694 33.718323141336441 55.931214079260826 86.934499204158783 6.4164282679557791 40.052273243665695 58.762527704238892 20.173667058348656 18.549468770623211 52.517677366733551 29.64802959561348 66.36138679087162 56.211751163005829 12.236664831638334 7.1785501837730417 8.4312987923622114 4.8711919486522666 10.219840914011 115.40995706617832 5.5341632664203635 13.108359217643738 6.1329600214958182
leaf_count=1266 312 235 219 239 177 224 73 306 152 156 324 675 31 259 239 124 92 211 197 370 371 70 32 36 23 42 476 25 58 29
internal_value=-0.0002476 0.0175705 0.0278886 0.00224277 -0.0350419 -0.0186671 0.0179821 0.0212254 0.0257903 0.0166792 -0.0114746 -0.0441986 0.00491135 -0.0354702 0.0454672 0.000218964 -0.00677295 0.0393243 -0.0121313 -0.00649303 -0.0183467 -0.00910652 0.0248325 0.029807 0.00806628 0.0299047 0.0304505 0.00316414 0.00312827 0.0027425
internal_weight=1254.95 829.938 496.027 333.91 425.009 152.426 317.242 280.492 224.938 162.691 171.219 272.583 41.0454 126.987 178.785 53.892 36.7497 121.5 122.874 96.0094 124.38 68.1679 108.799 88.5124 23.4207 68.9824 183.893 13.9655 20.2869 55.554
internal_count=7043 3875 2128 1747 3168 968 1401 1213 965 743 1004 2200 183 934 727 280 188 492 744 567 765 394 463 373 115 281 782 61 90 248
is_linear=0
shrinkage=0.05


Tree=16
num_leaves=31
num_cat=0
split_feature=37 32 2 1 1 2 27 1 23 28 2 1 17 15 27 2 30 2 3 3 34 0 25 23 1 3 3 8 30 12
split_gain=285.931 41.203 24.375 17.7305 16.0302 19.8443 11.8266 10.3261 9.59773 9.56767 9.44537 9.2026 8.62494 9.1955 6.78981 6.68388 6.43001 7.38969 6.304 6.25191 6.19574 6.07234 6.98935 5.74378 5.27812 5.06875 6.38058 4.82271 4.54619 4.53453
threshold=1.0000000180025095e-35 1.0000000180025095e-35 0.95265196967630639 -1.2163640380987197 -0.64627894601829505 0.20151972560121836 1.0000000180025095e-35 1.5526206948633439 1.0000000180025095e-35 1.0000000180025095e-35 1.027432834683782 -1.2570844018187501 1.0000000180025095e-35 1.0000000180025095e-35 1.0000000180025095e-35 -1.3157009355504516 1.0000000180025095e-35 0.35939044061700004 0.33571896576354471 -0.74773531420078765 1.0000000180025095e-35 1.0000000180025095e-35 1.0000000180025095e-35 1.0000000180025095e-35 0.69749305674270656 0.35671383138789181 0.78561840483669776 1.0000000180025095e-35 1.0000000180025095e-35 1.0000000180025095e-35
decision_type=2 2 2 2 2 2 2 2 2 2 2 2 2 2 2 2 2 2 2 2 2 2 2 2 2 2 2 2 2 2
left_child=2 4 9 16 5 11 19 -4 10 -1 12 -2 13 25 -11 -13 17 -3 -12 -6 29 22 -8 -21 -23 28 -27 -20 -5 -10
right_child=1 3 7 8 6 -7 21 -9 20 14 18 15 -14 -15 -16 -17 -18 -19 27 23 -22 24 -24 -25 -26 26 -28 -29 -30 -31
leaf_value=-0.051132692203259722 0.019186061684808645 0.0098096301044789322 -0.0083283836983625275 0.014584178190093229 -0.056657320768113806 0.034907910531243834 -0.027174185241829601 -0.043690760963640586 -0.00058158823286340745 -0.040398000514209526 0.062767189078340821 -0.021615156734356329 -0.0015913609699274506 -0.028879430480326859 -0.0170712621017617 0.0042344196482997244 0.054418593384776205 0.06724371355422068 0.0074656178910837943 -0.0065301152176212201 0.033348169255309534 0.051747118448878908 0.014370523295579921 -0.036538939198602224 -0.0044787010857318911 -0.022936260192327942 0.043997753034340864 0.048349010332993603 0.034959720824303937 -0.052676494059886093
leaf_weight=145.98912984877825 63.347092121839523 19.931400880217556 98.96786642074585 35.047329485416412 9.5698562115430814 74.018483281135559 15.805654063820837 26.085151925683022 37.053419589996338 97.765571594238281 25.279638215899467 38.259365037083626 34.860313013195992 7.4462939053773871 45.813678458333015 72.194969460368156 69.684909820556641 7.7891629785299292 13.969885379076004 63.79278589785099 12.765823766589163 12.724107995629312 28.162518188357353 21.259581714868546 6.2115718424320212 10.105937466025351 5.4971999675035468 14.914444908499718 125.0693648904562 4.7079002410173407
leaf_count=1315 278 85 581 155 63 305 85 203 174 772 102 238 165 47 297 355 287 32 60 350 58 57 137 125 32 45 26 64 527 23
internal_value=-0.000248676 0.0166986 -0.0341525 0.027593 0.00529961 0.0132271 -0.00717188 -0.0157047 0.022011 -0.0421194 0.0258466 0.00399365 0.0212042 0.0255427 -0.0329548 -0.0047194 0.0463162 0.025948 0.0445337 -0.0183422 0.0028641 0.0096309 -0.000563945 -0.0140311 0.0333031 0.0278489 0.000645513 0.0285758 0.0304998 -0.00645443
internal_weight=1244.09 829.469 414.621 424.123 405.346 247.82 157.526 125.053 326.718 289.568 272.19 173.801 218.026 183.166 143.579 110.454 97.4055 27.7206 54.164 94.6222 54.5271 62.9039 43.9682 85.0524 18.9357 175.72 15.6031 28.8843 160.117 41.7613
internal_count=7043 3875 3168 1850 2025 1176 849 784 1446 2384 1191 871 965 800 1069 593 404 117 226 538 255 311 222 475 89 753 71 124 682 197
is_linear=0
shrinkage=0.05


Tree=17
num_leaves=31
num_cat=0
split_feature=37 32 27 28 1 1 16 27 13 30 17 1 32 33 13 25 23 3 30 1 7 8 23 0 25 1 3 1 10 1
split_gain=262.658 37.063 22.0106 22.5928 16.2309 14.4815 13.0832 10.774 9.36414 8.65315 10.7258 7.09273 7.05182 6.43951 6.40662 6.30259 6.05126 5.97758 5.87284 5.82328 5.74115 5.63055 5.99505 5.41292 6.35375 5.11036 4.66198 4.65194 4.34765 4.12334
threshold=1.0000000180025095e-35 1.0000000180025095e-35 1.0000000180025095e-35 1.0000000180025095e-35 -1.2163640380987197 -0.64627894601829505 1.0000000180025095e-35 1.0000000180025095e-35 1.0000000180025095e-35 1.0000000180025095e-35 1.0000000180025095e-35 -1.2163640380987197 1.0000000180025095e-35 1.0000000180025095e-35 1.0000000180025095e-35 1.0000000180025095e-35 1.0000000180025095e-35 -0.99707969884241499 1.0000000180025095e-35 -0.035473490217839881 1.0000000180025095e-35 1.0000000180025095e-35 1.0000000180025095e-35 1.0000000180025095e-35 1.0000000180025095e-35 -1.0942029469386287 -0.74773531420078765 0.69749305674270656 1.0000000180025095e-35 -0.40195676369811301
decision_type=2 2 2 2 2 2 2 2 2 2 2 2 2 2 2 2 2 2 2 2 2 2 2 2 2 2 2 2 2 2
left_child=2 5 12 -4 18 6 8 13 11 29 14 -2 -1 26 16 -5 -11 -8 -3 20 -12 22 -13 24 -9 -16 -7 -25 -10 -6
right_child=1 4 3 15 9 7 17 23 28 10 19 21 -14 -15 25 -17 -18 -19 -20 -21 -22 -23 -24 27 -26 -27 -28 -29 -30 -31
leaf_value=-0.048249297706237919 0.027400110951703804 0.024676219623289683 -0.039999758254528749 -0.02744096004974619 0.014246891036949309 -0.061629411166840731 0.010131292614777118 -0.026162489132772644 0.046162569278874771 0.025809257528208007 -5.4355658051119147e-05 0.0052990149794663348 -0.018190853930552992 -0.038694417395185546 0.06491455957162455 0.00026167484929483481 -0.0066896507094307972 -0.019846768030444668 0.051909805558351264 -0.023259583211574231 0.052567322192848709 -0.0088488267784969134 0.048556297242540056 0.048433278194806688 0.013575018410369495 0.033320296654844261 -0.0061520948487307665 -0.0042637270198702072 0.0064302086363065385 -0.010948444942174496
leaf_weight=179.56789681315422 51.734935894608498 27.695152848958969 91.942965626716614 27.164451062679291 46.862892389297485 4.0269772857427588 30.36004650592804 15.601310715079306 37.914626076817513 76.306514844298363 16.642343595623974 28.965755850076675 21.891006842255592 26.122735887765884 14.520545452833174 84.081132441759109 17.633420705795288 36.766083464026451 69.407000944018364 15.079898372292517 7.5279478132724753 42.640694797039032 11.071051865816115 12.90994641184807 28.318092927336693 107.95209018886089 63.508852928876877 6.1988512873649588 8.4127178937196714 24.84921732544899
leaf_count=1569 215 117 766 172 208 27 139 85 161 336 77 131 171 163 59 490 82 236 287 73 31 203 54 57 137 452 348 32 37 128
internal_value=-0.000249199 0.0158691 -0.0332718 -0.0216602 0.0261899 0.0050399 0.0125613 -0.00685831 0.0195619 0.0208651 0.0251703 0.0128804 -0.0449831 -0.0176139 0.0295318 -0.00650288 0.0197089 -0.00628818 0.0441423 0.00112273 0.0163349 0.00379473 0.0172606 0.00912433 -0.000540774 0.0370662 -0.00946006 0.0313385 0.0389475 0.00551637
internal_weight=1233.68 829.03 404.647 203.189 424.477 404.553 247.866 156.687 180.74 327.375 255.663 134.412 201.459 93.6586 216.413 111.246 93.9399 67.1261 97.1022 39.2502 24.1703 82.6775 40.0368 63.0282 43.9194 122.473 67.5358 19.1088 46.3273 71.7121
internal_count=7043 3875 3168 1428 1850 2025 1176 849 801 1446 1110 603 1740 538 929 662 418 375 404 181 108 388 185 311 222 511 375 89 198 336
is_linear=0
shrinkage=0.05


Tree=18
num_leaves=31
num_cat=0
split_feature=37 14 1 14 1 1 1 11 28 13 2 2 3 3 17 27 1 1 2 17 1 2 10 1 2 2 3 21 17 3
split_gain=241.271 40.8562 27.5628 23.9966 20.4324 9.80299 8.47746 7.45399 7.39135 6.93579 6.86699 6.0552 5.9176 5.74511 5.7025 5.37204 5.29453 5.24675 7.97143 6.87027 5.05148 8.66781 4.6101 4.59828 4.5801 6.40607 5.88669 4.35071 4.29127 4.27014
threshold=1.0000000180025095e-35 1.0000000180025095e-35 -0.97204185577853786 1.0000000180025095e-35 -1.0942029469386287 1.5526206948633439 0.90109487534285826 1.0000000180025095e-35 1.0000000180025095e-35 1.0000000180025095e-35 -1.4619390715650706 1.2152158957025538 1.8763248544725319 0.53061136716389778 1.0000000180025095e-35 1.0000000180025095e-35 0.86037451162282796 -1.2570844018187501 0.35274325261633571 1.0000000180025095e-35 -0.11691421765790057 0.83466438266451148 1.0000000180025095e-35 -0.40195676369811301 0.89116548067015955 1.3730866107183355 1.9464512379170518 1.0000000180025095e-35 1.0000000180025095e-35 -0.9913397776412266
decision_type=2 2 2 2 2 2 2 2 2 2 2 2 2 2 2 2 2 2 2 2 2 2 2 2 2 2 2 2 2 2
left_child=3 4 17 8 10 11 9 -6 -1 13 29 28 16 -4 22 -10 -13 -3 -19 -20 21 -16 -11 -9 -8 26 -26 -15 -5 -2
right_child=1 2 6 5 7 -7 24 23 15 14 -12 12 -14 27 20 -17 -18 18 19 -21 -22 -23 -24 -25 25 -27 -28 -29 -30 -31
leaf_value=-0.05007623584626883 0.008089489383377866 0.052701704907548379 0.011641910569988893 -0.011781227155603516 0.0062460571995414781 -0.043521144532308931 -0.036456090388868212 -0.010645124907165342 -0.040270189176589741 0.032021257913009506 0.020736568183666398 0.0013600045834031623 -0.014280631260215072 0.0042089761451044256 -0.020959177441469797 -0.017586894855246282 0.04590423593619504 0.014712770266217277 0.047616458848543021 0.0022448000490931713 -0.011778035242506745 0.058288085707047535 0.0089457863720471854 -0.031588473595484737 0.0010343135665210211 -0.048314568918335687 0.065697694578458185 -0.060811433145421867 -0.040036280560991004 -0.024248623823214886
leaf_weight=130.30581196397543 33.673804491758347 55.649055629968643 88.96493798494339 39.252532921731472 46.965457230806351 27.060830138623714 10.068339034914969 83.757160842418671 79.390313677489758 125.66733394563198 115.40575256943703 18.751378908753399 30.617982342839241 5.2237971723079664 5.650689259171485 38.886545822024345 10.354602813720701 36.745188131928444 75.390404477715492 9.381692022085188 18.927678167819977 8.8617655634880048 26.148254126310349 38.14442178606987 14.775852665305143 4.7563940584659568 4.6201189309358588 5.0695855617523193 20.433172412216663 14.649232521653174
leaf_count=1266 156 235 384 253 239 224 56 497 675 530 492 106 190 25 24 259 59 150 304 38 87 37 113 268 75 24 21 25 136 95
internal_value=-0.000249204 0.0150826 0.0241758 -0.0324028 0.00152473 -0.016349 0.0153874 -0.0106781 -0.0418621 0.0182154 0.0141105 -0.0101912 0.00106453 0.0075502 0.0239297 -0.0328125 0.0172068 0.0399868 0.0341639 0.0425952 0.00523834 0.0274317 0.0280468 -0.0171985 -0.00812495 0.00368539 0.0164371 -0.0278142 -0.0214542 -0.00171388
internal_weight=1223.55 828.497 495.901 395.053 332.596 146.47 318.735 168.867 248.583 284.514 163.729 119.41 59.724 99.2583 185.256 118.277 29.106 177.166 121.517 84.7721 33.4401 14.5125 151.816 121.902 34.2207 24.1524 19.396 10.2934 59.6857 48.323
internal_count=7043 3875 2128 3168 1747 968 1401 1004 2200 1225 743 744 355 434 791 934 165 727 492 342 148 61 643 765 176 120 96 50 389 251
is_linear=0
shrinkage=0.05


Tree=19
num_leaves=31
num_cat=0
split_feature=29 28 32 27 1 0 1 2 23 2 3 2 15 1 2 17 2 3 17 2 32 3 34 30 2 23 17 34 3 33
split_gain=160.809 81.3005 31.4642 21.5993 13.7786 12.2929 15.3781 14.2656 7.74851 8.02153 7.28976 7.17312 6.79477 6.45296 6.30925 6.18937 5.90348 6.42978 7.53937 5.79504 5.71319 5.51277 5.40793 5.34026 6.63041 5.16506 5.144 5.94028 5.06486 5.05155
threshold=1.0000000180025095e-35 1.0000000180025095e-35 1.0000000180025095e-35 1.0000000180025095e-35 -1.2163640380987197 1.0000000180025095e-35 -0.80916040089841645 0.20151972560121836 1.0000000180025095e-35 1.027432834683782 1.1569913065535917 0.68011726164906205 1.0000000180025095e-35 0.61605232930264575 0.91110704467215331 1.0000000180025095e-35 -1.1611538145350024 -0.80405277183244828 1.0000000180025095e-35 1.2301720687040489 1.0000000180025095e-35 -0.46401763221204312 1.0000000180025095e-35 1.0000000180025095e-35 0.35939044061700004 1.0000000180025095e-35 1.0000000180025095e-35 1.0000000180025095e-35 -0.9913397776412266 1.0000000180025095e-35
decision_type=2 2 2 2 2 2 2 2 2 2 2 2 2 2 2 2 2 2 2 2 2 2 2 2 2 2 2 2 2 2
left_child=1 2 5 20 23 6 7 16 9 10 12 29 15 -7 -2 -6 28 18 -18 26 -3 -11 -10 24 -4 -19 27 -5 -1 -8
right_child=14 3 4 19 8 13 11 -9 22 21 -12 -13 -14 -15 -16 -17 17 25 -20 -21 -22 -23 -24 -25 -26 -27 -28 -29 -30 -31
leaf_value=0.0046070075802884186 -0.049722973909156802 -0.043826667711022102 0.0068631506538234443 -0.010093933002339697 0.024868572403488939 0.031521819016319869 -0.012091270514620561 0.033848032423591377 -0.0069940284690072256 0.072674643797779784 -0.045008116740459979 0.0030851680331918682 -0.027920443353878773 -0.011468399234404038 -0.028968631502844257 0.0011385553344703664 0.025519978516606742 -0.04426689766425157 -0.01627780219695011 0.0093343890566750156 -0.011719027168767989 0.031933879873792405 0.030051052656047433 0.047971933462102344 0.061588697049648214 0.025669877958280376 -0.030662408153584467 0.048556672175289299 -0.022345252369075797 -0.037089595226241862
leaf_weight=35.831405863165855 129.06324426084757 78.734110191464424 20.06191070377827 35.860824644565582 174.47498069703579 53.351195201277733 61.483793139457703 46.436640381813049 41.649588659405708 10.230703487992285 4.4766230583190909 51.027410268783569 7.3091984540224066 10.436426609754561 51.123411379754543 32.614880070090294 54.999960869550705 8.3262194544076902 13.421398818492888 40.562199056148529 16.813514150679111 44.074406385421753 12.903941467404364 68.575696289539337 7.643507942557334 3.8657028377056113 28.709130123257637 4.9080720096826544 33.942851856350899 30.103503793478012
leaf_count=164 1299 680 85 222 741 239 355 191 197 42 24 244 47 55 396 153 242 45 62 224 131 184 58 287 32 22 186 30 214 192
internal_value=-0.000248609 0.00735534 0.0143487 -0.0207844 0.0238579 0.00434919 0.000564668 0.00962375 0.0189726 0.0224082 0.0181405 -0.0119379 0.019459 0.0244881 -0.0438345 0.0211313 0.00214378 0.0113602 0.017321 -0.00568269 -0.0381767 0.0396092 0.00176851 0.0404872 0.0219611 -0.022092 -0.0144499 -0.00303312 -0.00850437 -0.0203079
internal_weight=1213.02 1032.83 827.242 205.588 424.015 403.227 339.439 196.824 327.734 273.181 218.876 142.615 214.399 63.7876 180.187 207.09 150.388 80.6133 68.4214 110.04 95.5476 54.3051 54.5535 96.2811 27.7054 12.1919 69.478 40.7689 69.7743 91.5873
internal_count=7043 5348 3875 1473 1850 2025 1731 940 1446 1191 965 791 941 294 1695 894 749 371 304 662 811 226 255 404 117 67 438 252 378 547
is_linear=0
shrinkage=0.05


Tree=20
num_leaves=31
num_cat=0
split_feature=37 14 1 14 1 1 23 28 2 3 11 1 2 2 2 10 15 1 2 17 1 8 3 17 3 1 2 27 10 8
split_gain=203.714 33.9375 23.5517 22.5477 17.1112 9.23293 7.46683 7.43082 7.13068 9.66334 6.49515 6.16974 5.53953 5.52323 5.24506 6.73719 5.15022 4.93579 7.14206 6.22005 4.81957 6.16996 4.87038 4.71563 4.39162 4.26683 4.15652 5.14531 4.13221 4.08294
threshold=1.0000000180025095e-35 1.0000000180025095e-35 -0.97204185577853786 1.0000000180025095e-35 -1.0942029469386287 1.5526206948633439 1.0000000180025095e-35 1.0000000180025095e-35 1.0207856466831176 0.43737076257459201 1.0000000180025095e-35 0.61605232930264575 -1.4619390715650706 0.69174984065022482 1.2750405877085342 1.0000000180025095e-35 1.0000000180025095e-35 -1.2570844018187501 0.35274325261633571 1.0000000180025095e-35 -0.40195676369811301 1.0000000180025095e-35 -0.62525422641542761 1.0000000180025095e-35 -0.46401763221204312 -0.40195676369811301 -0.32028453245094418 1.0000000180025095e-35 1.0000000180025095e-35 1.0000000180025095e-35
decision_type=2 2 2 2 2 2 2 2 2 2 2 2 2 2 2 2 2 2 2 2 2 2 2 2 2 2 2 2 2 2
left_child=3 4 17 7 12 14 8 -1 9 -4 -6 -8 -2 -11 23 -16 20 -3 -19 -20 21 22 -9 28 -10 -12 27 -14 -5 -26
right_child=1 2 6 5 10 -7 11 16 24 13 25 -13 26 -15 15 -17 -18 18 19 -21 -22 -23 -24 -25 29 -27 -28 -29 -30 -31
leaf_value=-0.048925732591366573 -0.0015457177344269726 0.049177967985392604 0.018208537691161555 -0.019988896233612812 0.0057176512219628706 -0.042228845056053121 0.0062512442612793987 -0.059554587620902724 0.070608442765370857 0.012928500964608083 -0.0098830421930140109 -0.033047161210993159 0.019328950775532941 -0.025278909486359941 0.013600556467741776 -0.024521010342488353 -0.045654093377959094 0.012678659690605755 0.04387531544329689 0.00071189861336573709 -0.029279828294750832 0.042287405034908077 0.022847334406129266 -0.038123849055239911 0.014480230358644762 -0.030297481225265974 -0.0021503945082995807 0.059951707580553695 0.014033984880548717 0.039159129030422145
leaf_weight=120.60090410709381 48.083201080560684 54.324640110135078 146.94797322154045 28.075323097407818 47.130990505218506 25.729422643780708 47.260009989142418 4.4377343654632568 6.310191109776496 15.947291135787962 82.83936719596386 12.663755580782889 87.570882245898247 23.247960612177849 38.416183322668076 16.597032159566879 39.436270862817764 36.852252051234245 74.911522999405861 9.3929973840713483 60.167834460735321 5.8714650943875313 3.0091209188103658 21.369789183139801 33.095163986086845 37.040837153792381 19.919109493494034 8.5565901100635511 13.083268582820891 33.953895390033722
leaf_count=1266 251 235 621 182 239 224 209 34 26 79 497 67 368 114 227 102 364 150 304 38 470 44 22 147 142 268 89 35 86 143
internal_value=-0.000248061 0.0136491 0.021939 -0.0307148 0.00125931 -0.0150994 0.0138546 -0.0402952 0.0175281 0.0123249 -0.0100081 -0.00205373 0.0127246 -0.00973354 -0.00916082 0.0020996 -0.0310778 0.036655 0.0310399 0.0390662 -0.0232554 0.00396086 -0.0262577 -0.0190679 0.0307307 -0.0161907 0.0186374 0.0229449 -0.00917389 0.0269777
internal_weight=1202.84 826.049 494.908 376.794 331.141 143.271 319.426 233.523 259.502 186.143 167.011 59.9238 164.13 39.1953 117.542 55.0132 112.922 175.481 121.157 84.3045 73.4862 13.3183 7.44686 62.5284 73.3593 119.88 116.047 96.1275 41.1586 67.0491
internal_count=7043 3875 2128 3168 1747 968 1401 2200 1125 814 1004 276 743 193 744 329 934 727 492 342 570 100 56 415 311 765 492 403 268 285
is_linear=0
shrinkage=0.05


Tree=21
num_leaves=31
num_cat=0
split_feature=29 28 14 1 27 1 0 1 2 13 32 32 25 3 10 0 2 17 3 1 2 17 2 11 1 19 2 2 8 2
split_gain=139.999 66.8144 30.6601 21.6399 20.0095 15.5443 8.79697 6.72444 6.25163 6.00566 5.69703 5.5986 5.22243 4.93291 4.91768 4.87487 6.19296 5.63661 4.82136 4.71917 6.52836 5.66438 4.63028 6.8663 4.32349 6.71749 4.30479 5.26001 7.46901 4.17121
threshold=1.0000000180025095e-35 1.0000000180025095e-35 1.0000000180025095e-35 -0.97204185577853786 1.0000000180025095e-35 -1.1756436743786896 1.0000000180025095e-35 0.90109487534285826 0.91110704467215331 1.0000000180025095e-35 1.0000000180025095e-35 1.0000000180025095e-35 1.0000000180025095e-35 2.4676029680549578 1.0000000180025095e-35 1.0000000180025095e-35 1.0374036166847789 1.0000000180025095e-35 0.53061136716389778 -1.2570844018187501 0.35274325261633571 1.0000000180025095e-35 -1.1412122505330089 1.0000000180025095e-35 -0.40195676369811301 1.0000000180025095e-35 -1.1810953785369958 -0.33524070545243928 1.0000000180025095e-35 1.1570530006967392
decision_type=2 2 2 2 2 2 2 2 2 2 2 2 2 2 2 2 2 2 2 2 2 2 2 2 2 2 2 2 2 2
left_child=1 2 5 19 11 6 22 9 -2 18 -7 -3 -6 -10 15 16 17 -11 -5 -4 -21 -22 -1 -24 25 26 -12 28 -28 -18
right_child=8 4 3 7 12 10 -8 -9 13 14 24 -13 -14 -15 -16 -17 29 -19 -20 20 21 -23 23 -25 -26 -27 27 -29 -30 -31
leaf_value=-2.6818474018412983e-06 -0.048611479276405682 -0.04243127063656088 0.047392679286171108 0.0094485462514580561 -0.02447359693713071 -0.013920171517939381 0.055615189086442154 -0.0078962170196365811 -0.019096928953207661 0.01501832827454776 -0.012352118555139385 -0.010133905893490383 0.0013102819554794995 -0.057381118029213335 0.0031699894215482007 0.035837022856303809 0.063977392033926647 -0.025160319273233502 -0.026895388639588499 0.012032185778564141 0.041876264455101779 0.0006762750107122302 0.05936525482238969 0.012868324832076554 -0.014722043148664057 -0.022268226826626436 0.017130526012271958 -0.0025750618267173899 0.07730826606005764 0.02417762979481998
leaf_weight=57.127424091100693 119.5209347307682 74.331448584794998 53.571819856762886 89.620186448097229 25.729615122079849 128.7972876727581 11.782092839479445 33.937642470002174 38.551017291843891 49.586655721068382 6.9984051138162569 16.373606711626053 82.962009251117706 10.763183623552321 32.158918842673302 59.761082574725151 8.9354860186576825 10.593988701701162 10.159757345914839 36.889665856957436 74.571801379323006 9.3933930844068509 9.2684546411037427 55.391017004847527 21.244548097252846 10.711766704916952 11.242628127336502 8.1954893320798927 9.524417370557785 25.008137926459312
leaf_count=275 1299 680 235 384 172 796 48 176 299 213 39 131 490 97 139 247 38 49 50 150 304 38 38 230 130 57 51 41 42 105
internal_value=-0.00024646 0.00670979 0.0129912 0.0208737 -0.0192626 0.00119687 0.0143605 0.0131461 -0.0424313 0.0156446 -0.00774125 -0.0366011 -0.00479331 -0.0274527 0.0209524 0.0246685 0.0175775 0.00794542 0.00574795 0.03504 0.0295644 0.0372671 0.0103694 0.0195333 0.00397637 0.0124875 0.0228403 0.0313441 0.0447299 0.0346547
internal_weight=1192.7 1023.87 824.472 494.189 199.397 330.284 133.569 319.762 168.835 285.824 196.715 90.7051 108.692 49.3142 186.044 153.885 94.1243 60.1806 99.7799 174.427 120.855 83.9652 121.787 64.6595 67.9173 46.6727 35.9609 28.9625 20.767 33.9436
internal_count=7043 5348 3875 2128 1473 1747 591 1401 1695 1225 1156 811 662 396 791 652 405 262 434 727 492 342 543 268 360 230 173 134 93 143
is_linear=0
shrinkage=0.05


Tree=22
num_leaves=31
num_cat=0
split_feature=37 14 14 1 1 1 28 0 23 1 2 11 30 32 27 18 1 8 1 30 2 2 1 21 2 1 1 8 33 8
split_gain=171.992 27.7072 21.2395 19.939 14.1024 8.53744 7.40193 6.55526 6.33126 6.23474 6.70426 5.90402 5.58556 4.97616 7.7974 4.96985 4.65411 4.60565 4.58429 6.75779 4.25713 5.23554 4.4125 4.24453 4.20938 4.20046 5.13992 4.59386 4.10033 4.0936
threshold=1.0000000180025095e-35 1.0000000180025095e-35 1.0000000180025095e-35 -0.76844003717838605 -1.0942029469386287 1.5526206948633439 1.0000000180025095e-35 1.0000000180025095e-35 1.0000000180025095e-35 -1.2570844018187501 0.87787110466883089 1.0000000180025095e-35 1.0000000180025095e-35 1.0000000180025095e-35 1.0000000180025095e-35 1.0000000180025095e-35 0.61605232930264575 1.0000000180025095e-35 -0.40195676369811301 1.0000000180025095e-35 1.0374036166847789 1.1570530006967392 0.290289419542403 1.0000000180025095e-35 -1.1810953785369958 0.45317087442252435 0.90109487534285826 1.0000000180025095e-35 1.0000000180025095e-35 1.0000000180025095e-35
decision_type=2 2 2 2 2 2 2 2 2 2 2 2 2 2 2 2 2 2 2 2 2 2 2 2 2 2 2 2 2 2
left_child=2 4 6 9 7 13 -1 24 12 -3 28 -6 -5 14 -4 18 29 -12 19 -8 22 -22 -14 -21 -2 27 -27 -15 -11 -10
right_child=1 3 5 8 11 -7 15 -9 16 10 17 -13 20 25 -16 -17 -18 -19 -20 23 21 -23 -24 -25 -26 26 -28 -29 -30 -31
leaf_value=-0.047804939156210653 -0.0015023371745912981 0.045697310853565272 -0.048088785795600102 -0.0022940787574344487 0.0057841644015805549 -0.04079702969326926 -0.02994004863325099 0.043601672904371384 0.018638378077742181 0.023932331857680792 0.060827827760569747 -0.01516869368233565 0.018708475765016965 0.08044825465791508 -0.007796556673116864 -0.0443208500245715 -0.031822553523361378 0.028063679554808669 -0.027760124974851925 0.0074755082496579667 0.054419365797784947 0.019886898557333683 -0.0034686020007834587 0.090203356018282443 0.015488941825779479 -0.035688256071868221 0.0096668041578250093 0.0096064995275947154 -0.0024036245270737614 -0.013465827113233315
leaf_weight=111.61742489039898 62.572920739650726 52.801162034273148 14.995963752269743 40.788302347064018 47.034670099616051 24.321861691772938 6.7467812746763212 14.501139044761656 20.679579868912697 117.31811654567719 20.021953329443932 117.88250025361776 87.392028883099556 3.4634050875902158 60.249196507036686 36.968367949128151 12.434409290552138 23.101539343595505 58.018168792128563 3.7345655411481857 15.60380946099758 37.009009703993797 30.173337280750275 2.6511667668819427 87.313860893249512 8.781423747539522 21.640334025025368 6.7455389201641083 16.909796103835106 19.100523933768272
leaf_count=1266 316 235 128 185 239 224 52 60 92 477 83 765 369 21 373 364 67 95 470 29 66 156 148 19 367 52 130 40 69 86
internal_value=-0.000244063 0.0123689 -0.0290713 0.019866 0.00113755 -0.0138655 -0.0387731 0.0115013 0.0104659 0.030615 0.0261247 -0.0091929 0.014324 -0.00821266 -0.0158266 -0.029449 -0.00512243 0.0432759 -0.0217219 0.00495434 0.018307 0.0301285 0.0130167 0.0418217 0.00839563 0.00588779 -0.00342521 0.0336397 0.0206146 0.00322346
internal_weight=1182.57 822.639 359.934 493.334 329.305 140.198 219.736 164.388 263.181 230.153 177.351 164.917 210.966 115.876 75.2452 108.119 52.2145 43.1235 71.1507 13.1325 170.178 52.6128 117.565 6.38573 149.887 40.6307 30.4218 10.2089 134.228 39.7801
internal_count=7043 3875 3168 2128 1747 968 2200 743 1169 959 724 1004 924 744 501 934 245 178 570 100 739 222 517 48 683 243 182 61 546 178
is_linear=0
shrinkage=0.05


Tree=23
num_leaves=31
num_cat=0
split_feature=29 32 1 27 1 2 3 2 1 2 17 3 1 1 2 17 1 2 2 12 2 3 2 2 3 3 2 1 0 25
split_gain=121.875 45.9389 25.1124 17.6923 15.22 14.8834 10.4718 7.67896 8.15218 6.42485 7.77052 7.65689 7.11 6.3419 6.15668 5.92013 5.50973 5.27906 5.06426 7.12122 4.95442 4.79423 4.70678 4.64197 4.30575 5.00103 4.55224 4.06405 6.09097 7.09114
threshold=1.0000000180025095e-35 1.0000000180025095e-35 -0.64627894601829505 1.0000000180025095e-35 -0.40195676369811301 0.62527796064357988 -0.082897902763131179 -1.3190245295507841 0.77893378418276715 -1.1412122505330089 1.0000000180025095e-35 -0.9913397776412266 -0.89060112833847704 -1.2570844018187501 0.91110704467215331 1.0000000180025095e-35 0.86037451162282796 0.48070162162912727 -0.48480243546739032 1.0000000180025095e-35 0.46740724562779806 2.4676029680549578 0.6734700736483975 0.48734880962979182 -0.62525422641542761 -0.54217990533822669 -0.32028453245094418 1.1046966939430101 1.0000000180025095e-35 1.0000000180025095e-35
decision_type=2 2 2 2 2 2 2 2 2 2 2 2 2 2 2 2 2 2 2 2 2 2 2 2 2 2 2 2 2 2
left_child=1 2 5 7 13 9 -6 -4 -9 11 12 -1 17 18 -2 -8 22 -11 19 -3 -15 -16 -17 -22 26 -26 -14 28 29 -5
right_child=14 4 3 27 6 -7 15 8 -10 10 -12 -13 24 20 21 16 -18 -19 -20 -21 23 -23 -24 -25 25 -27 -28 -29 -30 -31
leaf_value=0.0085886882699676408 -0.047519125612349306 -0.0027865474375444229 -0.047792112884618501 -0.025474340369234738 -0.023402214030592713 0.038011219007277212 0.016712472868656816 -0.013488920163709853 -0.04657311038093527 0.017453110714464311 -0.014261634127947329 -0.021234091499165358 -0.0067124062594853002 0.012979412808216613 -0.017828681996176626 0.046629041252750622 -0.02936780238482541 0.059883700113108562 0.04742428682422286 0.059450446372877511 0.069363720732594059 -0.056741840256013025 -0.0045227580690719998 0.025261106043721501 0.051450576770482086 -0.017802100227306921 -0.074671234113939375 -0.017476440412102997 0.026457792576409175 0.0070753234669614987
leaf_weight=38.702209360897541 110.64793882519007 14.004064328968527 32.009487308561802 24.001594603061676 26.112209938466549 34.264724433422089 111.58929140120745 92.752250969409943 23.296381898224354 83.348305270075798 28.037627182900906 48.486484825611115 6.0582647919654846 113.03697023540735 37.605678208172321 6.1982432454824474 15.270682625472544 8.0374942868947965 45.255279734730721 6.8416325896978369 6.2997429370880118 10.025433674454687 16.38687764108181 112.76377341151237 4.4633167162537575 6.2677306085824949 4.1536945700645465 28.797585137188435 22.972541764378548 55.249562680721283
leaf_count=181 1299 59 303 147 163 142 527 599 190 369 145 343 36 516 299 39 91 33 203 28 27 97 80 464 21 28 22 174 114 304
internal_value=-0.000241788 0.00612385 -0.00383298 -0.014268 0.0174917 0.00728995 0.00581171 -0.0261108 -0.0201305 0.00266401 0.00928551 -0.00799605 0.015163 0.024368 -0.0410491 0.0109162 -0.00616978 0.0211849 0.0380314 0.0176399 0.0204768 -0.0260192 0.0095153 0.0275946 -0.0111142 0.0110019 -0.0343545 -0.000885297 0.00378862 -0.0027825
internal_weight=1172.94 1014.66 540.899 279.079 473.759 261.82 175.557 148.058 116.049 227.555 140.366 87.1887 112.329 298.201 158.279 149.445 37.8558 91.3858 66.101 20.8457 232.1 47.6311 22.5851 119.064 20.943 10.731 10.212 131.021 102.224 79.2512
internal_count=7043 5348 3151 1831 2197 1320 900 1092 789 1178 654 524 509 1297 1695 737 210 402 290 87 1007 396 119 491 107 49 58 739 565 451
is_linear=0
shrinkage=0.05


Tree=24
num_leaves=31
num_cat=0
split_feature=37 14 14 1 1 1 28 30 30 3 17 13 11 5 1 15 32 1 30 3 1 13 13 3 3 3 10 3 19 9
split_gain=146.87 23.0066 19.8784 16.9601 11.9322 7.7402 7.17774 6.68626 6.64433 7.10885 7.86447 6.12994 5.26379 4.75019 4.95495 4.65358 4.33001 4.17121 5.99758 4.15487 4.07982 4.34663 4.06831 4.82936 7.66102 9.84876 4.50918 3.68048 5.663 5.49183
threshold=1.0000000180025095e-35 1.0000000180025095e-35 1.0000000180025095e-35 -0.97204185577853786 -1.1756436743786896 1.5526206948633439 1.0000000180025095e-35 1.0000000180025095e-35 1.0000000180025095e-35 0.43737076257459201 1.0000000180025095e-35 1.0000000180025095e-35 1.0000000180025095e-35 1.0000000180025095e-35 -0.64627894601829505 1.0000000180025095e-35 1.0000000180025095e-35 -0.40195676369811301 1.0000000180025095e-35 0.39732377388630019 -1.2570844018187501 1.0000000180025095e-35 1.0000000180025095e-35 0.11296586991742294 -0.031404186602469165 -0.30310114899872492 1.0000000180025095e-35 -0.81531184803477952 1.0000000180025095e-35 1.0000000180025095e-35
decision_type=2 2 2 2 2 2 2 2 2 2 2 2 2 2 2 2 2 2 2 2 2 2 2 2 2 2 2 2 2 2
left_child=2 4 6 20 7 16 -1 -2 -5 19 11 -11 -9 14 -6 17 -4 18 -8 22 -3 27 23 24 25 -10 -24 28 29 -22
right_child=1 3 5 8 13 -7 15 12 9 10 -12 -13 -14 -15 -16 -17 -18 -19 -20 -21 21 -23 26 -25 -26 -27 -28 -29 -30 -31
leaf_value=-0.046702039660977551 0.0017179500145927463 0.042647449682863617 -0.014764359235429536 -0.0033699551325313188 -0.0063627440409371426 -0.039341125230439172 -0.028974013010617125 0.051888660381716467 0.021076864452366728 -0.02618360852929973 -0.022446320202848424 0.018282304699536556 0.016758187932145827 -0.00076734888958256066 -0.032863091857876302 -0.043050932315406493 0.0055379722670547936 -0.026556267765775961 0.038551052097761815 0.066946928499892783 0.028680320915169449 0.036915799576022243 0.029885388416517767 -0.031306561837276904 0.060658652745003296 -0.028375078495092271 0.00017037209770765725 0.034939436876794037 -0.02726871740493236 -0.014343721265460628
leaf_weight=103.31878181546926 69.223393395543098 51.268171310424805 73.855441994965076 61.892108798027039 44.38794419169426 22.977298595011234 6.5916552320122701 13.471393451094626 35.192209422588348 9.013690382242201 22.228717714548111 55.316103905439377 51.143490716814995 120.15708775818348 29.270905576646328 34.740200579166412 40.754671491682529 56.380752272903919 6.5620552822947502 4.7369868010282508 29.592234820127487 50.712155103683472 88.24644772708416 6.5076619684696189 7.6660796403884879 14.103074908256529 14.926368072628973 21.300416529178619 8.4200586378574354 9.8979769051074964
leaf_count=1266 316 235 501 279 277 224 52 55 144 45 112 247 220 664 215 364 243 470 48 21 120 211 367 29 33 61 63 87 34 40
internal_value=-0.00023959 0.0112937 -0.0275935 0.0181407 0.00103293 -0.012855 -0.0373618 0.0125152 0.0113422 0.0148724 0.00319255 0.0120519 0.0240825 -0.00689605 -0.0168936 -0.0281072 -0.00754497 -0.0206412 0.00471254 0.0207715 0.0308421 0.0257953 0.0194589 0.00949829 0.0141601 0.00692897 0.0255864 0.017647 0.00995897 0.0178966
internal_weight=1163.86 818.675 345.181 491.02 327.654 137.587 207.593 133.838 319.829 257.937 86.5585 64.3298 64.6149 193.816 73.6588 104.275 114.61 69.5345 13.1537 171.379 171.191 119.923 166.642 63.469 56.9614 49.2953 103.173 69.2107 47.9103 39.4902
internal_count=7043 3875 3168 2128 1747 968 2200 591 1401 1122 404 292 275 1156 492 934 744 570 100 718 727 492 697 267 238 205 430 281 194 160
is_linear=0
shrinkage=0.05


Tree=25
num_leaves=31
num_cat=0
split_feature=37 14 14 1 1 1 29 0 30 23 1 30 2 3 2 3 19 3 2 3 1 16 2 3 1 2 17 1 30 2
split_gain=134.853 20.8189 19.1628 15.5848 10.7804 7.32927 7.16563 7.12495 5.98958 6.53591 6.13623 5.48638 5.35561 8.21256 4.69725 6.2305 6.54838 5.93138 4.58986 4.67111 4.6491 4.5364 4.37093 4.17179 3.90398 5.50411 5.07994 3.87768 5.3648 3.8181
threshold=1.0000000180025095e-35 1.0000000180025095e-35 1.0000000180025095e-35 -0.97204185577853786 -1.1756436743786896 1.5526206948633439 1.0000000180025095e-35 1.0000000180025095e-35 1.0000000180025095e-35 1.0000000180025095e-35 0.61605232930264575 1.0000000180025095e-35 1.0374036166847789 0.43737076257459201 -1.2940975745482921 -0.47156783625360638 1.0000000180025095e-35 -0.84625223097118585 1.2152158957025538 1.8763248544725319 0.86037451162282796 1.0000000180025095e-35 1.1570530006967392 -0.013632507498789593 -1.2570844018187501 0.35274325261633571 1.0000000180025095e-35 -0.40195676369811301 1.0000000180025095e-35 -0.21060593043998002
decision_type=2 2 2 2 2 2 2 2 2 2 2 2 2 2 2 2 2 2 2 2 2 2 2 2 2 2 2 2 2 2
left_child=2 4 6 24 7 18 21 11 -5 12 -11 -2 13 23 -6 16 -16 -18 -4 20 -20 27 -14 -10 -3 -26 -27 28 -1 -13
right_child=1 3 5 8 14 -7 -8 -9 9 10 -12 29 22 -15 15 -17 17 -19 19 -21 -22 -23 -24 -25 25 26 -28 -29 -30 -31
leaf_value=-0.028097671768335976 -0.0018599118869880712 0.041165481345543681 -0.017496007146905853 -0.0032044724360081748 -0.02053560578569397 -0.038549237011158616 -0.046154292009660279 0.04916551640360356 0.013503441582842014 0.0066372826215298098 -0.037435579585047361 0.023286106886582007 0.050214022408567982 -0.0093558422146233344 0.01272242740565053 -0.016931366324220234 0.017413491724420159 -0.033162502382250214 0.0017284176203597353 -0.011517787397920098 0.043285009318545009 -0.042350156304685714 0.021302357107306248 0.035119326669675044 0.0085637899276416411 0.036215607774131124 -0.0028239551661777534 -0.025724588301903537 0.035692176310989476 -0.021910849760937379
leaf_weight=6.4607604444026929 63.590719193220139 50.478480100631714 55.562593869864941 61.835357591509819 45.95416945964098 22.294321931898594 99.416884250938892 11.694121018052099 87.446999415755272 37.813665226101875 9.9826207458972913 53.541832685470581 19.182073578238487 32.569495052099228 72.502176873385906 48.324067123234272 8.6594240963459033 17.537597075104713 18.632882311940197 29.335481017827988 10.535750493407248 33.57892931252718 41.045960500836372 29.971480906009674 37.01943427324295 73.135078594088554 9.4042394161224347 55.320774637162685 6.7287847101688385 5.1194987446069709
leaf_count=52 293 235 389 279 320 224 1266 48 361 165 55 228 81 159 372 321 41 102 106 190 59 364 173 128 150 304 38 470 48 22
internal_value=-0.000236231 0.0107534 -0.0268042 0.0172744 0.000981873 -0.0123289 -0.0365997 0.01188 0.010772 0.0141216 -0.00256767 0.00831344 0.0179163 0.012859 -0.00658256 -0.00222134 0.00498083 -0.0164446 -0.00720419 0.00257017 0.0167387 -0.0272952 0.0305105 0.019021 0.0295057 0.0245829 0.0317676 -0.0199163 0.00444539 0.0193417
internal_weight=1154.68 816.808 337.867 489.885 326.924 136.361 201.506 133.946 319.848 258.012 47.7963 122.252 210.216 149.988 192.977 147.023 98.6992 26.197 114.067 58.5041 29.1686 102.089 60.228 117.418 170.037 119.559 82.5393 68.5103 13.1895 58.6613
internal_count=7043 3875 3168 2128 1747 968 2200 591 1401 1122 220 543 902 648 1156 836 515 143 744 355 165 934 254 489 727 492 342 570 100 250
is_linear=0
shrinkage=0.05


Tree=26
num_leaves=31
num_cat=0
split_feature=37 14 25 1 28 1 0 30 1 30 27 1 11 1 10 1 9 15 1 1 33 1 27 8 9 11 0 1 1 1
split_gain=123.821 18.842 18.5312 14.3453 13.699 9.74727 6.46914 5.39946 5.89481 4.93702 4.83396 5.119 4.5423 4.62424 4.42533 4.28892 7.56068 4.05581 3.76252 3.72289 4.11937 3.97827 3.46815 3.24132 3.21712 3.19381 3.11465 2.86283 5.15568 2.82567
threshold=1.0000000180025095e-35 1.0000000180025095e-35 1.0000000180025095e-35 -0.97204185577853786 1.0000000180025095e-35 -1.1756436743786896 1.0000000180025095e-35 1.0000000180025095e-35 0.45317087442252435 1.0000000180025095e-35 1.0000000180025095e-35 0.290289419542403 1.0000000180025095e-35 -0.60555858229826465 1.0000000180025095e-35 -0.72771967345835564 1.0000000180025095e-35 1.0000000180025095e-35 -0.80916040089841645 -1.2570844018187501 1.0000000180025095e-35 -1.1349233106586591 1.0000000180025095e-35 1.0000000180025095e-35 1.0000000180025095e-35 1.0000000180025095e-35 1.0000000180025095e-35 -0.93132149205850745 -0.84988076461844675 -0.52411785485820395
decision_type=2 2 2 2 2 2 2 2 2 2 2 2 2 2 2 2 2 2 2 2 2 2 2 2 2 2 2 2 2 2
left_child=2 5 17 19 -4 6 9 22 26 -2 11 24 14 15 -7 18 23 -1 -14 -3 -21 -22 -5 -17 -6 -11 27 -9 -29 -12
right_child=1 3 4 7 10 12 -8 8 -10 25 29 -13 13 -15 -16 16 -18 -19 -20 20 21 -23 -24 -25 -26 -27 -28 28 -30 -31
leaf_value=-0.030243451654153826 -0.0017679549923234718 0.039743202128529588 -0.031377259785337216 -0.013985549336836987 0.042698538221741439 0.013356559149952863 0.046882119991839249 -0.015281395279445477 -0.00089187142829963103 0.043612065467151705 0.037990642940511882 -0.045421731443789443 -0.0049872321691127285 -0.023366280814618903 -0.021501164359347576 0.079354881006301795 -0.035860926813713959 -0.046198944328551608 -0.042711959689740946 0.027129128893117513 -0.02410272261373755 0.025610559426707591 0.0097828456982202265 0.015969483685931745 -0.026820991885505824 0.012962074811564786 0.02623889735138973 0.044937474182195333 0.011518144222052166 9.2469432902411304e-05
leaf_weight=78.808755837380886 63.55436746776104 49.690983355045319 71.284905813634396 33.348577916622162 3.4660501256585148 42.818037122488022 11.651558563113211 8.3728514015674573 56.33372987806797 10.306690528988836 5.2569089680910102 11.880490705370901 69.081632748246193 49.431489512324333 11.564281985163687 4.4516126662492734 3.6634178161621085 80.524991370737553 7.3087511658668509 102.97047245502472 8.3201023191213626 7.7942406982183448 28.432589113712311 3.6876771599054337 3.2010938227176666 48.470727398991585 66.726723089814186 12.842666804790495 113.83381570875645 76.383229315280914
leaf_count=757 293 235 757 154 30 211 48 34 275 42 29 104 399 371 60 25 23 1002 45 426 34 32 125 22 28 208 274 53 486 461
internal_value=-0.000233065 0.0102425 -0.0260305 0.0164532 -0.014623 0.000932447 0.0112825 0.0102306 0.0134087 0.00789178 -0.0027021 -0.0257442 -0.00628986 -0.0111241 0.00594414 -0.0042625 0.0237889 -0.0383071 -0.0085966 0.0282473 0.0234503 -5.72319e-05 -0.00304699 0.0506368 0.00932015 0.0183366 0.0174013 0.0130347 0.0149062 0.00253278
internal_weight=1145.46 814.657 330.806 488.667 171.473 325.99 133.983 319.891 258.11 122.332 100.188 18.5476 192.007 137.625 54.3823 88.1931 11.8027 159.334 76.3904 168.776 119.085 16.1143 61.7812 8.13929 6.66714 58.7774 201.776 135.049 126.676 81.6401
internal_count=7043 3875 3168 2128 1409 1747 591 1401 1122 543 652 162 1156 885 271 514 70 1759 444 727 492 66 279 47 58 250 847 573 539 490
is_linear=0
shrinkage=0.05


Tree=27
num_leaves=31
num_cat=0
split_feature=37 14 30 23 1 2 2 3 29 1 2 1 19 2 2 1 1 17 2 2 30 3 2 3 3 8 31 11 2 2
split_gain=113.633 18.1289 17.2974 14.4863 10.3134 10.1842 7.19698 8.13609 7.18659 6.8507 6.80714 6.29896 6.2861 7.80863 5.29574 4.96575 4.30637 5.79892 4.9805 4.2362 4.45303 8.59425 5.34533 4.72906 4.49823 7.23612 4.22268 4.60413 4.82038 4.12713
threshold=1.0000000180025095e-35 1.0000000180025095e-35 1.0000000180025095e-35 1.0000000180025095e-35 -1.0942029469386287 -1.1611538145350024 1.0207856466831176 0.43737076257459201 1.0000000180025095e-35 1.5526206948633439 0.27297699660836189 0.61605232930264575 1.0000000180025095e-35 -1.1810953785369958 -1.4951750115683933 -0.60555858229826465 -1.2163640380987197 1.0000000180025095e-35 -0.63602596248250753 -0.80386745949928595 1.0000000180025095e-35 -0.48029913946541419 0.50230498263128687 0.43737076257459201 1.0000000180025095e-35 1.0000000180025095e-35 1.0000000180025095e-35 1.0000000180025095e-35 -1.036519039522543 1.2750405877085342
decision_type=2 2 2 2 2 2 2 2 2 2 2 2 2 2 2 2 2 2 2 2 2 2 2 2 2 2 2 2 2 2
left_child=1 8 12 4 10 14 7 -7 19 29 26 -5 13 15 -6 -2 17 18 -15 -1 22 -22 -21 24 -23 -26 27 28 -4 -3
right_child=2 9 3 11 5 6 -8 -9 -10 -11 -12 -13 -14 16 -16 -17 -18 -19 -20 20 21 23 -24 -25 25 -27 -28 -29 -30 -31
leaf_value=-0.039135111612955152 -0.0060402852685423431 -0.015401407114885097 0.024137274934856422 0.0016609192540498877 0.030301166912095303 0.014632333154001045 0.029441656271281286 -0.012680588052283682 -0.045145907876808861 -0.037219115104860999 0.040953423736537709 -0.037108972901155925 -0.016674500157822212 0.0030471536671563154 -0.040285476845916358 -0.047280861952398716 0.0042384773752881721 -0.026182638962562982 0.045207057087570592 -0.039821423864446932 0.058061941594458981 -0.027269560990738469 0.034916922991900377 -0.040663531854875472 -0.018448964440984098 0.067599866351167229 -0.017425966782238862 0.017690516568374389 0.082250147752595038 0.0037818099046952993
leaf_weight=36.752602785825729 56.855223655700684 58.574350774288177 8.5241842418909055 81.093576833605766 3.3506341949105289 193.29910010099411 67.056669488549232 31.743458688259125 92.627389147877693 21.181326046586037 65.581579193472862 12.030860356986521 51.558881223201752 10.245166704058645 12.839065432548521 8.3743169158697111 98.875513650476933 4.9596706479787818 22.150158300995827 24.799750789999965 4.5951857119798651 7.9662408381700578 2.6477889344096175 11.385476462543009 5.0307230502367002 4.7500611692667007 7.0030174404382697 71.047907263040543 6.1378847211599341 53.78171107172966
leaf_count=418 320 415 35 386 26 883 283 159 1266 224 290 69 264 42 84 67 478 21 97 218 32 67 20 97 43 39 31 314 26 329
internal_value=-0.000229377 -0.0252624 0.00975311 0.0146575 0.0182511 0.0129244 0.0150639 0.0107797 -0.0351619 -0.0111361 0.0286253 -0.00334781 -0.00109596 0.00289099 -0.0256768 -0.0113348 0.00970257 0.0241656 0.0318738 -0.0257183 -0.0176578 -0.00548844 -0.0326116 -0.0155125 0.000622976 0.0233409 0.0199048 0.0229549 0.0484647 -0.00621894
internal_weight=1136.82 324.093 812.727 559.708 466.584 308.289 292.099 225.043 190.555 133.537 158.295 93.1244 253.019 201.46 16.1897 65.2295 136.231 37.355 32.3953 97.9278 61.1752 33.7277 27.4475 29.1325 17.747 9.78078 92.713 85.71 14.6621 112.356
